{"type":"LSTM","options":{"inputSize":40,"inputRange":40,"hiddenLayers":[20,20],"outputSize":40,"decayRate":0.999,"smoothEps":1e-8,"regc":0.000001,"clipval":5,"maxPredictionLength":100,"dataFormatter":{"indexTable":{"1":6,"2":20,"3":25,"4":26,"5":29,"6":31,"7":32,"8":35,"b":0,"o":1,"n":2,"j":3,"u":4,"r":5,"s":7,"a":8,"l":9,"t":10,"h":11,"e":12,"y":13,"c":14," ":15,"m":16,"d":17,"p":18,"i":19,"v":21,"+":22,"g":23,"é":24,"'":27,"q":28,"k":30,"-":33,"f":34,"ê":36,"stop-input":37,"start-output":38,"unrecognized":39},"characterTable":{"0":"b","1":"o","2":"n","3":"j","4":"u","5":"r","6":"1","7":"s","8":"a","9":"l","10":"t","11":"h","12":"e","13":"y","14":"c","15":" ","16":"m","17":"d","18":"p","19":"i","20":"2","21":"v","22":"+","23":"g","24":"é","25":"3","26":"4","27":"'","28":"q","29":"5","30":"k","31":"6","32":"7","33":"-","34":"f","35":"8","36":"ê","37":null,"38":null,"39":null},"values":[{"input":"bonjour","output":1},{"input":"salut","output":1},{"input":"hey","output":1},{"input":"hello","output":1},{"input":"coucou tout le monde","output":1},{"input":"salut tout le monde","output":1},{"input":"hello le peuple","output":1},{"input":"salutation","output":1},{"input":"bye","output":2},{"input":"au revoir","output":2},{"input":"au revoir tout le monde","output":2},{"input":"a +","output":2},{"input":"a plus","output":2},{"input":"tchao","output":2},{"input":"a plus tard","output":2},{"input":"goodbye","output":2},{"input":"a demain","output":2},{"input":"see ya","output":2},{"input":"je dois y aller","output":2},{"input":"passe une bonne journée","output":2},{"input":"passer une bonne journée","output":2},{"input":"passe une bonne soirée","output":2},{"input":"passer une bonne soirée","output":2},{"input":"passe une bonne nuit","output":2},{"input":"passer une bonne nuit","output":2},{"input":"lol","output":3},{"input":"ptdr","output":3},{"input":"heh","output":3},{"input":"marrant","output":3},{"input":"mdr","output":3},{"input":"météo","output":4},{"input":"c'est quoi la météo","output":4},{"input":"yes","output":5},{"input":"absolument","output":5},{"input":"je suppose","output":5},{"input":"je suis d'accord","output":5},{"input":"je pense oui","output":5},{"input":"on parie","output":5},{"input":"yas","output":5},{"input":"tu parie","output":5},{"input":"ok","output":5},{"input":"ouais","output":5},{"input":"totalement","output":5},{"input":"okay","output":5},{"input":"entendu","output":5},{"input":"yeah","output":5},{"input":"yea","output":5},{"input":"mhmm","output":5},{"input":"non","output":6},{"input":"non merci","output":6},{"input":"nope","output":6},{"input":"pas possible","output":6},{"input":"jamais","output":6},{"input":"je ne peut pas","output":6},{"input":"je peut pas","output":6},{"input":"je ne pense pas","output":6},{"input":"je veut pas","output":6},{"input":"je ne veut pas non plus","output":6},{"input":"je ne veut pas","output":6},{"input":"comment va","output":7},{"input":"comment ca va","output":7},{"input":"comment va-tu","output":7},{"input":"sup","output":7},{"input":"yo","output":7},{"input":"quoi de neuf","output":7},{"input":"qu'est-ce qui se passe","output":7},{"input":"comment se passe ta journée","output":7},{"input":"bonne journée","output":7},{"input":"bonne aprem","output":7},{"input":"bonne soirée","output":7},{"input":"bonne nuit","output":7},{"input":"bienvenue","output":7},{"input":"content de te voir","output":7},{"input":"comment je peut","output":8},{"input":"ou je peut avoir les roles","output":8},{"input":"comment je rejoins","output":8},{"input":"comment est-ce que je peut être membre","output":8},{"input":"j'ai besoin d'aide","output":8},{"input":"aide moi","output":8},{"input":"alede","output":8}],"characters":["b","o","n","j","u","r","1","s","a","l","t","h","e","y","c"," ","m","d","p","i","2","v","+","g","é","3","4","'","q","5","k","6","7","-","f","8","ê","stop-input","start-output","unrecognized"],"specialIndexes":[37,38,39]}},"trainOpts":{"iterations":100,"errorThresh":0.001,"log":true,"logPeriod":5,"learningRate":0.001,"callbackPeriod":10,"timeout":"Infinity","momentum":0.1},"input":{"rows":41,"columns":40,"weights":[-0.031307660043239594,-0.6192720532417297,0.23137393593788147,0.26548612117767334,0.20465782284736633,-0.26260098814964294,0.010509738698601723,-0.19531606137752533,-0.11153154075145721,0.08355870842933655,0.339006245136261,0.2547677755355835,0.002503518247976899,-0.1971115618944168,-0.5371176600456238,0.5813691020011902,0.1598590463399887,0.06251618266105652,-0.09667965024709702,-0.2563437819480896,0.16486704349517822,-0.417646199464798,-0.011902250349521637,-0.4334160387516022,-0.06709606200456619,-0.030091239139437675,0.1583595871925354,0.3174946904182434,0.022227264940738678,0.14010584354400635,0.203998401761055,0.22726933658123016,-0.36177220940589905,-0.08046996593475342,-0.20155633985996246,0.10027571022510529,-0.04245644807815552,-0.4886208772659302,0.0944979339838028,-0.22405943274497986,-0.6036584973335266,-0.507230818271637,0.11929868161678314,0.4975121319293976,0.01940634846687317,-0.7224411368370056,-0.7143877744674683,-0.5956645011901855,-0.798420250415802,-0.5948383808135986,-0.7723560929298401,-0.41675060987472534,-0.020689424127340317,0.2699725925922394,0.5869033336639404,-0.13876141607761383,0.015767689794301987,0.7461010217666626,0.478943794965744,-0.5021108388900757,0.10389444977045059,-0.023288516327738762,-0.7258135080337524,-0.4344308376312256,0.3032795786857605,0.5531116127967834,-0.9691783785820007,0.12740260362625122,-0.5260173082351685,-0.29482749104499817,-1.0848569869995117,-0.7411022186279297,0.22215597331523895,-0.10749340802431107,-0.8530095219612122,-0.2850494980812073,-0.7435232996940613,-0.6292844414710999,0.49980443716049194,-0.45347079634666443,-0.14051291346549988,0.004772928077727556,-0.0009772148914635181,0.3307158350944519,-0.15833503007888794,-0.3178330063819885,-0.3190056383609772,0.028910167515277863,0.47820207476615906,0.3093853294849396,0.1321307271718979,-0.01971239037811756,0.5579121708869934,-0.11715617775917053,0.07016647607088089,-0.4010853171348572,0.20091921091079712,-0.21319687366485596,0.2543541193008423,-0.029337100684642792,0.09458646923303604,0.1464439481496811,-0.19105729460716248,0.4248790144920349,0.5337536931037903,-0.12669986486434937,0.3286975920200348,0.05182310938835144,0.1324194073677063,-0.2744179666042328,0.09828681498765945,0.4505814015865326,-0.1608230620622635,0.2605739235877991,0.114970862865448,-0.4591604471206665,0.14634926617145538,0.026104142889380455,-0.614937424659729,0.2561042308807373,-0.0638885498046875,-0.4902867078781128,0.27375659346580505,0.5535418391227722,0.158061221241951,-0.4222410321235657,-0.01027071662247181,-0.48623424768447876,0.46584776043891907,0.16373573243618011,-0.14589819312095642,0.14036619663238525,0.32163575291633606,-0.14383070170879364,-0.533443033695221,0.16483640670776367,0.13455387949943542,0.13756734132766724,1.280349612236023,-0.22326593101024628,0.1882026493549347,0.13361018896102905,-0.09095766395330429,-1.0164949893951416,-0.09694138914346695,0.15977859497070312,-0.11557276546955109,0.5164321660995483,-0.5264641046524048,-0.05195609852671623,0.08573731034994125,-0.19149436056613922,-0.16994379460811615,-0.41599544882774353,-0.48063716292381287,-0.22070138156414032,-0.1392761617898941,-0.944332480430603,0.1644042581319809,-0.39343878626823425,1.0824538469314575,-0.48135602474212646,-0.21270021796226501,-0.869501531124115,-0.9236409068107605,-1.772461175918579,-0.5179597735404968,0.25247499346733093,-0.43509283661842346,-0.15675166249275208,-0.5025031566619873,0.9532600045204163,0.505119264125824,0.30900585651397705,0.03670933470129967,0.005564338993281126,-0.549451470375061,-1.4043527841567993,0.20802155137062073,-0.41622307896614075,0.9150691032409668,-0.3671835660934448,1.0964559316635132,-1.325708031654358,0.13146185874938965,-0.5736486315727234,0.37864553928375244,-0.6663933396339417,-0.29664427042007446,-1.2784020900726318,-0.19158625602722168,-0.4313710331916809,1.1007226705551147,-0.3576072156429291,1.3102315664291382,0.2657700181007385,-0.1584652066230774,-0.19941847026348114,-0.6071133613586426,1.3027312755584717,0.07370534539222717,-0.23978881537914276,0.36895751953125,0.5302156209945679,0.18853040039539337,-0.687920093536377,0.056359585374593735,0.23813264071941376,0.3492876887321472,-0.04257664829492569,0.12006901204586029,0.32630395889282227,0.08514265716075897,-0.12911821901798248,-0.9586993455886841,0.0351383276283741,-0.1717522293329239,-0.14992757141590118,0.38014596700668335,-0.13356639444828033,0.16438713669776917,0.04215007275342941,0.12227091193199158,-0.08002997189760208,0.2040332853794098,-0.2331041842699051,0.5959394574165344,0.2741135060787201,-0.42928385734558105,-0.041785649955272675,0.2771925926208496,0.37541937828063965,-0.20626945793628693,-0.4728285074234009,-0.005676969885826111,-0.24802909791469574,0.04586555436253548,0.21905744075775146,-0.47128742933273315,-0.20030519366264343,0.039590101689100266,-0.5648012161254883,0.16912741959095,0.5666096806526184,-0.05483883246779442,-0.5936636328697205,-0.15028488636016846,-0.2758951187133789,0.31133508682250977,0.016235897317528725,0.30472850799560547,0.57781583070755,0.22316838800907135,-0.28913480043411255,-0.3710542917251587,0.22269870340824127,0.820145308971405,0.021143637597560883,0.8535847067832947,0.2794688940048218,0.493205726146698,-0.2871837019920349,0.045798979699611664,0.23806752264499664,0.46275049448013306,-0.33265435695648193,-0.0600043386220932,0.18764172494411469,-0.5881986618041992,0.3023925721645355,0.2105361968278885,0.01727239042520523,-0.3639504611492157,-0.530656099319458,0.0854659453034401,0.16779790818691254,0.17964453995227814,-0.4182294011116028,0.026212843134999275,0.000009513000804872718,0.38056129217147827,-1.0020829439163208,0.5633292198181152,0.9593493938446045,0.38963860273361206,-1.1794155836105347,-0.021121080964803696,0.6214942932128906,0.15908722579479218,0.35187435150146484,0.7906402945518494,0.663815438747406,0.9716886878013611,-1.5843462944030762,-1.4553784132003784,0.08816587179899216,-1.8444002866744995,-0.4481429159641266,0.9258960485458374,-0.021683139726519585,1.7784943580627441,-0.2708660960197449,0.5460376143455505,-0.3758833110332489,0.2679039239883423,-1.6760057210922241,-0.15250155329704285,0.16066400706768036,-0.8528121709823608,0.9755252599716187,-0.16282393038272858,0.6045928597450256,-0.7524303793907166,-1.5388405323028564,-0.08693278580904007,-0.041795697063207626,0.38780808448791504,0.41248148679733276,-0.5404531955718994,1.5048158168792725,-0.016395829617977142,-0.3753066062927246,-0.15492649376392365,0.2113175392150879,0.12725761532783508,0.1406124234199524,-0.13956664502620697,-0.15844541788101196,-0.2126948982477188,-0.02417457103729248,-0.8658557534217834,-0.015268886461853981,-0.05595552921295166,-0.15884511172771454,0.025159379467368126,-0.10101789236068726,0.20011042058467865,0.19560648500919342,0.7212907075881958,-0.2427881807088852,-0.12590231001377106,-0.11770492792129517,-0.12927423417568207,-0.7422058582305908,-0.2073931246995926,0.3967849612236023,-0.1706407368183136,0.17134079337120056,0.27846866846084595,-0.3318539559841156,-0.19326429069042206,-0.5796290636062622,0.2483886480331421,-0.16616599261760712,-0.7002409100532532,0.27129048109054565,-0.11865938454866409,-0.6132506132125854,0.010792752727866173,-0.49970752000808716,-0.22526854276657104,0.6710569262504578,0.39219948649406433,-0.275499165058136,-0.2089095115661621,1.0883227586746216,0.08389262855052948,-0.7054720520973206,0.2104998528957367,-0.14679133892059326,-0.5830389857292175,-0.4160360097885132,-0.4781394302845001,0.043814949691295624,0.24442313611507416,0.22573517262935638,-0.7085877060890198,0.22832824289798737,-0.18207016587257385,-0.11563035845756531,-1.0804275274276733,0.15759330987930298,-0.15185916423797607,-0.7676892876625061,-0.4065617024898529,0.9357866644859314,-0.1861087679862976,0.25883325934410095,1.1687175035476685,-0.04663145914673805,-0.07513055205345154,-0.19795089960098267,0.028176061809062958,0.5374683737754822,-0.12260598689317703,0.0889134407043457,-0.3853066861629486,-0.6320525407791138,0.5096576809883118,-0.317020058631897,-0.5148373246192932,0.564864456653595,-0.14960432052612305,-0.6413922309875488,-0.7077184915542603,0.9957753419876099,0.33875972032546997,-1.0006927251815796,-0.177106112241745,-0.15644550323486328,-0.2162945717573166,-0.7124516367912292,-1.0410195589065552,-0.25954416394233704,0.19141095876693726,0.2254132777452469,0.08068881183862686,0.5752530694007874,-0.02445521391928196,-0.567280650138855,-0.7651764750480652,-0.23379085958003998,-0.4921198785305023,-0.8320388197898865,-0.3402015268802643,1.3086100816726685,-0.807546854019165,-0.23383939266204834,1.2072322368621826,0.12878303229808807,-0.46419164538383484,-0.2108035832643509,-0.28118520975112915,-0.14153611660003662,0.18634332716464996,0.33626946806907654,-0.6814152002334595,-0.5787860751152039,1.464856505393982,0.3761192262172699,0.27787819504737854,-0.3436605632305145,-0.26726800203323364,-0.25321850180625916,-0.02808605693280697,-0.35143667459487915,-0.10036483407020569,0.07154867053031921,0.1403229981660843,0.3947695195674896,-0.010189635679125786,0.24239425361156464,0.29246270656585693,-0.09451228380203247,0.06678454577922821,-0.050734907388687134,0.5275886058807373,-0.10837099701166153,0.7727904915809631,0.7736218571662903,0.100550577044487,0.17306722700595856,0.13795164227485657,-0.22548659145832062,-0.5272676944732666,-0.23631733655929565,-0.375040203332901,-0.08277101069688797,-0.24755817651748657,-0.27296188473701477,-0.20697924494743347,-0.4030911922454834,-0.47044309973716736,-0.14367860555648804,-0.10522116720676422,0.051399219781160355,0.41218531131744385,-0.44963768124580383,-0.09940747171640396,-0.0624379962682724,0.8858082294464111,-0.10324681550264359,0.20560184121131897,-0.6026237607002258,-0.13219596445560455,-0.4329832196235657,0.6566893458366394,-0.20608091354370117,0.37436798214912415,0.41445136070251465,-0.2943881154060364,0.8914551138877869,0.3651215136051178,-0.250152587890625,-0.04123041033744812,0.04089006409049034,0.3610033690929413,-0.9798069596290588,-0.07387685775756836,0.008302517235279083,0.1140902042388916,0.19940811395645142,0.8056791424751282,-0.7213228344917297,-1.0258406400680542,-0.4129209816455841,0.6226928234100342,-0.006611785851418972,0.08985801786184311,-0.12093339115381241,0.744391679763794,0.5298991799354553,-0.14531868696212769,0.2151975929737091,1.070210576057434,0.035228535532951355,0.32806631922721863,-0.5919702053070068,-0.17348715662956238,0.6605718731880188,-0.0064272708259522915,-0.281245619058609,0.1282036155462265,0.18404234945774078,0.040059249848127365,-0.18144352734088898,0.004684677347540855,-0.016025148332118988,0.21173231303691864,0.004849662538617849,0.14487949013710022,0.20744404196739197,0.015202277339994907,-0.14143389463424683,-0.37645524740219116,0.3287695348262787,0.1928109973669052,0.054846689105033875,0.25237488746643066,0.16893738508224487,-0.007796121761202812,-0.04637127369642258,-0.021262988448143005,-0.21744202077388763,0.027546700090169907,-0.03325304761528969,-0.025547847151756287,0.20835070312023163,-0.04358423501253128,0.1500382125377655,0.0372634157538414,-0.07570503652095795,-0.3771745562553406,-0.21666234731674194,-0.032401371747255325,0.16348817944526672,0.015892809256911278,-0.2751939296722412,-0.050266560167074203,-0.05927835777401924,0.8391232490539551,-0.9482626914978027,0.5246489644050598,0.5001117587089539,1.0770952701568604,-1.4016903638839722,0.5290294885635376,0.8219766616821289,1.4255887269973755,0.5940907597541809,0.9805136919021606,0.8669958114624023,0.11625514924526215,-0.5560534000396729,-2.1638543605804443,-0.2072087526321411,0.36945420503616333,-0.9652041792869568,0.9882784485816956,1.1575042009353638,0.6252128481864929,0.3304723799228668,0.6273213028907776,-0.7832740545272827,0.4238264858722687,-0.716515064239502,1.7538022994995117,0.3838419020175934,-0.8213269710540771,1.0195587873458862,1.3151048421859741,1.1561962366104126,-0.5330255627632141,-1.6260550022125244,0.21088381111621857,-0.8048291206359863,0.8637118935585022,0.2585325241088867,-1.3529725074768066,-0.0789927989244461,-0.6862210035324097,-1.135479211807251,0.5350131392478943,0.9766703844070435,-0.02704058587551117,-0.4086601436138153,-0.7282893061637878,-0.34794020652770996,-0.2895124852657318,-0.2655732333660126,0.20284497737884521,-0.23737463355064392,0.01062654796987772,0.01885223388671875,-0.7396549582481384,0.3936040699481964,-0.3761342763900757,0.6891747713088989,0.32628849148750305,-0.6452967524528503,0.5361872911453247,-0.30372411012649536,-0.6595549583435059,-0.6352967619895935,0.6156519055366516,0.14331720769405365,-0.20856140553951263,0.4914326071739197,-0.01330062747001648,0.2815473973751068,-0.35278820991516113,-0.26586735248565674,-0.5811237096786499,0.07753807306289673,-0.561141312122345,-0.2976294755935669,-0.6244480609893799,0.12026330083608627,0.03750493749976158,-0.17273887991905212,-0.6487300395965576,0.5277205109596252,-0.10720296949148178,-0.06440644711256027,-0.238615944981575,0.9654027223587036,-0.4449319541454315,-0.5284123420715332,-0.12387900054454803,-0.7820562124252319,-0.3885619640350342,-0.7270222902297974,-0.5415024161338806,-0.1739501655101776,-0.1546732485294342,0.3733861744403839,0.3754686713218689,0.6165170073509216,0.32295531034469604,-0.3937784731388092,-0.7976633310317993,-0.26833033561706543,-0.768670380115509,-0.08658377081155777,0.46140754222869873,1.1979737281799316,-0.7084934115409851,0.079258494079113,0.9084911942481995,-0.1643967181444168,-0.4425872266292572,-0.4981463551521301,-0.37909939885139465,-0.1406184583902359,-0.22383475303649902,0.23851262032985687,-0.6727914214134216,-0.5668699145317078,0.7365822196006775,-0.1675485223531723,-0.358345091342926,-1.0461225509643555,-0.12339736521244049,0.10712601989507675,-0.037878431379795074,-1.336688756942749,-0.5232850909233093,-0.4352044463157654,-0.44055885076522827,-0.20705702900886536,0.04970783740282059,0.1326722353696823,-0.21454285085201263,-0.04860731586813927,-0.7608627676963806,0.3889029622077942,0.5643260478973389,0.5670837759971619,0.5936238169670105,-0.595852792263031,0.07500151544809341,-0.57333904504776,-0.49722328782081604,-0.2530263066291809,0.19455718994140625,0.31872329115867615,-0.40715351700782776,0.1369396150112152,-0.05658447742462158,-0.36696234345436096,-0.2811548113822937,-0.06912989169359207,-0.21321271359920502,-0.46826592087745667,0.009968155063688755,0.4032595455646515,-0.6604205965995789,-0.3407820761203766,0.5247724652290344,-0.042642321437597275,-0.061753325164318085,0.14522422850131989,0.3308679461479187,-0.002733122557401657,-0.3437269628047943,-0.4807761609554291,-0.21364350616931915,0.0797288715839386,0.33875152468681335,0.3116777241230011,0.1415477991104126,0.08388365805149078,0.10705801099538803,0.1483214795589447,-0.3390297591686249,-0.3095800280570984,0.023664675652980804,-0.17802760004997253,-0.034415483474731445,0.027419427409768105,-0.1251290738582611,-0.03927968442440033,-0.020629223436117172,0.615441620349884,0.3703356981277466,-0.14683367311954498,0.430074006319046,0.007402421440929174,0.11400770395994186,-0.18806803226470947,0.1975514441728592,0.5552570819854736,-0.04388697072863579,0.20705269277095795,0.4292703866958618,-0.2284451574087143,0.07316391170024872,0.8213290572166443,0.14514930546283722,0.3931383788585663,-0.09549590200185776,0.24235856533050537,-0.27144521474838257,-0.658940315246582,-0.12394574284553528,0.16409090161323547,-0.08403002470731735,-0.09951198846101761,0.0388115718960762,0.08473842591047287,-0.07726695388555527,-0.06350722908973694,0.0020571842323988676,0.0934562087059021,0.36558249592781067,0.2399035096168518,0.6083906292915344,0.15117095410823822,0.13294067978858948,0.2699623107910156,-0.31303808093070984,-0.005937282927334309,-0.3084676265716553,0.12405580282211304,-0.30132055282592773,0.11441642791032791,-0.22506588697433472,-0.01932927407324314,0.2050168514251709,-0.0692506954073906,-0.2966453433036804,-0.09899770468473434,-0.4516071677207947,-0.050354328006505966,0.19782866537570953,0.16354963183403015,0.04710821434855461,-0.3230777680873871,0.10604876279830933,0.02179831452667713,-0.21568870544433594,-0.13338345289230347,0.4942924678325653,0.42538386583328247,-0.18928883969783783,0.4497034251689911,-0.098177470266819,-0.6016789674758911,0.4104883670806885,-0.06533641368150711,-0.2211206555366516,-0.034229669719934464,0.006569074001163244,-0.10131985694169998,-0.46143099665641785,0.35681167244911194,0.06356321275234222,0.2332722395658493,0.5988216996192932,0.037609703838825226,-0.2416066825389862,0.024482322856783867,-0.12296026945114136,-0.2783203721046448,0.06831460446119308,0.19737957417964935,-0.0469893179833889,0.30108270049095154,0.07965333759784698,-0.04091145098209381,0.07652243971824646,-0.2795323431491852,-0.14901944994926453,-0.1572486311197281,-0.1438533365726471,0.149169921875,-0.09528478235006332,-0.8136857151985168,0.24701938033103943,-0.19427774846553802,0.7067772150039673,-1.091685175895691,0.30306917428970337,1.0604547262191772,0.8050239086151123,-1.1187795400619507,0.03341230750083923,1.2657018899917603,-0.2552817463874817,0.5296794176101685,0.6803561449050903,1.006922721862793,1.2209008932113647,-1.1322516202926636,-1.187819242477417,-0.32827168703079224,-1.3547632694244385,-0.9185835719108582,1.1100436449050903,-0.5211607217788696,1.6259196996688843,-0.630324125289917,1.1735002994537354,-0.4689464867115021,0.18862442672252655,-1.5371986627578735,0.21807196736335754,0.10890279710292816,-0.7330136895179749,0.16326890885829926,0.11133892089128494,0.6266538500785828,-0.08783374726772308,-1.1609272956848145,-0.44277793169021606,0.20944012701511383,0.1638702154159546,-0.3017292618751526,-1.154098629951477,0.9367226362228394,-0.97141033411026,-0.5685359239578247,0.22509987652301788,1.252454161643982,-0.3914205729961395,-0.06242775171995163,-0.5194922089576721,-0.8295950889587402,1.3148918151855469,-0.010781113989651203,-1.0406521558761597,-1.0519452095031738,0.5981160402297974,-0.17702141404151917,-1.5989891290664673,-1.4063632488250732,-0.10645502060651779,1.0491454601287842,3.0450470447540283,-0.6556169986724854,0.6259737014770508,1.0840178728103638,-0.8729937076568604,-0.8365764617919922,0.9301387071609497,0.5435247421264648,-0.5060462355613708,0.6459073424339294,-0.39351966977119446,-0.5539539456367493,-0.26959696412086487,0.3677965998649597,0.7514715790748596,-1.063843011856079,-0.9558600783348083,-1.1928094625473022,-0.7712367177009583,-0.5427592992782593,1.3480134010314941,0.12402934581041336,1.0291194915771484,-0.24599118530750275,1.1608104705810547,1.1848136186599731,0.7346059083938599,-3.011388063430786,0.9459022879600525,0.877815306186676,2.0803205966949463,0.8867684006690979,1.7530791759490967,0.2955005466938019,0.8700438737869263,-0.8303268551826477,-1.248881459236145,-1.227487564086914,1.7556805610656738,-2.144906759262085,2.7974722385406494,0.5397500395774841,0.9421895146369934,1.3890628814697266,0.8594449162483215,-1.262144684791565,0.6444486975669861,-1.7397847175598145,1.475108027458191,-0.33882659673690796,0.20265266299247742,-0.7086234092712402,0.00548554677516222,3.5097758769989014,2.8682963848114014,-1.753413200378418,-1.0133663415908813,-1.190488338470459,1.4502912759780884,-0.19817611575126648,-0.4298202693462372,0.3816964328289032,-1.1785598993301392,-1.144730567932129,0.7375193238258362,1.105231761932373,-1.8994030952453613,-0.538657009601593,-2.9671616554260254,-1.4691060781478882,-0.059309087693691254,1.511574387550354,0.4755103588104248,-0.12873996794223785,0.12643320858478546,-2.25331974029541,-0.8033521175384521,2.0231268405914307,0.21503016352653503,2.114720106124878,-0.6426709890365601,-2.6853928565979004,0.45046818256378174,-0.27397119998931885,-1.7674133777618408,-2.965669631958008,1.1862972974777222,0.4734310507774353,-1.087742805480957,1.142243504524231,0.5645536184310913,1.0653104782104492,-1.3626219034194946,0.5438364148139954,-2.140558958053589,-0.14936207234859467,0.40127065777778625,-0.4982377290725708,-0.22417280077934265,-2.5462911128997803,0.1654113233089447,0.7891724109649658,0.9909310340881348,-0.8342472910881042,-1.0453541278839111,-0.43678104877471924,-0.3003113567829132,-2.458604097366333,0.8030539155006409,0.024796176701784134,-0.6923801898956299,-0.06301230192184448,0.007223695516586304,0.5788622498512268,0.2801816463470459,0.09208758920431137,-0.166422501206398,-1.1214168071746826,0.24663616716861725,-1.0486841201782227,2.2389769554138184,0.27593374252319336,0.6324475407600403,-0.2895555794239044,0.9370880722999573,-1.003717064857483,-0.42943432927131653,-0.8826210498809814,0.515613317489624,-0.6683630347251892,-0.2847163677215576,-3.2289414405822754,-0.44711533188819885,0.5747365951538086,2.355647563934326,-1.5246950387954712,-0.7313227653503418,0.4228421449661255,0.4479823112487793,1.2068759202957153,0.31091034412384033,0.1026664525270462,0.40219196677207947,-0.8306931257247925,0.32638803124427795,0.8346207141876221,0.5839887261390686,-0.858757495880127,-0.10758459568023682,1.2126414775848389,-0.2825302481651306,0.5123304128646851,0.7881530523300171,0.7657899856567383,1.1943695545196533,-1.453389048576355,-1.2572994232177734,-0.5567981004714966,-1.1967954635620117,-0.5529677867889404,0.9181027412414551,-0.3549065589904785,1.3848928213119507,-0.4254126250743866,0.6148554682731628,0.1317412555217743,0.27511847019195557,-1.3451697826385498,-0.03258231654763222,0.09842938184738159,-0.7289214730262756,0.7232850193977356,0.14000149071216583,0.6554943919181824,-0.48667919635772705,-1.0038549900054932,-0.2495332658290863,0.0053870780393481255,0.3780514597892761,-0.26824232935905457,-0.8590721487998962,0.6096881628036499,0.5721583962440491,-0.8498027920722961,0.18537428975105286,0.7087487578392029,0.44627705216407776,-0.8395346403121948,0.13042451441287994,1.088860273361206,-0.14897623658180237,0.5534289479255676,0.6032811403274536,0.8069469332695007,1.062248706817627,-0.8615720272064209,-1.2386219501495361,-0.774341344833374,-1.5984870195388794,-0.7035158276557922,0.8805757164955139,-0.45270606875419617,1.1480307579040527,-0.3787247836589813,0.8932485580444336,-0.02869243733584881,-0.02789175510406494,-1.3288906812667847,0.09567813575267792,0.11896900832653046,-0.5913208723068237,0.2975189983844757,0.10178319364786148,0.6646589636802673,-0.17377692461013794,-1.0398982763290405,-0.13860762119293213,0.032974228262901306,0.29209694266319275,-0.428207665681839,-0.7559160590171814,0.8059574365615845,-0.23597434163093567,-0.74696946144104,-0.3772473931312561,-0.2714020311832428,0.36973756551742554,-1.1945173740386963,-0.4659668505191803,0.5394960045814514,-1.1958202123641968,-0.17787614464759827,1.4794729948043823,1.1523507833480835,-0.17308467626571655,-1.3011409044265747,-1.5368043184280396,1.2690356969833374,0.9701394438743591,0.16461636126041412,-0.041879743337631226,-0.07156552374362946,1.0857421159744263,-1.268062710762024,-0.4217129349708557,0.6850833296775818,0.7754910588264465,-0.830792248249054,-0.3598942756652832,-0.2833249270915985,-0.4282659590244293,0.7065194845199585,-0.06665146350860596,0.5340577363967896,-1.2424687147140503,-1.7028833627700806,0.7152902483940125,1.0411193370819092,0.0857577845454216,0.8208717703819275,0.333668053150177,0.8253679871559143,-0.48834705352783203,0.23178686201572418,0.7019139528274536,0.6693453192710876,0.19075529277324677,0.604235053062439,0.8537687063217163,-0.8248005509376526,3.006057024002075,-0.44520303606987,0.5411596298217773,0.1774076372385025,0.4540424346923828,-0.7956916689872742,-1.687978744506836,0.3843601644039154,1.0954960584640503,0.21881848573684692,2.480905055999756,1.7700544595718384,0.7643865346908569,1.5419378280639648,-0.4531208276748657,0.4537407457828522,0.23384198546409607,-0.2384198009967804,0.10788581520318985,0.8302037119865417,-2.167478561401367,-0.012147125788033009,0.22332945466041565,-0.31038060784339905,-0.6388827562332153,-1.6882990598678589,-1.2713254690170288,-1.7104240655899048,0.9074073433876038,-1.3028918504714966,1.1212258338928223,-0.28364297747612,0.23879224061965942,-0.7708113193511963,0.5879780650138855,0.6433615684509277,0.38676226139068604,-0.8767787218093872,0.16621048748493195,0.7344606518745422,0.047590211033821106,0.46164077520370483,0.7793139815330505,0.7712852954864502,1.0801036357879639,-0.5775027275085449,-1.477787733078003,-0.6331127285957336,-0.46501675248146057,-0.48857855796813965,0.878334641456604,-0.1180095449090004,1.3797574043273926,-0.3838476836681366,0.42368170619010925,0.06847250461578369,0.15726561844348907,-1.3833273649215698,0.13043317198753357,-0.03524288907647133,-0.764319121837616,0.41598445177078247,0.18864016234874725,0.9085096120834351,-0.5967680811882019,-1.1788522005081177,-0.20902113616466522,-0.20752061903476715,0.303122341632843,-0.4356786608695984,-0.5119876861572266,0.4009295105934143,-1.019997000694275,-1.5153443813323975,0.7613911628723145,1.4992927312850952,-0.7313475012779236,-1.301169514656067,-2.4103806018829346,-0.4083557426929474,-1.8374499082565308,0.06623481214046478,-0.11458563059568405,-0.9817214012145996,0.2941235601902008,0.0620461143553257,0.37824586033821106,0.3199751079082489,-0.9746367335319519,1.139459490776062,-0.2296893298625946,-2.114617109298706,1.3101354837417603,-0.5254526734352112,-0.33737611770629883,0.12503710389137268,2.1634881496429443,0.6440092325210571,-0.41085100173950195,0.6859503388404846,0.05114443600177765,0.1169297844171524,-1.7030057907104492,0.9664506316184998,-0.05857336148619652,0.29219651222229004,-1.4449867010116577,-0.6803396940231323,-1.4475029706954956,0.9202148914337158,1.1966807842254639,-0.2577083706855774,0.36030980944633484,-0.8208045959472656,0.39568668603897095,0.6210435628890991,0.2919052839279175,-0.8087663054466248,0.1630086600780487,0.5583240389823914,0.09174609929323196,0.5069102048873901,0.48066553473472595,0.6090993285179138,0.8374673128128052,-0.1429157704114914,-1.3997975587844849,-0.848864734172821,-0.2949868440628052,-0.5361970663070679,0.7409546971321106,-0.32209256291389465,1.1498092412948608,-0.18785536289215088,0.8504770994186401,0.07836217433214188,0.07407287508249283,-1.2376900911331177,0.15859301388263702,-0.19377285242080688,-0.5206198692321777,0.17136213183403015,0.062111031264066696,0.7037778496742249,-0.15692608058452606,-0.9545109272003174,-0.23157978057861328,-0.11501792073249817,0.30227750539779663,0.2737845778465271,-0.46036478877067566,0.5158442854881287,0.28586724400520325,-0.8649793863296509,0.3170095682144165,0.8016079664230347,0.33466774225234985,-0.7968930006027222,0.04578598216176033,0.6669787764549255,-0.14548923075199127,0.3644014298915863,0.6632553339004517,0.5094043612480164,0.778810977935791,-0.34301406145095825,-1.33827543258667,-0.8098463416099548,-0.29186585545539856,-0.25585272908210754,0.7312391400337219,-0.14272625744342804,1.1633542776107788,-0.4291394352912903,0.5504330396652222,-0.21201300621032715,0.33227816224098206,-1.0913729667663574,-0.07463312894105911,-0.10867053270339966,-0.7288952469825745,0.6071286201477051,-0.05912890285253525,0.5729964971542358,-0.38163894414901733,-0.9804716110229492,-0.5485994219779968,-0.11826504021883011,0.22613009810447693,0.2405136227607727,-0.33123910427093506,0.44266173243522644,-0.7823285460472107,-2.0276718139648438,0.578528106212616,1.5388777256011963,0.09159990400075912,-1.4556888341903687,-0.9563052654266357,-0.4188792109489441,-0.8231263756752014,-0.4472165107727051,0.29785096645355225,0.20593787729740143,0.1437925100326538,-1.351685881614685,-1.9217668771743774,0.832585871219635,0.17961396276950836,0.5707759857177734,0.23695790767669678,-1.4664795398712158,2.129861831665039,0.16883307695388794,-0.6947572231292725,-1.4970937967300415,1.4460608959197998,-0.5431474447250366,0.0542389415204525,0.2959078550338745,-0.7934825420379639,0.9027982354164124,-0.3794800639152527,-0.3142514228820801,-1.5672560930252075,-0.5360692739486694,-0.5376425981521606,-0.45865073800086975,-0.2719095051288605,-0.6114954352378845,-0.20670856535434723,0.07040149718523026,0.09436038881540298,-0.5574988126754761,-0.5225192904472351,-0.3321745693683624,0.7412821650505066,-0.7458221316337585,-0.7460712194442749,2.3558616638183594,-0.9767959713935852,-0.9016138315200806,-0.16332070529460907,-0.049735456705093384,0.4241533875465393,0.0927693098783493,0.8772615790367126,-1.8925758600234985,0.39625057578086853,-0.7179272174835205,0.930280864238739,0.04439450427889824,0.6821097731590271,-0.10755439102649689,-0.0008416800410486758,1.3773655891418457,1.2673590183258057,-0.7089369297027588,0.5835118293762207,-0.7839133739471436,-0.7353484630584717,0.1544410139322281,-1.1556721925735474,1.3657152652740479,1.118798017501831,-0.5618445873260498,0.592513382434845,-0.431034654378891,0.3993260860443115,3.837616205215454,-1.559727668762207,0.6228070855140686,0.3329150676727295,-0.7262821197509766,0.3834722340106964,0.582024872303009,0.41120246052742004,-0.9118483662605286,0.2798539996147156,0.48842018842697144,0.027012519538402557,0.5265592336654663,0.544289231300354,0.5623912811279297,0.8722497820854187,-0.17786361277103424,-1.2671819925308228,-1.0761713981628418,-0.5318256616592407,-0.5400868654251099,0.7855082750320435,-0.03203292191028595,0.9387712478637695,-0.23258478939533234,0.860950767993927,-0.3836677372455597,-0.12244836241006851,-1.0014050006866455,0.19998477399349213,-0.05103509873151779,-0.7727133631706238,0.06230597198009491,0.1363668292760849,0.7482982277870178,-0.04046875983476639,-0.9035748839378357,-0.33179861307144165,0.024723205715417862,0.23162923753261566,0.2385193109512329,-0.3905511200428009,0.5161935091018677,-0.9681886434555054,2.8583128452301025,1.276017665863037,-1.1074316501617432,-1.181246042251587,1.626573920249939,0.4091823101043701,-1.0856050252914429,2.3346974849700928,-1.403813123703003,-1.1493085622787476,-2.6185896396636963,-0.28134793043136597,4.032557487487793,1.867353916168213,-0.6845081448554993,-2.260434150695801,1.0921566486358643,0.5093933939933777,0.7259900569915771,-2.0970726013183594,3.0600414276123047,-0.1430828869342804,1.099090814590454,-1.1291424036026,1.2018102407455444,0.6209006309509277,0.4102862477302551,0.6142783761024475,-0.6526139974594116,-0.7780361771583557,0.41490882635116577,1.3626042604446411,1.3215014934539795,0.43112263083457947,-2.481431722640991,-0.40684935450553894,1.505618691444397,2.0182695388793945,0.14378230273723602,1.932629942893982,-1.3677278757095337,-0.47379037737846375,-0.22685331106185913,0.1195375919342041,-0.6570594310760498,1.4528650045394897,0.4742263853549957,0.2906350791454315,1.2912629842758179,0.7364510893821716,1.6453858613967896,1.2325315475463867,-0.25220155715942383,-0.725006103515625,-0.5155289173126221,1.6407302618026733,-0.8453138470649719,0.9731721878051758,0.7750862836837769,1.731142282485962,0.7400335073471069,2.127509593963623,-0.23398463428020477,-1.8587021827697754,-1.7515610456466675,0.263403981924057,0.1376611888408661,-1.0017127990722656,0.252442330121994,0.4679998755455017,0.217121884226799,-0.36916956305503845,-1.3879474401474,-0.39967718720436096,-0.3006788194179535,1.520930290222168,0.05653350427746773,-0.346623957157135,-0.014558382332324982,-1.0703693628311157,-0.42190298438072205,0.12387318909168243,0.6757153272628784,-0.24926185607910156,-0.43536102771759033,-1.2660938501358032,-1.0053119659423828,0.087941475212574,-0.2815774381160736,0.16842077672481537,-0.15818555653095245,-0.46837764978408813,-0.9690447449684143,-1.6600171327590942,1.1610352993011475,-0.3840077817440033,1.1854958534240723,0.5153899192810059,-1.0532264709472656,0.17072075605392456,-1.006360411643982,-1.145279884338379,-0.8760193586349487,0.8395693898200989,0.3026246130466461,-0.5603733062744141,0.14641091227531433,-0.03972724825143814,0.37650057673454285,-0.4506674110889435,0.29789838194847107,-0.8085428476333618,-0.6448312401771545,-0.16832832992076874,0.019813228398561478,-0.7984870672225952,-0.856441855430603,0.9084072709083557,0.15982751548290253,-0.025135325267910957,0.052432380616664886,-0.06224162131547928,0.019525589421391487,-0.000079659468610771,-0.05786053091287613,-0.01486770249903202,0.019519442692399025,0.076408252120018,-0.031160423532128334,0.022969800978899002,-0.010380107909440994,0.05499732121825218,0.03107820823788643,0.009170163422822952,-0.025889836251735687,0.07050571590662003,0.028130613267421722,0.06449826806783676,-0.043444450944662094,-0.01218254305422306,0.06739457696676254,0.06272917240858078,-0.06002006307244301,-0.07353914529085159,-0.06552070379257202,-0.06484644114971161,0.030766647309064865,0.016983795911073685,0.007163902744650841,0.07596385478973389,-0.013147223740816116,0.07521149516105652,0.045665442943573,0.022079745307564735,-0.006249953992664814,-0.07417583465576172,0.07149281352758408,-0.07672899216413498,0.04010552912950516]},"hiddenLayers":[{"inputMatrix":{"rows":20,"columns":40,"weights":[-0.09715800732374191,-0.340587317943573,-0.3945392072200775,-0.06856680661439896,-0.321142315864563,-0.1714349389076233,-0.3809933662414551,0.03133672848343849,-0.20133014023303986,-0.17076706886291504,0.11772208660840988,0.07362888753414154,0.027575498446822166,-0.37878406047821045,-0.07898569852113724,-0.15352918207645416,0.27577832341194153,0.1746343970298767,0.08661920577287674,-0.0135813532397151,0.5076175928115845,-0.15300458669662476,0.04961385950446129,0.09966874122619629,0.5691622495651245,-0.20366281270980835,-0.2536182701587677,-0.3236527442932129,-0.24876146018505096,-0.07164325565099716,-0.29095152020454407,-0.1070137619972229,0.1560298055410385,-0.3156665861606598,0.23600886762142181,0.12579378485679626,0.053145211189985275,0.2390798032283783,0.08336599916219711,0.43341338634490967,-0.005228549707680941,-0.364609032869339,-0.4755289852619171,-0.1990785151720047,-0.43356579542160034,-0.3592631220817566,-0.5509325861930847,-0.007261174730956554,-0.3381291925907135,-0.07350941002368927,-0.07758049666881561,0.2310512363910675,0.08056673407554626,-0.42721500992774963,-0.2025209665298462,-0.37528279423713684,0.26994749903678894,0.19649699330329895,0.12174175679683685,-0.05760936066508293,0.6097649931907654,-0.22126199305057526,0.042887646704912186,0.08607453852891922,0.3789817988872528,-0.3549756705760956,-0.21449828147888184,-0.45348039269447327,-0.11297202110290527,0.023694666102528572,-0.4196765720844269,-0.22267402708530426,0.14683929085731506,-0.38203996419906616,0.44332778453826904,0.3888894021511078,0.046151403337717056,0.35697507858276367,0.1228887066245079,0.6578851938247681,-0.1704648733139038,-0.060792140662670135,0.19512808322906494,0.20436814427375793,-0.4795384109020233,-0.11803168058395386,-0.05152542516589165,-0.5499894618988037,0.20290349423885345,-0.06167877838015556,-0.3292488157749176,-0.29254579544067383,-0.13528114557266235,-0.6601447463035583,-0.20492839813232422,-0.16590674221515656,-0.6236839890480042,-0.10367826372385025,0.05727832019329071,-0.20940639078617096,0.3424648344516754,0.2589229643344879,0.1357465237379074,-0.5363893508911133,0.34389886260032654,-0.032903775572776794,-0.07238234579563141,-0.36043456196784973,-0.07720253616571426,-0.31796690821647644,-0.1674310266971588,-0.03390010446310043,0.7744165062904358,0.027212105691432953,0.0677764043211937,-0.26158463954925537,-0.13014023005962372,-0.23775579035282135,0.33544105291366577,0.46507441997528076,-0.24434493482112885,-0.07295981049537659,0.35796454548835754,0.1010780781507492,-0.1810116022825241,-0.18944847583770752,-0.09227314591407776,-0.4702800214290619,0.5330318212509155,0.11003470420837402,0.31989094614982605,0.26708129048347473,-0.060200635343790054,-0.18454216420650482,-0.7520833611488342,0.29563212394714355,0.23960652947425842,0.05393989756703377,0.20374354720115662,-0.17511680722236633,-0.2743079662322998,-0.3519318401813507,-0.3444276452064514,-0.1371861845254898,0.14133091270923615,0.268735408782959,0.35680392384529114,0.301317423582077,0.3184928894042969,-0.22701799869537354,0.2413507103919983,0.43026646971702576,-0.39603105187416077,-0.151140496134758,0.14193740487098694,-0.15074628591537476,-0.23203317821025848,-0.21331669390201569,0.2272070348262787,0.12992848455905914,0.024096017703413963,-0.30091553926467896,-0.1394045650959015,-0.2235889732837677,-0.151522696018219,-0.17586390674114227,-0.1993580162525177,-0.18117621541023254,-0.3460489809513092,0.026479629799723625,-0.06512857973575592,0.005884211044758558,-0.02556106634438038,-0.3376103639602661,-0.1833394169807434,-0.08574362844228745,0.22712746262550354,0.042604587972164154,0.14288663864135742,0.003603514516726136,0.31162935495376587,-0.1623038947582245,0.05978347733616829,-0.2824258506298065,0.1983039230108261,-0.09503936767578125,-0.17903876304626465,-0.17380696535110474,-0.02803133986890316,0.047303810715675354,-0.33340781927108765,-0.1352965533733368,0.1924271434545517,-0.38536983728408813,0.11176448315382004,0.2822502851486206,0.03398395702242851,0.1327052116394043,0.13745243847370148,0.4556336998939514,-0.17981381714344025,-0.042315080761909485,-0.2551496922969818,0.008727270178496838,-0.2778153121471405,0.0877644270658493,-0.5075758695602417,-0.28658801317214966,-0.05177910253405571,-0.2665318250656128,-0.19631002843379974,-0.16093069314956665,0.045351698994636536,-0.25685203075408936,-0.22716103494167328,-0.07033141702413559,0.015734629705548286,0.25447478890419006,0.15206941962242126,-0.14388304948806763,0.33231320977211,-0.008781637996435165,-0.09587371349334717,-0.08471004664897919,0.5223172307014465,-0.032193612307310104,-0.3724934458732605,-0.14157678186893463,0.05943179503083229,-0.4902762770652771,-0.4791305363178253,-0.24577869474887848,0.4346887469291687,-0.1436622142791748,-0.2179308831691742,-0.12238757312297821,-0.07941265404224396,0.02483922615647316,0.2444412261247635,0.15300436317920685,-0.05747504532337189,-0.3842912018299103,-0.30220741033554077,-0.21439999341964722,-0.3104698359966278,-0.04984124377369881,-0.21399575471878052,-0.2174988090991974,-0.15080727636814117,0.07524967193603516,-0.21982844173908234,-0.005110091995447874,-0.04170224815607071,-0.48761746287345886,-0.08636214584112167,-0.24502576887607574,0.2763906717300415,0.22545869648456573,0.32000821828842163,0.004275768995285034,0.4747164249420166,-0.06924473494291306,0.09738555550575256,-0.18235249817371368,0.20996899902820587,-0.06682537496089935,-0.2323925942182541,-0.3472679853439331,0.0001223461440531537,-0.11241107434034348,-0.4328159689903259,-0.2481946051120758,0.28882908821105957,-0.17030790448188782,-0.006758167874068022,0.17909280955791473,0.10299929976463318,-0.0006739545497111976,0.3170991837978363,0.470353364944458,0.08660775423049927,-0.929612934589386,-0.07576406002044678,-0.07032599300146103,-0.017711644992232323,-0.5118739604949951,-0.18704020977020264,-0.49730411171913147,-0.32569921016693115,0.00489914882928133,0.45015206933021545,0.569377601146698,-0.1967654824256897,-0.7962242364883423,-1.1316685676574707,0.4570392668247223,0.6966422200202942,0.11489415168762207,0.3263663053512573,-0.5568651556968689,0.6024305820465088,-0.8607950806617737,0.2110140323638916,-0.9811311364173889,-0.06871339678764343,0.04999229311943054,-0.18754325807094574,0.017405737191438675,-0.06814661622047424,-0.0919649749994278,-0.07195591181516647,-0.09267758578062057,-0.06243768706917763,-1.0752431154251099,-0.11841816455125809,0.5823714733123779,-0.15753889083862305,-0.655308723449707,0.4960533082485199,-0.009825591929256916,-0.3348247706890106,-0.38698825240135193,-0.5592491030693054,-0.09058909118175507,-0.5502655506134033,-0.20127540826797485,-0.604327380657196,-0.018598634749650955,-0.32194784283638,-0.257456511259079,-0.16421237587928772,0.0052285888232290745,0.08830711990594864,-0.5244198441505432,-0.0960242748260498,-0.3481441140174866,0.30408376455307007,0.38737672567367554,0.10116202384233475,-0.22835519909858704,0.8502556681632996,-0.28313514590263367,-0.10578790307044983,0.2185133993625641,0.6502989530563354,-0.2836722433567047,-0.373522013425827,-0.3175104558467865,-0.395607590675354,-0.04634122923016548,-0.6293652653694153,-0.21951988339424133,0.24360205233097076,-0.5286000967025757,0.16454966366291046,0.1532054841518402,0.06726381182670593,0.3912776708602905,0.15599481761455536,0.4724230468273163,0.11587370187044144,-0.1842394769191742,0.22624298930168152,0.2654452323913574,0.06696674227714539,0.0014250490348786116,0.1091376319527626,0.008297556079924107,0.3304535150527954,0.3139737844467163,-0.07980318367481232,0.021754687651991844,0.10111787170171738,-0.36075156927108765,-0.3539784252643585,-0.1347212940454483,0.09266336262226105,-0.09163304418325424,0.4111998379230499,0.278903067111969,0.10233252495527267,0.24056294560432434,0.2680235505104065,-0.17933271825313568,-0.05342603847384453,-0.1881115436553955,0.16789375245571136,0.2678346335887909,-0.06348871439695358,0.36956456303596497,0.2072247862815857,0.19959862530231476,-0.09609236568212509,-0.1479354053735733,-0.20941582322120667,0.015065178275108337,0.14455987513065338,-0.07376821339130402,-0.008621455170214176,-0.02362346649169922,0.08595642447471619,-0.37441807985305786,-0.41220903396606445,-0.27199485898017883,-0.26969969272613525,-0.22926796972751617,-0.3556497097015381,0.03547896072268486,-0.25659939646720886,-0.034136753529310226,0.13255658745765686,0.09875164926052094,0.003227798268198967,-0.4249456524848938,-0.19605940580368042,-0.2449391782283783,0.36300128698349,0.00870231818407774,0.21467053890228271,-0.0322263278067112,0.6359732151031494,-0.1181277483701706,0.18607735633850098,0.046180903911590576,0.27823591232299805,-0.32658907771110535,-0.28310632705688477,-0.31024280190467834,-0.14645710587501526,0.16812299191951752,-0.40645501017570496,-0.13184724748134613,0.08550694584846497,-0.4502499997615814,0.2774302363395691,0.09381089359521866,0.05089972913265228,0.3441295027732849,0.08561064302921295,0.4730517268180847,0.08108212053775787,-0.5653834939002991,0.6188353300094604,0.7604684829711914,0.4399580955505371,-0.46449223160743713,0.07381788641214371,-0.09782607108354568,0.08370135724544525,0.3302212357521057,0.17998982965946198,0.4047125279903412,0.19565804302692413,0.18087482452392578,-0.899075984954834,0.33837980031967163,0.30428436398506165,-0.03830474615097046,0.30821138620376587,-0.3033900558948517,0.10868857055902481,-0.5701822638511658,0.11158788204193115,-0.2710733115673065,-0.00429918710142374,0.12360148131847382,0.5054813027381897,0.7704572677612305,-0.04060985520482063,-0.1791733056306839,0.6231198906898499,0.3550901710987091,-0.3475424349308014,-0.3411475121974945,-0.44392627477645874,0.009225819259881973,-0.09491430968046188,-0.3736295700073242,-0.08028613775968552,-0.6948223114013672,-0.06372479349374771,-0.6772283315658569,0.5803906321525574,0.7555447816848755,0.33941125869750977,-0.4615187644958496,-0.26472947001457214,-0.18919223546981812,-0.01417847815901041,-0.1904928982257843,-0.02208348736166954,0.357915997505188,0.23444850742816925,0.012895958498120308,-1.024375557899475,0.3148804306983948,0.22245272994041443,-0.1181880459189415,0.6708228588104248,-0.6664362549781799,0.459043949842453,-0.5114601254463196,0.0826028510928154,-0.5402952432632446,0.5343729257583618,0.05128950625658035,0.23722974956035614,0.4737922251224518,-0.17452643811702728,-0.5129406452178955,0.247887521982193,-0.06261654198169708,-0.004683742765337229,-0.491849422454834,-0.690523087978363,-0.08186256140470505,-0.30658093094825745,-0.6980600357055664,0.024439243599772453,-0.6254807114601135,0.1504555195569992,-0.26479029655456543,-0.2279854714870453,0.2153700441122055,-0.300079882144928,-0.13828183710575104,-0.37420350313186646,0.21479575335979462,0.2620640695095062,-0.03349221125245094,-0.24733957648277283,0.23085515201091766,0.20460425317287445,-0.7772789001464844,-0.5338546633720398,-0.5165331959724426,0.3592589497566223,0.14063112437725067,0.3942059278488159,0.36703795194625854,0.6215106844902039,-0.10150343179702759,0.28651413321495056,0.28643885254859924,0.38426804542541504,-0.3759306073188782,-0.19006562232971191,-0.3973039984703064,-0.2581954896450043,0.06674128025770187,-0.3940979838371277,-0.2041647583246231,0.12789291143417358,-0.9713201522827148,0.2060028463602066,0.293393611907959,0.4093596041202545,0.38315141201019287,-0.1686440259218216,0.46821266412734985,0.17743822932243347,-0.42886388301849365,-0.0297821294516325,-0.39860352873802185,-0.656226396560669,0.30973055958747864,0.187437042593956,-0.8928827047348022,-0.26923754811286926,0.08224707841873169,-0.2724563777446747,0.7122240662574768,-0.3504505753517151,-0.653247594833374,-1.034564733505249,0.807049572467804,0.2473229020833969,0.2505364418029785,0.18686527013778687,-0.5144380331039429,0.006425720639526844,-0.6631982922554016,0.4507085680961609,-0.9860779047012329,-0.5219551920890808,0.27134189009666443,-0.638336181640625,-0.026471495628356934,0.5616943836212158,-0.14908789098262787,-0.21759741008281708,-0.34611520171165466,-0.14592720568180084,-0.8073743581771851,0.4474480152130127,0.9830847978591919,-0.33725276589393616,-0.5877702236175537,0.872194766998291,0.5676338076591492,-0.15835390985012054,-0.5019208788871765,0.18699613213539124,0.6067640781402588,0.02503378316760063,-0.4782184660434723,-0.3498753607273102,0.07087656110525131,0.18320493400096893,-0.10516661405563354,0.13920678198337555,0.28093665838241577,0.2942814528942108,-0.169255793094635,-0.7965540885925293,-0.0655146986246109,0.34663352370262146,0.18386787176132202,0.5164211392402649,-0.21757657825946808,0.5533089637756348,-0.2906211018562317,-0.06133722886443138,0.20888149738311768,0.6677263975143433,-0.2594960927963257,0.1578531712293625,0.2133767008781433,-0.5682450532913208,-0.01849065162241459,0.01079539768397808,0.19176217913627625,-0.22007548809051514,-0.8693001866340637,-0.283424973487854,-0.13678309321403503,0.04598112031817436,0.08663251996040344,-0.008132096379995346,-0.17595066130161285,0.2289516031742096,-0.4012566804885864,0.5155203342437744,0.8398834466934204,0.8297804594039917,-0.515654981136322,0.17291639745235443,-0.023402651771903038,0.022872325032949448,0.42654240131378174,0.4591238796710968,0.5932111740112305,0.4303046464920044,0.37229493260383606,-0.5462245941162109,0.6208400726318359,0.26718559861183167,-0.22060413658618927,0.2685859799385071,-0.33550313115119934,-0.05201645940542221,-0.5664933919906616,-0.1368648111820221,-0.2526985704898834,-0.21572601795196533,-0.10564553737640381,0.5816127061843872,0.7167317867279053,0.015791863203048706,0.08306730538606644,0.5704169273376465,0.3555070757865906,-0.5919248461723328,-0.06146612390875816,-0.5124881863594055,-0.22316229343414307,-0.011174281127750874,-0.3937704265117645,-0.39149466156959534,-0.9448314309120178,0.08749466389417648,-0.22468899190425873,0.4703318178653717,0.2848014831542969,0.0972522720694542,-0.28720933198928833,0.10238076746463776,0.04323560744524002,0.36403095722198486,0.2651616632938385,0.09123502671718597,0.1969187706708908,0.2742075026035309,0.3087005913257599,-0.31831198930740356,-0.0736832469701767,-0.19740182161331177,-0.3036285936832428,0.2942278981208801,-0.11098156869411469,0.11079045385122299,0.283354789018631,0.07436636090278625,-0.3423551023006439,-0.17142942547798157,-0.1796395182609558,0.4097495377063751,0.3994612395763397,-0.17907744646072388,-0.13441571593284607,0.2479832023382187,0.3355964720249176,0.1062902957201004,-0.04191044345498085,-0.2561582922935486,-0.2644520699977875,-0.03656812757253647,-0.2776680290699005,-0.08842787146568298,-0.27244898676872253,-0.04135864973068237,-0.09601504355669022,0.35235458612442017,0.35180121660232544,-0.12329522520303726,-0.08372729271650314,0.1552879363298416,-0.012965496629476547,0.502216637134552,0.18992742896080017,0.05302264541387558,-0.20995236933231354,0.18799608945846558,-0.047610364854335785,-0.2243279367685318,-0.2911232113838196,-0.24897027015686035,-0.10355572402477264,0.16305075585842133,-0.20926833152770996,0.1414385586977005,0.3361085057258606,0.13043203949928284,-0.2839924097061157,0.11984793096780777,-0.056303586810827255,0.3167692720890045,0.07451456785202026,-0.030633633956313133,-0.07212413847446442,0.23221677541732788,0.2859235405921936,-0.0027883946895599365,0.0049286819994449615,-0.17249977588653564,-0.38152173161506653,0.10605180263519287,-0.09973620623350143,-0.1436854749917984,0.05187443271279335,-0.07324952632188797,-0.4345686435699463,0.3107619285583496,0.40781670808792114,0.2719387114048004,-0.3700349032878876,0.10332626849412918,-0.15985006093978882,0.23025265336036682,0.14800933003425598,0.06552425771951675,0.23394174873828888,0.2431146502494812,0.04584387689828873,-0.6156639456748962,0.08888198435306549,0.08364401757717133,-0.2595674991607666,0.3296061158180237,-0.3930087685585022,0.12475600838661194,-0.10315334796905518,0.22051168978214264,-0.7490786910057068,-0.08143173158168793,0.02021050453186035,0.21914556622505188,0.20183789730072021,-0.05198751389980316,-0.4260534644126892,0.2936203181743622,0.07796970754861832,-0.08548841625452042,-0.21909354627132416,-0.3690637946128845,-0.3003530502319336,-0.10543417185544968,-0.7381564378738403,-0.023220468312501907,-0.40531018376350403]},"inputHidden":{"rows":20,"columns":20,"weights":[-0.056439146399497986,-0.016715897247195244,0.19677165150642395,-0.25705182552337646,0.024071186780929565,-0.051924291998147964,0.009117212146520615,-0.6267822980880737,0.21359260380268097,0.11279650032520294,0.07424867153167725,-0.6520448923110962,0.3601650595664978,0.09408188611268997,0.8307260274887085,-0.07144603878259659,-0.395806223154068,-0.4423470199108124,-0.2957540452480316,0.3080426752567291,-0.19515636563301086,0.07691948860883713,0.32181409001350403,-0.3036830723285675,-0.028133559972047806,-0.030805524438619614,-0.04387558251619339,-0.7960076332092285,0.32851001620292664,0.07574748247861862,0.0259315837174654,-0.5559931993484497,0.4466573894023895,0.24293941259384155,0.9981202483177185,-0.13869911432266235,-0.3113096356391907,-0.4521486163139343,-0.21318790316581726,0.18386763334274292,-0.716081440448761,0.9677329063415527,0.039812106639146805,-0.34922346472740173,0.6834309697151184,-0.7311963438987732,-0.46698907017707825,-0.6845692992210388,0.6709779500961304,-0.14035093784332275,-0.7504076361656189,-0.28345343470573425,-0.34527936577796936,-0.016926946118474007,0.23597200214862823,-0.5533106327056885,-0.4431087374687195,-0.2085627019405365,-0.05263106897473335,-0.5198891162872314,-0.6235775947570801,0.7171047329902649,-0.3635435104370117,-0.7922987341880798,0.43988707661628723,-0.5940830707550049,-0.5426920056343079,-0.15949884057044983,0.6584003567695618,-0.41223815083503723,-0.54328852891922,-0.6915533542633057,-0.10669387876987457,0.7862980365753174,-0.1579994112253189,-0.925778865814209,-0.5882481336593628,-0.1867656111717224,-0.06320947408676147,0.03535391762852669,-0.28510063886642456,0.18792234361171722,0.10736529529094696,-0.39923998713493347,0.08292663097381592,-0.14625366032123566,-0.05158889293670654,-0.635979950428009,0.38701289892196655,-0.059270065277814865,-0.1571807712316513,-0.4797847867012024,0.20245234668254852,0.21012833714485168,0.7900824546813965,-0.2825125455856323,-0.6231575608253479,-0.18386898934841156,0.09038159251213074,0.10859185457229614,-0.17825283110141754,0.15202733874320984,0.19550766050815582,-0.4006921052932739,0.11992993205785751,-0.1461973935365677,-0.14482976496219635,-0.44150465726852417,0.20591925084590912,-0.07550732791423798,-0.13801757991313934,-0.7562560439109802,0.17013145983219147,0.13302405178546906,0.4851011335849762,-0.30723947286605835,-0.7266929149627686,-0.08835603296756744,-0.1591290533542633,0.09779233485460281,-0.2034904509782791,0.15397116541862488,0.1637488305568695,-0.490509033203125,0.033177368342876434,-0.1361069530248642,-0.09547461569309235,-0.4590900242328644,0.29856404662132263,0.030993791297078133,-0.1269460767507553,-0.38030076026916504,-0.08623286336660385,0.10055840760469437,0.733417809009552,-0.48078617453575134,-0.4444733262062073,0.3081532120704651,0.23599228262901306,-0.07816418260335922,0.3064086139202118,-0.240606889128685,0.23522432148456573,-0.11852368712425232,-0.32467618584632874,0.05312442407011986,0.45375707745552063,0.5437191724777222,-0.14944306015968323,0.44897696375846863,0.37832558155059814,-0.22759193181991577,0.004686328116804361,-0.4909580647945404,0.3475152254104614,0.06379136443138123,0.08990857750177383,0.9416516423225403,0.6214292645454407,-0.3621639311313629,0.0374276377260685,-0.0029116643127053976,0.35912054777145386,-0.3079453408718109,-0.12792205810546875,0.16644585132598877,0.11280513554811478,-0.7044085264205933,0.05760956555604935,0.2048259824514389,0.1733495593070984,-0.48679256439208984,0.5670945048332214,-0.0519627183675766,0.881962776184082,-0.09928788989782333,-0.31516531109809875,-0.8547847270965576,-0.47689464688301086,0.3952444791793823,-0.6219419240951538,0.43222305178642273,-0.20002952218055725,-0.6620908975601196,0.4466748535633087,-0.6646344065666199,-0.5119571089744568,-0.31176072359085083,0.9083867073059082,-0.3546012043952942,-0.347215861082077,-0.44725242257118225,0.09608345478773117,0.7442609667778015,-0.19129669666290283,-0.5919961333274841,-0.5250019431114197,0.048737455159425735,0.06775400042533875,0.06615471094846725,-0.27594971656799316,0.1651860624551773,0.19694998860359192,-0.4987455904483795,0.05748102813959122,-0.09297474473714828,-0.10537578910589218,-0.6228514313697815,0.3155634105205536,0.09084727615118027,-0.05340037867426872,-0.5730070471763611,0.36989253759384155,0.23844584822654724,1.0004736185073853,-0.2881166636943817,-0.43091556429862976,-0.23665271699428558,-0.09049279242753983,0.09169802814722061,-0.534334659576416,0.6628618836402893,-0.5843506455421448,-0.8561988472938538,0.6084042191505432,-0.604115903377533,-0.5448448657989502,0.1408003866672516,0.545691967010498,-0.5023565292358398,-0.6029782891273499,-0.6576142311096191,-0.6212659478187561,0.6210529804229736,-0.10741882771253586,-0.6418477296829224,-0.5013848543167114,0.18419016897678375,0.342244029045105,-0.027799703180789948,-0.04818488284945488,0.31652241945266724,-0.20645901560783386,-0.34961041808128357,0.03608272969722748,-0.3124389350414276,0.19903600215911865,-0.035196565091609955,0.06347610056400299,0.04546967148780823,0.11721283197402954,-0.6793204545974731,-0.8589732646942139,0.30922290682792664,0.0020462898537516594,-0.9822254180908203,-0.3429625332355499,0.3791561424732208,0.26563557982444763,-0.4506635069847107,-0.29239314794540405,0.421676367521286,0.02076045237481594,-0.43418291211128235,0.23082895576953888,-0.4563963711261749,-0.14685644209384918,-0.732231080532074,0.44095879793167114,0.02617555856704712,-0.2216743379831314,-0.7448906302452087,0.04117337241768837,-0.1941177397966385,1.0394935607910156,-0.6555985808372498,-0.5573830604553223,0.0027519294526427984,0.18554136157035828,-0.13542120158672333,0.13695964217185974,-0.10417685657739639,-0.3460052013397217,-0.6305860280990601,0.12774038314819336,-0.06753454357385635,-0.14208056032657623,0.9691468477249146,-0.3270767033100128,-0.37916868925094604,0.06401848793029785,-0.8641032576560974,0.4661049544811249,-0.12444707751274109,-0.3664216995239258,0.29678696393966675,-0.45134490728378296,0.31671375036239624,-0.34158310294151306,0.34339743852615356,-0.2528177499771118,0.2279001623392105,-0.10641387850046158,-0.5030677914619446,0.13168899714946747,-0.23520585894584656,-0.2633565664291382,-0.2647891044616699,0.304191917181015,-0.11551026254892349,-0.27825406193733215,-0.5564814805984497,0.24855896830558777,0.4104488492012024,0.7566037178039551,-0.3163578510284424,-0.4077228009700775,-0.11289528757333755,-0.25290611386299133,0.08024197071790695,-0.4282515048980713,0.6288993954658508,-0.7917160987854004,-0.5540587306022644,0.5248661041259766,-0.3994324803352356,-0.5514155030250549,0.37135931849479675,0.20822979509830475,-0.7251861691474915,-0.8377646207809448,-0.48713672161102295,-0.19052065908908844,0.4372701346874237,-0.3234647214412689,-0.3235427439212799,-0.12690120935440063,0.0008022596593946218,0.25865742564201355,0.1333661675453186,-0.48076727986335754,1.0601558685302734,-0.23645833134651184,-0.7098681330680847,0.6608148813247681,-0.6992198824882507,-0.2529994547367096,-0.2197112739086151,0.4992869794368744,-0.6808761358261108,-0.4690403342247009,-0.7361612915992737,-0.7678181529045105,-0.26199012994766235,0.22733227908611298,-0.5429572463035583,-0.6781434416770935,-0.014980784617364407,0.24456585943698883,-1.028381109237671,-0.6552157402038574,1.0677192211151123,-0.09976314753293991,-0.4036315083503723,0.5891706943511963,-0.7340281009674072,-0.42319172620773315,-0.217294380068779,0.7900575995445251,-0.5101976990699768,-0.7157059907913208,-0.44727152585983276,-0.4672386348247528,0.5483525991439819,0.11402323842048645,-0.9130691289901733,-0.4684479236602783,-0.03526100143790245,0.30303287506103516,-0.4324512481689453,-0.10143387317657471,0.19610610604286194,0.045444708317518234,-0.33678138256073,-0.03779926151037216,0.002263822127133608,0.25270724296569824,0.21996615827083588,0.367927223443985,-0.07176406681537628,0.07688284665346146,-0.4751231372356415,-0.761307954788208,0.06635738164186478,0.2128431499004364,-0.4920465648174286,-0.26581940054893494,0.6750725507736206,0.908173680305481,-0.6552620530128479]},"inputBias":{"rows":20,"columns":1,"weights":[0.1763555258512497,0.06279813498258591,-0.20453095436096191,0.37540203332901,0.17538131773471832,0.2614435851573944,0.08675853908061981,0.20778311789035797,0.12283959984779358,-0.2127707600593567,0.09924119710922241,0.2236977219581604,0.0669684112071991,-0.4415753185749054,0.4019761085510254,0.1263519823551178,0.311007022857666,-0.16149549186229706,-0.2992154657840729,0.017956692725419998]},"forgetMatrix":{"rows":20,"columns":40,"weights":[0.04363705962896347,-0.07983362674713135,-0.5717471837997437,-0.3139999210834503,-0.3164251446723938,-0.17456424236297607,-0.2073277235031128,-0.13762667775154114,-0.09508443623781204,-0.020963013172149658,-0.054679326713085175,0.11609891057014465,0.07934427261352539,-0.4801912307739258,0.09560912102460861,-0.5001923441886902,0.457267165184021,0.09679052978754044,0.11798885464668274,0.18200235068798065,0.3527435064315796,0.1725882738828659,0.12788671255111694,0.2373843491077423,0.236062154173851,-0.16667531430721283,-0.21770505607128143,-0.3835221827030182,-0.04185857996344566,-0.2694926857948303,-0.3830156624317169,0.004133420530706644,0.1512882262468338,-0.20474191009998322,0.3687998354434967,0.09917890280485153,0.2819768786430359,0.14040836691856384,0.152513787150383,0.5522400140762329,0.23307737708091736,-0.19159731268882751,-0.5202739238739014,-0.23688633739948273,-0.2050216794013977,-0.01979510858654976,-0.10012119263410568,-0.09316711872816086,-0.08554508537054062,-0.018239840865135193,-0.24530626833438873,0.28248634934425354,0.025034748017787933,-0.6739718914031982,-0.24565105140209198,-0.29207801818847656,0.294746994972229,-0.0016796654090285301,0.12989600002765656,-0.029332565143704414,0.43442395329475403,-0.1415500044822693,0.31335169076919556,0.011834537610411644,0.08865969628095627,-0.23240262269973755,-0.3184486925601959,-0.18558739125728607,-0.08349989354610443,-0.01757279597222805,-0.1939546763896942,-0.20471623539924622,0.1434309035539627,-0.4305054247379303,0.29370737075805664,0.38797953724861145,0.31260478496551514,0.11216960847377777,0.11339614540338516,0.4236699640750885,0.3533760607242584,0.35006967186927795,-0.19843901693820953,-0.2287779450416565,-0.13672982156276703,0.4768788814544678,0.2598614990711212,0.1036563590168953,0.36225301027297974,0.11656743288040161,-0.3494319021701813,-0.10010214149951935,0.029435595497488976,0.14372505247592926,0.7608479261398315,-0.37363770604133606,0.18572789430618286,-0.3000883162021637,0.01492373738437891,0.4988982081413269,-0.3043011724948883,0.36579570174217224,0.3869025707244873,0.14820849895477295,-0.2971499562263489,0.24439729750156403,0.09672330319881439,-0.270420640707016,0.19421572983264923,-0.2486758828163147,0.07766404002904892,-0.309372216463089,0.17612481117248535,0.5878217816352844,0.16438579559326172,-0.0540190227329731,0.21926136314868927,0.0940808355808258,-0.20782612264156342,-0.012503154575824738,-0.06301162391901016,0.30715957283973694,-0.6002768278121948,-0.5848740935325623,-0.21779336035251617,0.2892216444015503,-0.02612312138080597,-0.0422842912375927,0.28461405634880066,0.08765050023794174,-0.4157194197177887,-0.1530703902244568,-0.526557207107544,-0.456134170293808,-0.4042453169822693,-0.033274970948696136,0.10712362825870514,0.020822852849960327,0.002168502425774932,-0.03345543146133423,-0.13288424909114838,0.38083866238594055,-0.30016183853149414,-0.3913898766040802,-0.0975421890616417,0.3153436481952667,-0.040028635412454605,-0.09828779846429825,0.1908639371395111,-0.5460793375968933,-0.04254387691617012,-0.1817418932914734,0.19652330875396729,-0.08656896650791168,0.3948913514614105,0.19797545671463013,0.08516708761453629,-0.24524599313735962,0.07501782476902008,0.15776033699512482,0.19440796971321106,0.20263658463954926,-0.8321382403373718,-0.7894517779350281,-0.5467261075973511,0.1700269728899002,-0.317641019821167,0.08869574218988419,-0.017626259475946426,0.05322624370455742,-0.017921082675457,0.06301505118608475,0.10096049308776855,-0.5280095934867859,0.3119427561759949,-0.4648275375366211,0.6464000940322876,-0.09339255839586258,-0.185028538107872,0.2096870392560959,0.13775603473186493,-0.07612311840057373,0.21300584077835083,0.7933508157730103,0.12883710861206055,-0.07446706295013428,-0.3689514994621277,-0.6488507390022278,0.13634656369686127,-0.2531655728816986,-0.3690987229347229,-0.025776062160730362,0.018084967508912086,-0.020582495257258415,0.910591721534729,0.41181808710098267,0.3834424912929535,0.4370730519294739,0.11234163492918015,1.1158363819122314,-0.025364980101585388,-0.032331619411706924,-0.38258787989616394,-0.16872638463974,-0.40338724851608276,0.17226968705654144,-0.21310795843601227,-0.017836306244134903,-0.14021539688110352,-0.013692675158381462,-0.18377195298671722,0.03034948743879795,-0.007296592462807894,-0.587851881980896,0.015693901106715202,-0.191138356924057,0.10458999127149582,0.020546993240714073,-0.3098865747451782,-0.253419429063797,0.2467413991689682,-0.21550476551055908,0.0895630419254303,0.00967081356793642,0.2980510890483856,-0.05961126834154129,-0.3217586576938629,-0.42157435417175293,0.07093372941017151,-0.17663562297821045,-0.2824960947036743,-0.19853900372982025,0.24779082834720612,0.26468411087989807,0.35570821166038513,0.2136533558368683,-0.046184103935956955,0.005204725079238415,0.09629195928573608,0.665697455406189,0.14504952728748322,0.25236859917640686,-0.6686450242996216,-0.651142418384552,-0.6495485305786133,0.2560320496559143,-0.15929365158081055,0.05269848555326462,-0.14343476295471191,0.04933378845453262,0.03575830161571503,-0.028380852192640305,0.020319223403930664,-0.4174250066280365,0.4126942455768585,-0.3755776286125183,0.3582916855812073,-0.06852543354034424,-0.19995827972888947,0.16434474289417267,0.354689359664917,0.10082000494003296,0.25086674094200134,0.5382223129272461,0.17736440896987915,-0.14449246227741241,-0.2853843867778778,-0.765579342842102,0.03653412684798241,-0.19480305910110474,-0.46594223380088806,-0.11139875650405884,0.12320428341627121,0.0631384551525116,0.7812676429748535,0.11855092644691467,0.32455992698669434,0.24923750758171082,0.07365989685058594,0.9853258728981018,0.4738245904445648,0.061351314187049866,0.36910322308540344,0.7380778789520264,0.3725615441799164,0.4529159665107727,0.5381494760513306,0.3400512933731079,0.988609790802002,0.25289109349250793,-0.057500261813402176,-0.12155935168266296,0.44628646969795227,0.6591625213623047,0.3880347013473511,-0.34950223565101624,0.2836233973503113,-0.419212281703949,0.41286858916282654,1.05025315284729,-0.12521418929100037,0.6312180757522583,0.5046095848083496,0.4260113537311554,-0.03322897106409073,-0.04868926852941513,0.5376409888267517,0.7084459066390991,-0.29445958137512207,0.3622218370437622,0.7686958909034729,0.08023761212825775,-0.16528134047985077,0.1859777271747589,-0.6852588057518005,-0.4702130854129791,0.6313777565956116,-0.15517249703407288,-0.9051910638809204,-0.9634702205657959,0.17196981608867645,-0.4735293686389923,-0.49198758602142334,-0.1273089498281479,-0.2074708342552185,-0.44274479150772095,-0.0957348570227623,-0.41983315348625183,-0.04139922559261322,0.09824304282665253,-0.2808677554130554,0.5233590602874756,0.17288878560066223,-0.5252784490585327,-0.4294934868812561,-0.13097499310970306,0.42206457257270813,-0.058323655277490616,0.49393588304519653,-0.04679616913199425,0.5717126727104187,0.01939750649034977,0.2665385603904724,-0.38373178243637085,0.18111424148082733,-0.20298844575881958,-0.26038384437561035,0.00718665961176157,-0.43525230884552,-0.4893864393234253,-0.12440761923789978,-0.15671390295028687,0.2438642531633377,-0.8353623151779175,-0.19072668254375458,0.23752787709236145,0.3519628643989563,-0.30696940422058105,-0.007017073221504688,-0.050118960440158844,0.04261922836303711,-0.43732449412345886,-0.08044810593128204,0.13319925963878632,-0.16952364146709442,-0.25843459367752075,0.0865352675318718,-0.19325806200504303,0.27224618196487427,0.22685441374778748,-0.0022963103838264942,0.2937968969345093,0.2007196545600891,-0.08160445839166641,0.014806786552071571,-0.2567860186100006,0.18516147136688232,-0.24583885073661804,0.07225647568702698,0.1824304312467575,0.3263305127620697,0.06468959897756577,0.26190540194511414,-0.1819433569908142,-0.1406370997428894,-0.23620513081550598,0.12913140654563904,-0.13552658259868622,-0.04361901059746742,-0.26222825050354004,0.1816282868385315,0.0742919072508812,0.14081645011901855,0.2957441806793213,0.22428561747074127,0.013695493340492249,0.19501174986362457,-0.30644670128822327,-0.01245289109647274,0.6368123888969421,0.2457670122385025,0.19435375928878784,-0.8689868450164795,-0.6406888365745544,-0.736607015132904,0.20713551342487335,-0.3683401048183441,-0.001106571638956666,-0.08319038152694702,-0.0695270448923111,-0.14244157075881958,-0.12830224633216858,0.20177723467350006,-0.4333436191082001,0.3795263171195984,-0.5874192118644714,0.6424737572669983,0.02337673120200634,0.02652413211762905,0.07644220441579819,0.17302852869033813,0.0764111801981926,0.15258044004440308,0.7394165992736816,0.40054288506507874,-0.02926596812903881,-0.3457816243171692,-0.5311853885650635,0.22939258813858032,-0.47779425978660583,-0.4098658263683319,0.004044836852699518,0.20330777764320374,0.06846538931131363,0.7649032473564148,0.14946213364601135,0.3658607304096222,0.5218226909637451,0.011879962868988514,0.9596288204193115,-0.7001160979270935,0.7091816663742065,0.5266154408454895,0.2840852439403534,-0.28823912143707275,0.48624250292778015,-0.027514038607478142,-0.01844603195786476,0.1292681246995926,-0.1973818689584732,-0.247529536485672,-0.9645566940307617,-0.2838762700557709,0.30332592129707336,0.5120364427566528,0.09865884482860565,-0.9015049338340759,0.28228867053985596,-0.8580000400543213,-0.4391293227672577,-0.6274890899658203,0.11255954951047897,-0.39621153473854065,0.1277264952659607,0.33199992775917053,0.3914981186389923,0.1966230422258377,-0.08416534215211868,0.5855399966239929,0.3476560413837433,-0.008898778818547726,0.05161269009113312,0.02394236996769905,1.0071089267730713,0.15701337158679962,-0.36548539996147156,-0.5391775965690613,-0.07359746843576431,-0.2436586618423462,0.10778376460075378,0.7995358109474182,-0.17324130237102509,-0.1081373319029808,0.11760848015546799,0.31725284457206726,-0.31575214862823486,0.4819284975528717,0.16532190144062042,0.05694335699081421,0.195513516664505,-0.019760213792324066,0.42693787813186646,0.09311915189027786,0.5706002712249756,0.13472607731819153,-0.1413198858499527,0.43300560116767883,-0.4563634991645813,0.1932975798845291,0.38345205783843994,-0.07412508875131607,0.06686677783727646,0.6890129446983337,0.23469692468643188,-0.49885886907577515,-0.11573857814073563,0.42830002307891846,0.28014951944351196,-0.23020242154598236,-0.23837810754776,0.5238011479377747,-0.1342887431383133,0.37595221400260925,-0.21032540500164032,-0.04836789146065712,0.4352903664112091,0.14668719470500946,0.11616341769695282,-0.17168590426445007,-0.3868900537490845,0.5935900211334229,-0.1687060296535492,-0.6161555647850037,-0.41209277510643005,-0.05952111631631851,0.47952979803085327,-0.010554345324635506,-0.09282368421554565,-0.25822070240974426,-0.3531946539878845,-0.18383558094501495,0.1826072633266449,-0.1997842639684677,-0.7780770063400269,0.25143492221832275,-0.06753692030906677,0.6081209778785706,0.08248429000377655,0.31621232628822327,0.31822630763053894,0.09770049154758453,-0.021169239655137062,0.5340043306350708,-0.2878357768058777,-0.10666106641292572,0.21051688492298126,-0.7439191341400146,-0.1709297150373459,0.13368703424930573,-0.0486806184053421,-0.36966148018836975,-0.8011645674705505,-0.019194209948182106,-0.38299721479415894,0.16842855513095856,1.0067301988601685,0.28329768776893616,-0.23078519105911255,-0.030715467408299446,0.07212577760219574,0.6554775238037109,0.41013628244400024,-1.6114282608032227,-0.6427438855171204,0.14778508245944977,0.8539600372314453,0.009602293372154236,0.34422996640205383,0.1478661447763443,0.015763871371746063,-0.9647214412689209,-0.3910197913646698,0.33684810996055603,0.0762174129486084,1.465020775794983,-1.297013521194458,0.571517288684845,-0.2576195299625397,0.6954977512359619,1.7509299516677856,-0.2753293514251709,1.230808138847351,0.2384670376777649,0.5983178615570068,-0.6916075944900513,0.5177860856056213,-0.4644194543361664,-0.5600399374961853,0.13998617231845856,-0.6468074917793274,-0.438117653131485,-0.939290463924408,0.2597202956676483,0.3302794098854065,-0.7799460291862488,-0.34774044156074524,0.8668246269226074,0.11067100614309311,-0.8881301283836365,-0.2558121979236603,0.5420056581497192,-0.36846724152565,-0.19843749701976776,-0.056851211935281754,0.06475501507520676,-0.13155794143676758,0.19352787733078003,-0.022187937051057816,-0.057776499539613724,0.017450598999857903,-0.1374412477016449,0.4688557982444763,0.34280839562416077,0.28078940510749817,0.16148360073566437,-0.17531751096248627,0.24150609970092773,-0.4393373429775238,0.19733712077140808,-0.08315424621105194,0.262405663728714,-0.0658116564154625,0.6586732268333435,-0.1307416558265686,-0.09274546802043915,0.009348629973828793,-0.04669202119112015,0.18422822654247284,-0.1782170683145523,-0.19377925992012024,0.13403235375881195,-0.3283059895038605,0.2841322124004364,-0.23758146166801453,-0.28939196467399597,0.3899468779563904,0.336439311504364,-0.08934762328863144,-0.18909014761447906,-0.28369104862213135,-0.279955118894577,0.5642410516738892,0.06062433123588562,0.22655051946640015,-0.03503001853823662,0.4063909351825714,0.0812087431550026,0.09126739203929901,0.39874351024627686,0.09366653114557266,-0.17135947942733765,-0.7076805233955383,0.06607650220394135,-0.3565075397491455,0.19602569937705994,-0.32728010416030884,-0.4681917428970337,-0.0505339689552784,-0.23401837050914764,0.023980876430869102,-0.29348769783973694,0.5003758072853088,-0.2069944590330124,0.15526576340198517,0.2832319140434265,0.3599036633968353,0.15235769748687744,-0.19470255076885223,0.1771468073129654,-0.05983184278011322,0.11102320998907089,-0.0018974558915942907,0.13808007538318634,0.581311047077179,0.024526983499526978,-0.4240909218788147,0.004964024759829044,-0.14675144851207733,-0.17347997426986694,-0.0589047372341156,0.48086193203926086,-0.1527264267206192,0.13067370653152466,0.6400863528251648,0.7856243848800659,0.18571828305721283,0.19677004218101501,-0.037311628460884094,0.5059974193572998,0.21305200457572937,-0.24208934605121613,0.4443122148513794,0.7370474338531494,0.2778882384300232,0.5678640604019165,0.031002696603536606,0.8664848804473877,-0.19107487797737122,0.4892047643661499,0.46128514409065247,0.2400251179933548,0.3476138412952423,0.15475749969482422,0.058206427842378616,-0.08594473451375961,0.01724264584481716,0.026502346619963646,0.6685996651649475,-0.7488491535186768,0.6255668997764587,0.46914395689964294,-0.3336790204048157,-0.35264259576797485,-0.03519285097718239,-0.6804704070091248,-0.18866291642189026,0.5412657260894775,-0.6916313767433167,-0.7675473093986511,-0.9011484384536743,0.4132356643676758,0.12420175969600677,0.38051193952560425,0.4337655007839203,0.5347951054573059,0.12370426207780838,0.35483112931251526,-0.21705195307731628,0.09784264862537384,-0.007733241189271212,-0.3307372033596039,-0.0426441915333271,0.21823452413082123,0.652606725692749,0.6644018888473511,-0.017583226785063744,-0.17968086898326874,-0.2770208716392517,0.17213043570518494,0.2796367108821869,-0.24269694089889526,0.36695632338523865,0.3909040093421936,-0.17327280342578888,-0.3648691177368164,0.16851918399333954,0.24100063741207123,0.567175567150116,-0.39127975702285767,0.22703245282173157,0.3660792112350464,-0.39091312885284424,0.3476112484931946,0.3773846924304962,-0.5908524394035339,-0.23333430290222168,0.03967740759253502,-0.44102680683135986,-0.22703248262405396,-1.018784523010254,0.602901041507721,-0.37925612926483154,-0.25846394896507263,0.2604660391807556,0.4173956513404846,-0.3058582842350006,0.1094963327050209,-0.029630782082676888,-0.18843628466129303,0.11280659586191177,-0.48762986063957214,0.25521647930145264,0.2726801335811615,0.38175320625305176,0.4680136740207672,-0.15278655290603638,0.5046963095664978,-0.3414299190044403,0.731243371963501,0.44975215196609497,0.1378876119852066,0.3324030935764313,0.37273916602134705,0.02142883650958538,-0.37727972865104675,-0.032549820840358734,0.08180074393749237,0.2725595533847809,-0.5855934619903564,-0.5067288279533386,0.13534727692604065,-0.7069194316864014,0.4658982455730438,-0.3489793837070465,-0.6865701079368591,0.1484525501728058,0.27263107895851135,-0.3626604378223419,-0.3312820792198181,-1.0160510540008545]},"forgetHidden":{"rows":20,"columns":20,"weights":[-0.1647595912218094,0.0003412387450225651,0.2599760591983795,-0.025664620101451874,-0.06616385281085968,0.035039350390434265,-0.004166587255895138,-0.21776430308818817,0.149428591132164,0.13694678246974945,0.009875376708805561,-0.41607466340065,0.006082767620682716,-0.08300258219242096,0.5466545820236206,-0.10157504677772522,-0.21575435996055603,-0.12124054878950119,0.10036683082580566,-0.15985789895057678,0.022762993350625038,0.03354446962475777,0.3189433515071869,0.19778688251972198,-0.12756626307964325,0.09403999894857407,0.16073569655418396,0.038712892681360245,0.08491701632738113,0.13821503520011902,0.06945856660604477,-0.365608274936676,0.12154021114110947,-0.02222001738846302,0.3479504883289337,-0.13396261632442474,0.03510551154613495,0.21245776116847992,0.13693265616893768,-0.07557199150323868,-0.23425403237342834,0.23353345692157745,-0.2507176697254181,0.24059061706066132,0.09280037134885788,-0.12568622827529907,-0.07803350687026978,0.35301390290260315,0.2653021514415741,0.014892688021063805,-0.3701933026313782,0.30761855840682983,-0.6343078017234802,0.6120844483375549,-0.5137560367584229,-0.5297961831092834,0.14179715514183044,0.49606361985206604,0.24863114953041077,-0.27632805705070496,-0.31415843963623047,0.23632824420928955,-0.4735880196094513,-0.011841299012303352,0.31565678119659424,-0.39701831340789795,-0.2695103585720062,0.24524982273578644,0.3252107799053192,-0.6125010848045349,-0.2343786507844925,-0.044873178005218506,-0.388170063495636,0.10188954323530197,-0.3087487816810608,-0.2317948192358017,-0.039319686591625214,0.3815188705921173,0.45343396067619324,-0.4107186198234558,-0.09023939818143845,-0.07782674580812454,0.17924314737319946,0.20032398402690887,-0.07469899207353592,-0.09739534556865692,0.07363187521696091,0.33022162318229675,0.011202877387404442,0.10208461433649063,-0.03496365621685982,-0.1753360629081726,0.1611332893371582,0.09500590711832047,0.3198506832122803,-0.014362683519721031,0.08135421574115753,0.4352980852127075,0.1575058400630951,-0.13616420328617096,-0.11976715177297592,0.11080654710531235,0.2902306020259857,-0.01661255583167076,-0.15407177805900574,-0.0336541011929512,0.1350509226322174,-0.05194621533155441,0.05939342454075813,-0.021588213741779327,0.08484179526567459,-0.2833312451839447,-0.20195432007312775,0.11031965166330338,0.2614985406398773,-0.09002550691366196,-0.15849387645721436,0.15569306910037994,0.2031371295452118,-0.28994929790496826,-0.0032904958352446556,0.008578753098845482,0.16055843234062195,0.10564485192298889,-0.008166596293449402,0.09883169829845428,-0.028975380584597588,0.2628737688064575,0.0015261633088812232,-0.02284867689013481,0.06750403344631195,-0.16912855207920074,-0.0664200484752655,0.1430261880159378,0.36513465642929077,-0.033979710191488266,-0.10315179079771042,0.37615856528282166,0.1997014731168747,-0.2167264223098755,-0.5016713738441467,0.6260204911231995,-0.5525722503662109,0.2988208532333374,0.6788415312767029,-0.3198058307170868,-0.4909781813621521,-0.01686658337712288,0.5591772794723511,-0.15856003761291504,-0.7594501376152039,0.7548767328262329,-0.06694637984037399,0.8637498617172241,-0.9021902084350586,-0.4297381341457367,0.4685659110546112,-0.12011929601430893,0.0267157144844532,0.11405287683010101,0.05843102186918259,-0.016053762286901474,0.48864367604255676,0.17674705386161804,-0.17828331887722015,0.13240504264831543,0.19837786257266998,-0.052587077021598816,0.07019355148077011,0.21269892156124115,0.20089128613471985,-0.4957876205444336,0.02247910387814045,0.08763188868761063,0.4726921617984772,-0.22016477584838867,-0.015781356021761894,-0.14894677698612213,-0.06686212867498398,-0.03054400347173214,-0.2844322621822357,0.24769461154937744,-0.13674023747444153,0.08435371518135071,0.23982974886894226,-0.08135581761598587,-0.22412845492362976,-0.13229046761989594,0.3745788633823395,-0.1162993311882019,-0.3160340189933777,0.000709476531483233,-0.07145478576421738,0.6153755187988281,-0.40652668476104736,-0.5505760312080383,0.06628848612308502,0.34702494740486145,0.3563336431980133,-0.08389290422201157,-0.06999968737363815,0.026878833770751953,0.05659925937652588,0.06989049911499023,0.019782675430178642,-0.08841194957494736,-0.04609495401382446,0.26698389649391174,0.11922131478786469,0.047566067427396774,-0.07548487931489944,-0.30060112476348877,0.1820281744003296,-0.0031719247344881296,0.422360897064209,-0.05648230388760567,0.004367734771221876,0.33825424313545227,0.22530707716941833,-0.11292993277311325,-0.28078246116638184,0.3904339075088501,-0.24767933785915375,0.17052708566188812,0.19611774384975433,-0.25124454498291016,-0.2151528000831604,0.700880765914917,0.46233054995536804,-0.49127471446990967,-0.3792160153388977,0.3574232757091522,-0.44868430495262146,0.11033961921930313,-0.24242781102657318,-0.2017725110054016,0.41307738423347473,0.4354991018772125,0.3702089190483093,-0.58880215883255,0.19026562571525574,-0.13376089930534363,0.12294011563062668,0.3276255428791046,-0.35577356815338135,0.2213181108236313,0.45852941274642944,0.2630939781665802,0.03246092423796654,0.334495484828949,0.22382852435112,0.3754030764102936,-0.12308932095766068,0.15511846542358398,-0.5669450163841248,-0.15895570814609528,0.44075173139572144,0.24149945378303528,0.17485959827899933,0.09383651614189148,-0.08085951209068298,0.046159982681274414,-0.23038408160209656,-0.04474038630723953,0.13759809732437134,-0.1293126940727234,-0.10852062702178955,0.78899085521698,-0.03345261141657829,0.012484803795814514,-0.17937472462654114,-0.22563967108726501,0.11363278329372406,0.02482147142291069,0.20075330138206482,0.11344810575246811,-0.08121425658464432,1.0034327507019043,0.5971135497093201,-0.1483977735042572,-0.06466751545667648,0.1380458027124405,-0.37851986289024353,0.45321765542030334,0.11884800344705582,-0.18788032233715057,-0.24256806075572968,0.35850122570991516,0.26418358087539673,-0.101661816239357,-0.07080111652612686,0.7868061661720276,-0.5047183036804199,0.13243749737739563,-0.24897705018520355,-0.44295573234558105,0.5678008198738098,0.38025131821632385,0.5374022126197815,-0.377562016248703,0.1727125197649002,-0.17403148114681244,0.393100380897522,0.2677933871746063,-0.2958052158355713,0.3522665798664093,0.3082554042339325,0.5097580552101135,-0.17370155453681946,0.181881844997406,0.27828189730644226,-0.8393259644508362,0.08840229362249374,-0.0510021410882473,0.0253530815243721,0.10495087504386902,-0.18738068640232086,0.8039975166320801,0.4199262857437134,-0.3907783627510071,-0.3135681748390198,0.3832544982433319,-0.3746127784252167,0.04456423968076706,0.4390762448310852,-0.15679031610488892,-0.393476665019989,0.6603925824165344,0.26748114824295044,-0.5824661254882812,-0.5726080536842346,0.221437007188797,-0.34096843004226685,0.07663514465093613,-0.5278022289276123,-0.17157498002052307,0.24373091757297516,0.593500554561615,0.5847678780555725,-0.47712597250938416,0.027223289012908936,0.11875741183757782,-0.2794634997844696,0.3762378692626953,0.09635089337825775,-0.18928074836730957,-0.16957776248455048,0.0870828703045845,0.019596675410866737,0.03949752449989319,-0.0005001500248908997,0.06608955562114716,0.36092010140419006,0.5484791994094849,-0.566992998123169,-0.1637466698884964,0.4784688949584961,-0.1010897159576416,-0.2873918414115906,0.4158194065093994,0.3008243441581726,-0.344083309173584,-0.0330129899084568,0.2846657931804657,-0.27924689650535583,0.10763996839523315,0.3720317780971527,0.10186564177274704,-0.08084656298160553,0.028996169567108154,0.4591468572616577,0.02317521534860134,0.22303085029125214,-0.3358585834503174,-0.20482468605041504,0.3009037673473358,0.14659473299980164,-0.06729153543710709,-0.0729454979300499,0.009324425831437111,0.19830714166164398,-0.21090082824230194,-0.1651145964860916,0.10122590512037277,-0.007453822530806065,-0.04767664521932602,-0.00798871275037527,0.19576436281204224,-0.28349539637565613,-0.0249283816665411,0.04553696885704994,-0.28279876708984375,0.3236970007419586,0.14585350453853607,-0.49844858050346375,0.03290814533829689,0.06096399948000908,-0.049550626426935196,-0.3721359968185425,0.20249654352664948]},"forgetBias":{"rows":20,"columns":1,"weights":[0,0,0,0,0,0,0,0,0,0,0,0,0,0,0,0,0,0,0,0]},"outputMatrix":{"rows":20,"columns":40,"weights":[0.021102484315633774,-0.2675057351589203,-0.4614502191543579,-0.19152116775512695,-0.3483108580112457,-0.21918125450611115,-0.3486388325691223,-0.022300750017166138,-0.26005539298057556,-0.05026973411440849,0.0681048035621643,0.15853282809257507,0.08661282062530518,-0.4544576406478882,-0.0521162748336792,-0.3452107608318329,0.4679005742073059,0.033067625015974045,0.20361736416816711,-0.028837239369750023,0.6205988526344299,-0.06339329481124878,0.06633371859788895,0.1997702270746231,0.22481729090213776,-0.38177505135536194,-0.25932586193084717,-0.2638532817363739,-0.16596868634223938,-0.05528603121638298,-0.38259419798851013,-0.08989713340997696,0.09739536792039871,-0.3747994303703308,0.26366719603538513,0.16366223990917206,0.2293323427438736,0.19088999927043915,0.026897210627794266,0.5411294102668762,-0.008709589950740337,-0.4744717478752136,-0.5020880103111267,-0.20450954139232635,-0.3764686584472656,-0.2862573564052582,-0.36029693484306335,0.03403399512171745,-0.146347314119339,0.013550556264817715,-0.030908482149243355,0.26087626814842224,0.021110445261001587,-0.4815874695777893,-0.299394428730011,-0.35987427830696106,0.4133360683917999,0.12828472256660461,0.21668373048305511,-0.03321548178792,0.6824572086334229,-0.1693069487810135,0.24047653377056122,0.03401084244251251,0.21652956306934357,-0.25071582198143005,-0.31770583987236023,-0.3097340166568756,-0.09826746582984924,0.013026367872953415,-0.29712292551994324,-0.02039918303489685,0.12335800379514694,-0.34681785106658936,0.4296990633010864,0.29693931341171265,0.20074978470802307,0.3547518253326416,0.021191902458667755,0.6929180026054382,-0.15525487065315247,-0.010165528394281864,-0.19032162427902222,-0.24090398848056793,-0.6813328862190247,-0.14454275369644165,-0.07674358785152435,-0.7600517868995667,0.4088970720767975,0.31893816590309143,-0.4310213327407837,-0.3315088748931885,-0.005029698368161917,-0.6299391984939575,-0.077309750020504,-0.4661012291908264,-0.43577200174331665,-0.1827390044927597,0.17603091895580292,0.049384377896785736,0.19270896911621094,0.6004263162612915,0.16782476007938385,-0.8420529365539551,-0.11849742382764816,-0.07804601639509201,-0.15730077028274536,-0.3693896532058716,-0.07802972942590714,-0.8296787738800049,-0.4364347755908966,-0.1844872087240219,0.677227795124054,0.21898728609085083,0.07129986584186554,-0.45592257380485535,0.009281003847718239,-0.5031787157058716,0.38972699642181396,0.6805074214935303,-0.5826062560081482,-0.20376838743686676,-0.10543590039014816,0.07936248928308487,-0.2287232130765915,-0.21671554446220398,-0.9628729224205017,-0.44290590286254883,0.011691981926560402,-0.28507718443870544,-0.19982926547527313,-0.060890208929777145,-0.3349483013153076,-0.14886875450611115,-0.42934465408325195,0.35044166445732117,0.06635581701993942,0.2579694390296936,0.5339542031288147,-0.3742879629135132,-0.20370621979236603,-0.40748855471611023,-0.8592323064804077,-0.40842583775520325,0.7966926693916321,0.5993995070457458,-0.1978372484445572,0.03457842767238617,0.3400576114654541,-0.5638118982315063,-0.16794253885746002,-0.1444811075925827,-0.02865174226462841,-0.02384031005203724,0.19397571682929993,0.2988784909248352,-0.64319908618927,-0.43371307849884033,0.23274439573287964,0.1724933236837387,0.04012874886393547,-0.43475547432899475,-0.42196154594421387,-0.367329865694046,-0.39189112186431885,-0.12567037343978882,-0.22505034506320953,-0.06671366095542908,-0.23141533136367798,0.049032121896743774,-0.09012870490550995,0.1345922201871872,-0.09184059500694275,-0.47227582335472107,-0.06540436297655106,-0.2977249324321747,0.5270413756370544,0.10445372015237808,0.1507248878479004,0.06777633726596832,0.4207262694835663,-0.18111848831176758,0.13035942614078522,-0.21040017902851105,0.15934762358665466,-0.11450596898794174,-0.2564796507358551,-0.38796788454055786,-0.05722757428884506,-0.10432178527116776,-0.4841582775115967,-0.09171764552593231,0.04863278567790985,-0.27493223547935486,0.26388004422187805,0.23203809559345245,0.04641202092170715,0.12914268672466278,0.15219420194625854,0.5997850894927979,-0.30669623613357544,-0.016434205695986748,-0.1493036299943924,-0.1193123459815979,-0.29551807045936584,0.013842198066413403,-0.431673526763916,-0.14735977351665497,0.025749292224645615,-0.19634805619716644,-0.29433301091194153,-0.25337710976600647,-0.03814541921019554,-0.531522274017334,-0.20528453588485718,-0.11133715510368347,0.10604159533977509,0.1581982970237732,0.08919654041528702,-0.24168145656585693,0.2614823281764984,-0.08535700291395187,-0.1804347038269043,-0.11832880973815918,0.42255711555480957,-0.10782616585493088,-0.3774053752422333,-0.2696876525878906,0.062313757836818695,-0.5863988399505615,-0.37462741136550903,-0.12871575355529785,0.38146865367889404,0.036393847316503525,0.05938428267836571,0.05121844261884689,-0.15069876611232758,0.0004775075358338654,0.1719347983598709,0.4683871865272522,-0.017503635957837105,-0.32751917839050293,-0.5112907886505127,-0.2755473554134369,-0.41436511278152466,0.02895502746105194,-0.2806622385978699,-0.24507677555084229,-0.12843748927116394,0.0930534228682518,-0.14205563068389893,-0.06584043800830841,0.00015737979265395552,-0.6608049869537354,-0.11079807579517365,-0.2857584059238434,0.5552329421043396,0.16408699750900269,0.22545568645000458,-0.02469267137348652,0.3316069543361664,-0.12157655507326126,0.026800397783517838,-0.09587671607732773,0.27445241808891296,-0.11284979432821274,-0.2645723223686218,-0.4377020001411438,-0.004553831182420254,-0.28086936473846436,-0.49020829796791077,-0.143032968044281,0.2058635801076889,-0.17977897822856903,0.0903945043683052,0.2212098389863968,0.10809208452701569,0.08246117830276489,0.2113407403230667,0.732731819152832,0.27399060130119324,-1.1991772651672363,-0.23346175253391266,0.13912075757980347,0.02727717161178589,-0.4203246533870697,-0.09774549305438995,-0.585064709186554,0.04703918844461441,0.10978946089744568,0.03563357889652252,0.6566028594970703,-0.02594468742609024,-0.9270724058151245,-1.3543394804000854,0.6845037937164307,0.8568792343139648,-0.010214761830866337,1.1161471605300903,-0.1599823534488678,0.5782099366188049,-0.5929582715034485,0.1971454918384552,-1.38921320438385,-0.32458147406578064,-0.11752977967262268,-0.33331477642059326,0.2178431749343872,-0.2069915235042572,-0.232421875,0.025603029876947403,-0.4779922366142273,-0.2721317410469055,-1.545480728149414,-0.21309681236743927,0.8084859251976013,0.02012713812291622,-1.6506003141403198,0.24390950798988342,-0.12135330587625504,-0.14038068056106567,-0.5825150012969971,-0.5555109977722168,-0.11224458366632462,-0.4613158106803894,-0.321498304605484,-0.4647417366504669,0.03481252118945122,-0.16817164421081543,-0.042682867497205734,-0.014745601452887058,0.1978737860918045,0.20767851173877716,-0.4456835389137268,-0.2574215829372406,-0.36908212304115295,0.48566412925720215,0.27601131796836853,0.4192776679992676,-0.13163983821868896,0.8281465172767639,-0.03599883243441582,-0.05563192814588547,0.11595068871974945,0.41225096583366394,-0.35616859793663025,-0.4847237765789032,-0.19913379848003387,-0.44186297059059143,-0.08960078656673431,-0.4231206178665161,-0.0696612000465393,0.08791359513998032,-0.5439552068710327,0.09124235808849335,0.19235578179359436,0.09074331074953079,0.22555598616600037,0.14084812998771667,0.30998677015304565,0.08290637284517288,-0.4007023274898529,0.1252502202987671,0.1426856517791748,-0.01547516230493784,-0.13222064077854156,0.05648008733987808,-0.15481439232826233,0.3231047987937927,0.11699512600898743,-0.26620712876319885,0.09904483705759048,0.21823038160800934,-0.20398201048374176,-0.120810367166996,-0.259096622467041,0.12137240171432495,-0.2007664442062378,0.39943841099739075,0.27443423867225647,0.2792953848838806,0.22683557868003845,0.22479873895645142,-0.21245555579662323,-0.10555434226989746,-0.21794122457504272,0.07048047333955765,-0.04025764763355255,-0.16237637400627136,-0.12081091105937958,0.10547634959220886,0.10682619363069534,0.05775560066103935,0.05986882746219635,-0.24687255918979645,0.0010594921186566353,0.06635476648807526,-0.18862766027450562,-0.001294063637033105,0.10311592370271683,0.10490423440933228,-0.35842305421829224,-0.5156174898147583,-0.35947689414024353,-0.3797663152217865,-0.26724791526794434,-0.32782280445098877,0.003693837206810713,-0.17670661211013794,0.09881754219532013,-0.017041625455021858,0.08506648242473602,-0.012154677882790565,-0.5073909759521484,-0.022408127784729004,-0.3379591405391693,0.5233721137046814,0.05800394341349602,0.17489172518253326,0.10549944639205933,0.6177340745925903,-0.1685485541820526,0.15454548597335815,0.11244836449623108,0.29077693819999695,-0.2920036315917969,-0.33103013038635254,-0.3595863878726959,-0.08366012573242188,0.011685351841151714,-0.39062169194221497,-0.09131848812103271,0.15654167532920837,-0.5345257520675659,0.3319323658943176,0.2812689542770386,0.24278762936592102,0.4058992564678192,0.115305595099926,0.7162577509880066,-0.1196456253528595,-0.1130688264966011,0.9847280979156494,0.7044717669487,0.2598423957824707,0.04364390671253204,0.3372814655303955,-0.1699758917093277,0.7285739183425903,0.390671044588089,0.178815558552742,0.07008279860019684,0.26795482635498047,0.2635163366794586,-0.5701971054077148,0.10707264393568039,-0.17757108807563782,-0.1350623518228531,0.2715527415275574,-0.14616288244724274,-0.15634062886238098,-0.005999984219670296,0.019957194104790688,-0.4113291800022125,-0.2452269196510315,0.03214041888713837,0.5038977861404419,0.6208482384681702,0.19469325244426727,0.2110223025083542,0.4532874524593353,0.34687772393226624,-0.4250517189502716,0.08522979170084,-0.46365949511528015,-0.34718987345695496,0.007341964170336723,-0.45231616497039795,-0.25744301080703735,-0.4677256941795349,0.010750354267656803,-0.8145622611045837,-0.10396764427423477,0.055866312235593796,-0.25835981965065,-0.11153823137283325,-0.06370896846055984,-0.6452760100364685,-0.5567415356636047,-0.08419175446033478,-0.10936202108860016,0.4450835883617401,-0.24300745129585266,-0.19178028404712677,-0.5576251745223999,0.5087261199951172,0.39228567481040955,0.2310735136270523,0.24665004014968872,-0.6452316641807556,0.4265086054801941,-0.8191218972206116,0.3385174870491028,-1.095978021621704,-0.27393782138824463,0.25368744134902954,-0.3331563472747803,0.03171757236123085,0.07424575835466385,-0.20500820875167847,-0.24448244273662567,-0.47038862109184265,0.016620539128780365,-0.5630205273628235,-0.30648884177207947,0.8266903162002563,-0.41401469707489014,-0.7611364722251892,0.6722732782363892,-0.267392635345459,-0.07981153577566147,-0.1837921440601349,-0.27270495891571045,0.12240736186504364,-0.6119755506515503,-0.007496539503335953,-0.5699272751808167,-0.013942062854766846,0.3479671776294708,-0.18374496698379517,-0.301268070936203,0.04411834478378296,-0.06201385706663132,-0.9146602153778076,-0.6970931887626648,-0.42780381441116333,0.5267878174781799,0.19943946599960327,0.6957035660743713,0.24781498312950134,0.45276686549186707,-0.1433817446231842,0.15854185819625854,0.1839844137430191,0.6529737710952759,-0.09410270303487778,-0.348418265581131,-0.3764870762825012,0.06701162457466125,-0.10931285470724106,-0.5379074811935425,-0.2983703315258026,0.01871720887720585,-1.14357328414917,0.3170382082462311,0.493993878364563,0.10369260609149933,0.19564126431941986,0.024247316643595695,0.5220987200737,0.190569669008255,-0.5371276140213013,0.06849752366542816,0.16878806054592133,-0.1381409615278244,0.2129749059677124,0.0862930566072464,-0.24519023299217224,0.8445707559585571,0.5737682580947876,0.3358045518398285,0.7097618579864502,0.21197396516799927,-1.3355364799499512,-1.6261863708496094,0.3816346824169159,0.7073942422866821,0.052869729697704315,0.5132952928543091,0.2524634003639221,0.3983120918273926,-0.26274582743644714,0.4146474599838257,-0.3321336805820465,-0.02473687194287777,-0.41273078322410583,-0.17225579917430878,0.09727203845977783,0.20525293052196503,0.3138425648212433,0.3636908233165741,0.30590951442718506,-0.8559141159057617,-0.7379688024520874,0.39492926001548767,0.40569090843200684,0.5077957510948181,-0.468904972076416,-0.12903748452663422,0.3341572880744934,-0.028228383511304855,-0.6635339260101318,-0.016053566709160805,0.7096645832061768,0.1557968109846115,-0.6709273457527161,-0.22475223243236542,0.1559765338897705,0.05607842281460762,-0.03237688168883324,-0.022694792598485947,0.4178392291069031,0.3401762545108795,-0.02409103699028492,-0.7985246181488037,-0.15464246273040771,0.44484061002731323,0.13120149075984955,0.783537745475769,-0.03919530287384987,0.714570164680481,-0.2657037675380707,0.1098373606801033,0.14641119539737701,0.4344330132007599,-0.30467668175697327,0.12226676195859909,0.33023497462272644,-0.7670554518699646,-0.2059500366449356,0.013310980051755905,0.009254870004951954,-0.024979393929243088,-0.9006494283676147,-0.4825868606567383,0.021437864750623703,0.09526216238737106,0.12855637073516846,-0.08642429858446121,-0.3842020332813263,-0.37565770745277405,-0.5540204048156738,0.5825819373130798,0.964821994304657,0.6943362355232239,-0.7028632164001465,-0.5547997355461121,-0.3753890097141266,0.06212691590189934,-0.0915326401591301,0.029227357357740402,0.3054097294807434,0.28714612126350403,0.48099929094314575,-0.32626965641975403,0.6705415844917297,-0.1615835428237915,-0.10717716813087463,0.9046493172645569,-0.6571746468544006,-0.16937339305877686,-0.38144293427467346,-1.0019874572753906,-0.7061550617218018,0.39806506037712097,0.47919440269470215,0.26221078634262085,1.0797898769378662,-0.06273606419563293,-0.4592561721801758,0.3360540568828583,-0.026757163926959038,-0.10407110303640366,0.1462690234184265,-0.8855714201927185,-0.341208815574646,-0.7543978691101074,-1.0272740125656128,-0.24755993485450745,-0.9759377837181091,-0.018206380307674408,-0.10837486386299133,0.16834045946598053,0.13633178174495697,-0.32765406370162964,0.00037751244963146746,-0.06592573970556259,-0.33941444754600525,0.2824419140815735,0.11348631978034973,-0.23299401998519897,0.11239555478096008,0.23733513057231903,0.19898658990859985,-0.1659380942583084,-0.22156576812267303,-0.18088595569133759,0.0038646634202450514,0.6730164885520935,-0.12210545688867569,0.19695156812667847,0.2223755568265915,0.0422288179397583,-0.5809078216552734,