{"type":"LSTM","options":{"inputSize":35,"inputRange":35,"hiddenLayers":[20,20],"outputSize":35,"decayRate":0.999,"smoothEps":1e-8,"regc":0.000001,"clipval":5,"maxPredictionLength":100,"dataFormatter":{"indexTable":{"1":2,"2":17,"3":23,"4":25,"5":27,"6":28,"7":29,"8":30,"h":0,"i":1,"e":3,"l":4,"o":5," ":6,"t":7,"r":8,"w":9,"d":10,"y":11,"v":12,"n":13,"m":14,"a":15,"b":16,"c":18,"g":19,"s":20,"u":21,"k":22,"f":24,"p":26,"j":31,"stop-input":32,"start-output":33,"unrecognized":34},"characterTable":{"0":"h","1":"i","2":"1","3":"e","4":"l","5":"o","6":" ","7":"t","8":"r","9":"w","10":"d","11":"y","12":"v","13":"n","14":"m","15":"a","16":"b","17":"2","18":"c","19":"g","20":"s","21":"u","22":"k","23":"3","24":"f","25":"4","26":"p","27":"5","28":"6","29":"7","30":"8","31":"j","32":null,"33":null,"34":null},"values":[{"input":"hi","output":1},{"input":"hello","output":1},{"input":"hi there","output":1},{"input":"howdy","output":1},{"input":"hi everyone","output":1},{"input":"hello everyone","output":1},{"input":"howdy everyone","output":1},{"input":"hi mammoth","output":1},{"input":"hello mammoth","output":1},{"input":"bye","output":2},{"input":"cya","output":2},{"input":"good bye","output":2},{"input":"goodbye","output":2},{"input":"gnight","output":2},{"input":"good night","output":2},{"input":"see you","output":2},{"input":"see you later","output":2},{"input":"see you tomorrow","output":2},{"input":"see you guys","output":2},{"input":"see you everyone","output":2},{"input":"good bye everyone","output":2},{"input":"bye everyone","output":2},{"input":"i have to go","output":2},{"input":"i got to go","output":2},{"input":"take it easy","output":2},{"input":"have a nice day","output":2},{"input":"have a good day","output":2},{"input":"k i gtg cya","output":2},{"input":"lol","output":3},{"input":"lmao","output":3},{"input":"heh","output":3},{"input":"funny","output":3},{"input":"funny guy","output":3},{"input":"so funny","output":3},{"input":"thats funny","output":3},{"input":"lols","output":3},{"input":"ha","output":3},{"input":"ha ha","output":3},{"input":"youre funny","output":3},{"input":"your funny","output":3},{"input":"ur funny","output":3},{"input":"too funny","output":3},{"input":"very funny","output":3},{"input":"rofl","output":3},{"input":"lmfao","output":3},{"input":"weather","output":4},{"input":"whats the weather","output":4},{"input":"whats the weather like","output":4},{"input":"hows the weather","output":4},{"input":"is it raining","output":4},{"input":"is it windy","output":4},{"input":"is it sunny","output":4},{"input":"is it snowing","output":4},{"input":"is it cold","output":4},{"input":"is it hot","output":4},{"input":"how is it outside","output":4},{"input":"what is the temperature","output":4},{"input":"yes","output":5},{"input":"absolutly","output":5},{"input":"i guess","output":5},{"input":"i agree","output":5},{"input":"i think so","output":5},{"input":"you bet","output":5},{"input":"yas","output":5},{"input":"ya","output":5},{"input":"you bet","output":5},{"input":"ok","output":5},{"input":"sure","output":5},{"input":"totally","output":5},{"input":"okay","output":5},{"input":"alrighty","output":5},{"input":"sure thing","output":5},{"input":"yeah","output":5},{"input":"yea","output":5},{"input":"mhmm","output":5},{"input":"no","output":6},{"input":"no thanks","output":6},{"input":"nty","output":6},{"input":"nope","output":6},{"input":"no way","output":6},{"input":"never","output":6},{"input":"i cannot","output":6},{"input":"i cant","output":6},{"input":"i dont think so","output":6},{"input":"i dont","output":6},{"input":"i dont want too","output":6},{"input":"i dont","output":6},{"input":"how are you","output":7},{"input":"hows it going","output":7},{"input":"how are you doing","output":7},{"input":"sup","output":7},{"input":"yo","output":7},{"input":"wasup","output":7},{"input":"whats up","output":7},{"input":"whats good","output":7},{"input":"whats new","output":7},{"input":"whats going on","output":7},{"input":"hows everything","output":7},{"input":"hows life","output":7},{"input":"how are things","output":7},{"input":"hows your day","output":7},{"input":"hows your day going","output":7},{"input":"hows your day","output":7},{"input":"good day","output":7},{"input":"good morning","output":7},{"input":"good afternoon","output":7},{"input":"good evening","output":7},{"input":"welcome","output":7},{"input":"good to see you","output":7},{"input":"how do i","output":8},{"input":"how do i get roles","output":8},{"input":"how do i join","output":8},{"input":"how do i advance","output":8},{"input":"how do i submit my stats","output":8},{"input":"how do i submit stats","output":8},{"input":"how do i become a member","output":8},{"input":"how do i get sub","output":8},{"input":"how do i get main","output":8},{"input":"i need help","output":8},{"input":"help me","output":8},{"input":"help","output":8}],"characters":["h","i","1","e","l","o"," ","t","r","w","d","y","v","n","m","a","b","2","c","g","s","u","k","3","f","4","p","5","6","7","8","j","stop-input","start-output","unrecognized"],"specialIndexes":[32,33,34]}},"trainOpts":{"iterations":100,"errorThresh":0.001,"log":true,"logPeriod":5,"learningRate":0.001,"callbackPeriod":10,"timeout":"Infinity","momentum":0.1},"input":{"rows":36,"columns":35,"weights":[0.06902573257684708,0.43400007486343384,-0.06252789497375488,0.31892281770706177,0.22925879061222076,-0.2860880494117737,-0.052743811160326004,0.2865803837776184,0.7135255336761475,0.41890913248062134,-0.17073768377304077,0.46791085600852966,0.4756404459476471,0.9348256587982178,0.22811947762966156,-0.17096471786499023,-0.33292168378829956,-0.044026341289281845,0.8400802612304688,0.0909327045083046,0.6580486297607422,-0.07122212648391724,-0.45374539494514465,-0.36587122082710266,-0.22720174491405487,-0.18123604357242584,-0.04659965634346008,0.0511183924973011,-0.3038637042045593,-0.2433813214302063,-0.3672597408294678,0.5239567756652832,0.2605587840080261,0.453655868768692,0.19320088624954224,0.5532394051551819,1.5153919458389282,0.08530237525701523,0.8032005429267883,0.34173741936683655,-0.9523387551307678,0.33748483657836914,0.763389527797699,1.5218366384506226,-0.006940577179193497,-0.6393831968307495,0.6622688174247742,1.2720919847488403,1.6198413372039795,0.7625566124916077,-0.6904498934745789,-0.42368242144584656,0.6152773499488831,1.789746880531311,0.319076806306839,0.4611750841140747,0.08226247876882553,-0.8508237600326538,-1.046935796737671,-0.4323941469192505,-0.08142290264368057,-0.8795000910758972,0.18817263841629028,-0.44876059889793396,-0.5568413138389587,-0.018631668761372566,0.3312237560749054,0.011099232360720634,-0.3572695851325989,0.05805356800556183,-0.6524356007575989,0.009807612746953964,0.922529935836792,-0.5393766164779663,-0.2083146721124649,0.38771334290504456,-0.611809253692627,-0.28889724612236023,-0.6023929119110107,0.47228366136550903,-0.033859383314847946,-0.1758299618959427,-0.7342015504837036,0.010352272540330887,0.06509781628847122,0.2623510956764221,1.101986050605774,-0.3312695622444153,-0.5640091896057129,0.3895088732242584,-0.5719744563102722,0.17225703597068787,0.6405326128005981,0.4444984495639801,0.40495795011520386,-0.061505623161792755,0.4769357442855835,-0.6916513442993164,-0.8193169832229614,-0.11707259714603424,0.12290764600038528,-0.6074948310852051,0.005318482872098684,0.7786147594451904,-0.0832151398062706,0.13989008963108063,0.11801166832447052,1.1132028102874756,0.2601577639579773,-3.1783673763275146,0.25818246603012085,0.00446958327665925,-0.27444350719451904,-0.33380940556526184,1.2458233833312988,-0.38924047350883484,2.1815388202667236,1.781623363494873,2.894723892211914,-0.8197106719017029,-2.1549606323242188,0.6715981364250183,1.8541120290756226,0.2848205268383026,-0.7546326518058777,0.24456508457660675,0.36031386256217957,-1.0840016603469849,0.14751553535461426,1.8979175090789795,-0.1352001428604126,2.292146682739258,0.9817164540290833,-0.9894589781761169,-1.6937789916992188,1.6830461025238037,-1.0085865259170532,0.3940078318119049,0.2270195186138153,0.23848672211170197,0.6563300490379333,1.2303264141082764,0.27728548645973206,0.7751728892326355,-0.1402813047170639,-1.0447115898132324,0.42691248655319214,0.48688384890556335,0.28255200386047363,0.11511725187301636,-0.44060179591178894,0.6317992210388184,0.052930790930986404,0.39987707138061523,-0.1012524738907814,-0.3688863217830658,0.2545691132545471,0.24157045781612396,0.9193347096443176,0.1373896449804306,0.18261907994747162,0.2228337675333023,-0.30089840292930603,0.030123258009552956,0.20558474957942963,-0.20851586759090424,0.17122367024421692,-0.02404501847922802,0.09324091672897339,-0.4622059166431427,0.3306332230567932,-0.0004145365091972053,0.16890203952789307,0.15668049454689026,-0.15709654986858368,0.14450863003730774,-1.0502039194107056,-0.29369691014289856,-0.16215234994888306,-0.1616501361131668,0.4330630898475647,0.1073107197880745,-0.18218868970870972,0.45378854870796204,-0.6775954961776733,0.09278377890586853,-0.39821377396583557,-0.9839639663696289,-0.44863516092300415,1.4560458660125732,0.17703336477279663,0.4138490855693817,-0.5555087327957153,-0.5124863982200623,2.0635626316070557,-0.9471430778503418,-0.4020073115825653,1.748747706413269,0.06910669058561325,-0.16036033630371094,1.2243365049362183,-0.32191601395606995,0.24583150446414948,0.3832114338874817,-0.5402635335922241,1.942594051361084,-0.8567168116569519,0.13508814573287964,-1.140881061553955,0.33990901708602905,0.003465295070782304,0.16729724407196045,0.2108587920665741,0.04424070194363594,0.0027554468251764774,-0.11808409541845322,0.4041549861431122,0.06179643049836159,-0.12472657859325409,0.24255046248435974,-0.6548910140991211,0.348611444234848,0.2268812209367752,-0.043191805481910706,0.62486332654953,-0.5492790937423706,0.13869379460811615,0.0818052813410759,0.44673630595207214,0.15499058365821838,0.14501918852329254,0.08514999598264694,0.030329670757055283,-0.15017306804656982,0.08287361264228821,-0.043414484709501266,-0.0043857465498149395,0.3766954243183136,-0.10313702374696732,-0.2046387493610382,-0.4673895835876465,0.12368307262659073,-0.003788358997553587,0.2132798284292221,0.21337494254112244,-0.015654874965548515,-0.017074236646294594,-0.0029741711914539337,-0.23637409508228302,-0.16588245332241058,0.16017018258571625,-0.15226541459560394,-0.02611096017062664,-0.2716485857963562,-0.18478672206401825,-0.07696270942687988,-0.162433460354805,-0.6532804369926453,-0.4418415427207947,0.042788319289684296,0.17046868801116943,0.10732506960630417,-0.1191948801279068,-0.15486834943294525,0.14372797310352325,-0.015569577924907207,-0.05790512636303902,0.17318980395793915,0.6831339001655579,0.04172461852431297,-0.05598834529519081,0.5466240048408508,-0.19917063415050507,0.2948578894138336,0.17783980071544647,-0.021989060565829277,-0.041641294956207275,0.14598596096038818,0.27596789598464966,-0.34076735377311707,-0.21336062252521515,0.12490703165531158,0.2469319999217987,0.16657352447509766,-0.33333489298820496,-0.2285657674074173,0.021294429898262024,0.1645745486021042,-0.22798962891101837,-0.19283895194530487,0.07453956454992294,0.4023628234863281,-0.262480765581131,0.093472920358181,0.08780351281166077,-0.10535053163766861,0.4869474470615387,-0.048306655138731,0.10895547270774841,-0.170001819729805,-0.24041636288166046,0.009061431512236595,-0.23970305919647217,0.3198389410972595,0.29201820492744446,0.04621351510286331,1.3164727687835693,0.13669560849666595,0.03648599609732628,-0.08198513090610504,-0.41146472096443176,0.014171987771987915,0.5955289006233215,-0.23878654837608337,-0.1899658590555191,0.4813528060913086,1.485005259513855,0.043188899755477905,0.5088133215904236,0.07606803625822067,-0.7489079833030701,-0.20192721486091614,0.17928537726402283,0.17762009799480438,0.04135965555906296,0.08555784076452255,0.3667650818824768,0.5508143305778503,1.0062692165374756,-0.16297656297683716,0.31499502062797546,-0.2613832950592041,0.06924919784069061,0.9068267345428467,-0.7611249685287476,0.11592520028352737,0.26414623856544495,-0.5578161478042603,-0.625978410243988,0.10930327326059341,0.17851200699806213,-0.09596496820449829,-0.5105255842208862,-0.49822717905044556,-0.24577540159225464,0.5938799381256104,-0.12630318105220795,-0.5213831663131714,0.07420405000448227,-0.24434034526348114,0.4918302595615387,-0.2738419473171234,0.07146742194890976,-0.1959380805492401,0.12655256688594818,0.35560667514801025,0.7844495177268982,-0.14774560928344727,-0.6494290828704834,-1.5206071138381958,-0.21740560233592987,-0.33200088143348694,-2.372119426727295,-2.1997311115264893,0.7416118383407593,0.19493788480758667,0.03477581962943077,0.1838858425617218,-0.44302552938461304,-0.9246439933776855,-0.7377098798751831,0.6796968579292297,0.492735356092453,1.9232906103134155,0.6542972326278687,0.36041662096977234,-0.28534117341041565,0.37748855352401733,2.640448570251465,1.053843379020691,-1.1565752029418945,-0.23775264620780945,-0.5920642614364624,-0.48794764280319214,-1.1309118270874023,-0.35772302746772766,0.855193018913269,0.10755569487810135,0.31518739461898804,-0.16765812039375305,-0.4478156566619873,0.4011330306529999,0.20810101926326752,0.2362644374370575,0.03177754208445549,-0.642429769039154,0.43870607018470764,-0.08377502858638763,0.9774314165115356,0.14194783568382263,-0.15316542983055115,-0.15080566704273224,-0.07143212109804153,1.6280195713043213,-0.8116297721862793,-0.02951611578464508,0.017563659697771072,-1.1787782907485962,-0.20482885837554932,0.3890276253223419,-0.08797907829284668,1.1779707670211792,0.395813524723053,-0.29273322224617004,-0.27432042360305786,-0.8416889905929565,-0.018141917884349823,-0.004713231232017279,0.3256899416446686,0.39361560344696045,0.37980204820632935,0.8811277151107788,-0.30523765087127686,1.1323434114456177,0.2554260790348053,-1.4954251050949097,0.4298328757286072,0.7399064302444458,0.027824535965919495,0.319656640291214,-0.3611952066421509,1.017831802368164,-0.6021268963813782,-0.10502073913812637,-0.18650923669338226,-0.6000092625617981,-0.6416161060333252,-0.6047224998474121,0.3448482155799866,-0.5507602691650391,0.35350218415260315,0.066460020840168,-0.47909119725227356,-0.009691585786640644,0.27370667457580566,-0.3219178020954132,0.918289065361023,0.42267146706581116,-0.30919837951660156,-0.9228810667991638,-0.522255003452301,0.42893683910369873,-0.21672898530960083,0.7112735509872437,0.6088446974754333,1.5124757289886475,0.8437263369560242,0.4120630621910095,0.40773648023605347,2.486854314804077,-1.2905298471450806,0.028866304084658623,-0.8614364266395569,-0.42387133836746216,-0.05247381329536438,-0.2724461555480957,-0.27768442034721375,0.6641783118247986,-1.0685558319091797,-0.2864365875720978,-0.07767776399850845,0.8115350604057312,0.33747488260269165,-0.3424294888973236,0.41569504141807556,0.2938479483127594,0.3927484452724457,0.5227113366127014,0.33324626088142395,0.39960092306137085,-0.03776528313755989,-0.813433825969696,-0.21137921512126923,0.07341226935386658,-0.2038382589817047,1.4998422861099243,-0.49717286229133606,-0.9094023704528809,-0.5162456035614014,-0.10821983963251114,-0.5809250473976135,-0.9391880631446838,-1.0168702602386475,-0.43655842542648315,-0.6490783095359802,0.5230904221534729,-0.8106141090393066,-0.35615813732147217,-0.48718133568763733,0.4374329447746277,0.9542781710624695,-0.5449813604354858,0.2604222595691681,-0.17920982837677002,0.2614203691482544,0.45961934328079224,-0.5805536508560181,-0.19425944983959198,-0.6598294377326965,-0.5169535279273987,0.0515463687479496,-0.8089601993560791,0.37522780895233154,-0.3135271668434143,-0.5342061519622803,0.5792852640151978,0.6130403876304626,-0.6076689958572388,0.14438673853874207,0.22986553609371185,-0.10327466577291489,0.3614088296890259,-0.5350239872932434,0.40590572357177734,-0.6151427030563354,-1.0376555919647217,-0.3024370074272156,0.0889958068728447,0.4338894188404083,-1.1303693056106567,-0.34161627292633057,0.25523868203163147,-0.15294018387794495,0.030452409759163857,0.34979066252708435,-0.46631893515586853,0.11063230037689209,1.0495386123657227,-0.1346886307001114,-0.38663098216056824,-0.19746635854244232,0.20294176042079926,-0.04874647408723831,-0.1295606791973114,0.9347506165504456,-0.33629554510116577,-0.25542622804641724,0.28751304745674133,-1.051470160484314,0.3856812119483948,0.2105196863412857,1.4011857509613037,0.3372349143028259,-1.0141063928604126,-0.6364692449569702,0.3290930390357971,-0.062497444450855255,0.20194660127162933,-0.5081711411476135,0.5417937636375427,-0.11690479516983032,0.48766255378723145,0.3276183307170868,-0.10912666469812393,-0.3439963757991791,-0.1295481026172638,-0.3755589425563812,0.05924472585320473,-1.039342999458313,1.1038216352462769,0.009515807963907719,-0.14066530764102936,0.07479064911603928,0.17748157680034637,-0.6372904777526855,0.30665266513824463,0.8227770328521729,0.2504230737686157,-0.5442414283752441,0.08621528744697571,-0.033937886357307434,0.15322048962116241,0.3752395212650299,0.3552578389644623,0.21147820353507996,-0.17168954014778137,0.3503042459487915,-0.7052261829376221,0.004900503903627396,0.10668833553791046,0.4877336919307709,0.18115179240703583,-0.3625949025154114,1.1190823316574097,-0.4658485949039459,2.892850875854492,2.0236167907714844,1.4336315393447876,0.7313184142112732,1.5089573860168457,-2.3527543544769287,0.7143272161483765,-0.6171944737434387,1.5261123180389404,-0.28785163164138794,-0.6805575489997864,-0.6506173014640808,0.3979508876800537,1.0454304218292236,-1.3978984355926514,0.636390745639801,3.677494525909424,0.9393027424812317,0.8557475805282593,1.2209405899047852,-0.34026849269866943,-0.04724518582224846,0.43674665689468384,0.7882824540138245,-0.4694576859474182,-0.13911660015583038,-1.920074462890625,0.3937830626964569,0.8689993023872375,0.06644858419895172,3.9254310131073,-1.8359824419021606,0.6500337719917297,-1.5432990789413452,-0.40972650051116943,-0.13726285099983215,-0.2339221090078354,1.1272917985916138,0.2201436161994934,-3.352813482284546,0.43790528178215027,-0.10392019152641296,-0.4669632315635681,-0.4732687175273895,1.3061710596084595,-0.0488470122218132,2.3657140731811523,2.0558621883392334,2.646578073501587,-1.6705434322357178,-2.491750478744507,0.5416691303253174,2.0460193157196045,0.27747806906700134,-0.3484502136707306,0.3579227924346924,0.9499629735946655,-0.8383527398109436,-0.04761912301182747,1.4851030111312866,-0.24365904927253723,1.397337794303894,0.9206578731536865,-1.2526092529296875,-1.7999255657196045,1.7342418432235718,-0.8680480718612671,0.07525788247585297,0.22878149151802063,0.20218084752559662,1.0792025327682495,0.6123279333114624,0.7840205430984497,2.236724615097046,-0.44763505458831787,-0.8421232104301453,0.3322473466396332,2.257279634475708,0.5436046719551086,-0.7732333540916443,-0.592248260974884,0.8157662749290466,-0.7146155834197998,-0.2044200897216797,0.33828264474868774,-0.6343311071395874,-0.8167471289634705,0.04735731706023216,0.7504531145095825,-0.444673091173172,-0.7325025200843811,1.6182308197021484,-0.8980555534362793,0.061568040400743484,0.6090351343154907,-1.9108535051345825,-0.022075047716498375,0.8392486572265625,1.0445319414138794,-0.8981614708900452,-0.36554646492004395,-0.840667724609375,1.1037529706954956,-0.06884424388408661,1.359235167503357,0.41593948006629944,0.051809247583150864,0.5579735040664673,-0.03218305855989456,0.3583810031414032,0.14492608606815338,1.1927341222763062,-0.18355248868465424,-0.3242923617362976,-0.7552866339683533,-0.7336974143981934,-0.09495145082473755,-1.6542315483093262,-0.9083655476570129,-0.9773643016815186,-0.1110880970954895,0.35471072793006897,0.009819736704230309,0.13177068531513214,-1.0276315212249756,-0.770630419254303,0.7046211361885071,-0.810599684715271,1.6668058633804321,0.996807336807251,-0.4125484228134155,0.15357878804206848,0.2632535398006439,1.085486888885498,0.14276069402694702,-0.578862190246582,-0.8053596615791321,-0.45923683047294617,-0.2648634612560272,0.2927587330341339,0.44111475348472595,0.3276706635951996,0.34200552105903625,0.21963967382907867,1.460034728050232,-0.23042337596416473,-0.8006193041801453,-0.14604704082012177,-1.255141019821167,1.3952581882476807,0.38789257407188416,0.12184727191925049,1.1368849277496338,-0.32908013463020325,-1.755095362663269,-0.15678435564041138,0.4401376247406006,0.1317989081144333,-0.809561550617218,-0.7390514612197876,1.8055559396743774,-0.04468202963471413,-0.013170107267796993,0.35926997661590576,0.23865121603012085,-1.5333542823791504,0.15768709778785706,-0.40740731358528137,0.20412246882915497,-0.02911432459950447,0.6812883019447327,0.8820146918296814,-0.4479125738143921,1.2290302515029907,0.010586201213300228,-0.26488327980041504,-0.6329150795936584,-0.01590413600206375,-0.2783861756324768,-0.3392001688480377,0.061773572117090225,0.6185365319252014,-0.13935734331607819,1.142801284790039,1.0375019311904907,-0.20715947449207306,-0.24227042496204376,-1.1594517230987549,0.172114759683609,-0.11045926064252853,0.2156224399805069,0.8779813051223755,-0.7853901982307434,0.3042498528957367,1.5422922372817993,0.025824330747127533,-0.5607938170433044,0.10892302542924881,0.674898624420166,0.036715030670166016,-0.021539272740483284,0.04324411228299141,1.2040833234786987,-0.46793150901794434,-0.17121325433254242,0.5865399837493896,0.12652967870235443,0.16131076216697693,0.651473343372345,0.9559070467948914,1.5961248874664307,3.8846147060394287,0.3473762273788452,1.0624760389328003,-0.3102717995643616,-2.4146652221679688,0.8751694560050964,0.5649389624595642,0.448963463306427,1.1499422788619995,-1.4383128881454468,1.3511680364608765,0.44394826889038086,1.5865215063095093,-0.621498703956604,0.28307199478149414,-0.030243098735809326,-0.8842167854309082,1.9931743144989014,-0.6339863538742065,0.6066499352455139,-0.6228001713752747,-0.48916900157928467,-0.4462962746620178,-0.18075843155384064,0.7164586782455444,1.595001459121704,0.565410315990448,-0.813503623008728,-0.5977045297622681,0.13110919296741486,0.9681362509727478,-0.1278124898672104,1.3873155117034912,0.22444522380828857,0.3239899277687073,-0.37977421283721924,1.1303839683532715,-0.008954509161412716,-2.3584160804748535,0.316366970539093,-0.002431111875921488,-0.44140511751174927,-0.4979768395423889,0.7992099523544312,-0.4542989730834961,1.7600222826004028,1.0789623260498047,3.8065474033355713,-1.0897767543792725,-1.9879122972488403,0.8821004629135132,1.2884896993637085,0.3985019624233246,-0.4987848699092865,-0.18375633656978607,0.8370258212089539,-0.7896222472190857,0.8802262544631958,1.2766103744506836,-0.43518269062042236,1.3588484525680542,0.8234570026397705,-0.7070004940032959,-1.4511117935180664,1.498128890991211,-1.3598653078079224,0.5218154191970825,0.08061483502388,-0.001430495292879641,-0.5666224956512451,0.8280501961708069,-0.5848522186279297,-0.27090194821357727,0.3871637284755707,-0.07438516616821289,-1.4152178764343262,0.09537800401449203,0.8016520142555237,0.14586107432842255,0.35676899552345276,0.061877116560935974,0.011538887396454811,1.6808946132659912,0.45736855268478394,0.9039939045906067,0.5799444317817688,-2.22515869140625,1.2644988298416138,1.4581491947174072,0.9781085848808289,-1.6145652532577515,0.11496462672948837,-0.12736019492149353,-1.860918641090393,0.8236216902732849,-0.0042322068475186825,-0.5231478214263916,-1.724861979484558,-0.3976120352745056,1.0735514163970947,0.7507217526435852,0.8728864789009094,0.33657190203666687,-0.32296091318130493,0.49328404664993286,-0.3683537542819977,1.09739089012146,-0.10350903123617172,-2.2142715454101562,0.31054797768592834,-0.0007468736730515957,-0.4889395833015442,-0.15756753087043762,1.0139033794403076,-0.44729363918304443,1.569543719291687,1.2946646213531494,2.8364644050598145,-1.0166103839874268,-1.804885983467102,0.9917955994606018,1.2437256574630737,0.501362144947052,-0.3306562304496765,-0.03339332714676857,0.6239585876464844,-0.6880142092704773,0.9694038033485413,1.3442460298538208,-0.15028157830238342,1.2042075395584106,0.7582523822784424,-0.41411086916923523,-1.429006814956665,1.541553020477295,-1.3400428295135498,0.5121784210205078,0.11848510801792145,0.06744950264692307,-0.09058251231908798,0.7624157071113586,0.6003938317298889,0.813909649848938,1.1118088960647583,-0.8205658197402954,-0.21381019055843353,-1.2276991605758667,-0.606433093547821,0.374820351600647,-0.15893688797950745,0.342583566904068,0.5551486015319824,0.3498850464820862,-1.8819973468780518,-0.3017028272151947,1.2751861810684204,0.2999485731124878,-0.5683158040046692,-0.8781073689460754,-0.21667450666427612,0.6023452877998352,-0.34192413091659546,0.4281286299228668,0.9268738031387329,-1.6427276134490967,0.7555582523345947,0.1520739197731018,-0.1341703236103058,-1.1803293228149414,0.715614378452301,-0.8966663479804993,-0.4350404441356659,0.0919744223356247,1.6034257411956787,0.5208528637886047,-0.2289275974035263,1.1773662567138672,-0.23906587064266205,-2.311631202697754,0.32885101437568665,0.08492742478847504,-0.5133321285247803,0.08548818528652191,1.0373331308364868,-0.45727622509002686,1.4425568580627441,1.8304861783981323,2.3627405166625977,-1.0760287046432495,-1.93267822265625,0.8869589567184448,1.4175324440002441,0.5285773277282715,-0.3346680998802185,0.1372057944536209,0.6515627503395081,-0.743172287940979,0.984093189239502,1.5136706829071045,-0.09949493408203125,1.24924898147583,0.8541253209114075,-0.700882077217102,-1.3800220489501953,1.7375352382659912,-1.4715371131896973,0.6400549411773682,0.02134488709270954,-0.01057153008878231,0.4377351403236389,-0.33624592423439026,1.1968514919281006,-0.08632997423410416,-2.303161859512329,0.20700210332870483,0.12324877828359604,-0.29814407229423523,0.23903653025627136,1.1503046751022339,-0.3613206744194031,1.4836339950561523,2.4189484119415283,2.083932399749756,-1.1161493062973022,-1.8009326457977295,0.7847615480422974,1.2854803800582886,0.4647786319255829,-0.3838733434677124,0.11522945016622543,0.664641261100769,-0.6944423913955688,0.6206567287445068,1.5778355598449707,-0.10324562340974808,1.5797947645187378,0.7802805304527283,-0.8916099667549133,-1.4541724920272827,1.815497875213623,-1.4477996826171875,0.5790379047393799,-0.01235948782414198,0.07663590461015701,0.28054818511009216,-0.24194343388080597,1.272175669670105,0.09266281872987747,-2.4990038871765137,0.30801013112068176,0.11045154184103012,-0.3325648605823517,0.20961342751979828,1.4242455959320068,-0.39458295702934265,1.6303675174713135,2.9239447116851807,1.8334987163543701,-1.8198095560073853,-2.032938003540039,0.8530181646347046,1.6090900897979736,0.41436606645584106,-0.5773043632507324,0.372428297996521,0.616838276386261,-0.5891668200492859,-0.34502848982810974,1.9011279344558716,-0.3447909951210022,1.6887423992156982,0.9049227833747864,-1.4260280132293701,-1.4794358015060425,2.050252914428711,-1.3013590574264526,0.598268449306488,0.10366139560937881,0.0156150097027421,0.16985350847244263,-0.22489771246910095,1.2878663539886475,0.20546777546405792,-2.550506353378296,0.3289002776145935,-0.09824185818433762,-0.3294103741645813,0.2299567312002182,1.527131199836731,-0.35530805587768555,1.7010174989700317,3.208425521850586,2.2496838569641113,-1.431688666343689,-2.2205324172973633,0.6664808988571167,1.8911269903182983,0.40554356575012207,-0.4890987277030945,0.458290696144104,0.6767826080322266,-0.4699688255786896,0.10583733022212982,1.8203544616699219,-0.44216102361679077,1.6660741567611694,0.7390927076339722,-1.3651257753372192,-1.5168389081954956,1.9092942476272583,-1.2721072435379028,0.45754101872444153,0.06094760447740555,0.006454564165323973,-1.1825536489486694,-1.0672332048416138,-0.25216343998908997,-0.28167372941970825,-3.7252137660980225,0.06353218108415604,-0.709786057472229,-1.1952906847000122,-0.8037188649177551,1.28874671459198,-0.11960414052009583,2.6913018226623535,1.1069660186767578,3.8531761169433594,-1.3445258140563965,-1.2976840734481812,0.07302891463041306,0.9815387725830078,0.8889977931976318,-2.3901541233062744,-0.6461586952209473,-0.9529733657836914,-4.506989002227783,0.3158814609050751,2.145034074783325,-1.4468486309051514,1.7943427562713623,0.27853304147720337,0.4041542708873749,-1.6956762075424194,0.5896517038345337,-0.34677648544311523,-0.6721799969673157,0.08445523679256439,1.477849006652832,1.7948501110076904,1.946977138519287,0.6976038217544556,1.363845705986023,-0.09500077366828918,-1.6363245248794556,0.5699037909507751,1.5673381090164185,2.3884270191192627,-0.5603225231170654,-1.2789422273635864,0.8788943886756897,0.2958417236804962,1.6234242916107178,0.6346563100814819,-0.24445469677448273,0.45882418751716614,0.20340044796466827,2.362246036529541,-0.1332690566778183,-0.29916098713874817,0.3008233904838562,-1.5671195983886719,-0.5229736566543579,-0.5148093700408936,-1.7231783866882324,-0.7521094083786011,1.1364796161651611,0.5537207126617432,-1.4699029922485352,0.5288816094398499,-0.4412927031517029,1.7720776796340942,-1.0235133171081543,1.8691208362579346,-0.12856219708919525,0.15926218032836914,-0.5336048603057861,0.1915300339460373,-0.03749369829893112,-0.3855315148830414,0.12333329021930695,0.04795214906334877,0.6846300363540649,-0.013811117969453335,-0.7185333371162415,0.6855900883674622,1.464248538017273,1.9094481468200684,1.028652548789978,-0.07437704503536224,0.3007005453109741,0.23336954414844513,1.0591967105865479,0.11602693796157837,0.8361448645591736,-0.5138250589370728,-1.3775606155395508,-1.2331585884094238,-0.4366818070411682,0.08117129653692245,0.9073837399482727,0.40850508213043213,-0.2984912693500519,-0.19492384791374207,-1.079866886138916,1.5779832601547241,0.8209680318832397,-0.45348161458969116,1.421294093132019,-0.013962933793663979,-0.025589436292648315,0.03894208371639252,0.05099491775035858,-0.05712311342358589,-0.07837773859500885,-0.0023853222373872995,0.023902636021375656,0.04435649514198303,0.05965980514883995,0.07886537164449692,-0.050668101757764816,-0.026612654328346252,-0.06892146170139313,-0.0703444853425026,-0.06623557955026627,0.018155768513679504,0.031471677124500275,0.026926202699542046,-0.006657501682639122,-0.03051108866930008,-0.03742879256606102,0.03749246522784233,0.03533274680376053,0.030559903010725975,0.022285079583525658,-0.016030898317694664,0.019707228988409042,-0.0059949131682515144,-0.009440196678042412,0.0063192714005708694,-0.0490812212228775,0.01380748488008976,0.0064772688783705235,0.013511452823877335]},"hiddenLayers":[{"inputMatrix":{"rows":20,"columns":35,"weights":[0.3315425217151642,0.015165194869041443,-0.06788976490497589,0.44869619607925415,0.06059159338474274,-0.44499093294143677,-0.07811713963747025,0.2981596291065216,0.3313971161842346,-0.2809739410877228,-0.0003301809774711728,0.2870449721813202,-0.010474354960024357,0.08474148064851761,-0.35153505206108093,-0.17397254705429077,-0.030872374773025513,0.18584205210208893,0.29185745120048523,-0.3297770917415619,0.13260401785373688,0.10644896328449249,-0.27797648310661316,0.2479591965675354,0.1435537189245224,-0.6551139950752258,0.31493180990219116,0.351042777299881,0.17790783941745758,-0.3249465823173523,0.30128762125968933,-0.05428894981741905,0.18027614057064056,-0.30866503715515137,0.38482990860939026,0.17498309910297394,-0.05695570260286331,0.0636344701051712,0.10384370386600494,-0.4165773391723633,-0.015788951888680458,0.3013915717601776,0.4122297465801239,0.8261095285415649,-0.584159791469574,-0.1344154179096222,0.09743378311395645,-0.6558008790016174,0.3852786123752594,-0.08583547174930573,0.11596305668354034,-0.049117106944322586,0.12183240056037903,0.5816739201545715,-0.2790135145187378,-0.3599371910095215,0.2524203360080719,-0.36795172095298767,0.4407676160335541,0.3417619466781616,-0.318692147731781,0.4281991720199585,0.24627947807312012,0.6023262739181519,0.18937136232852936,-0.13653039932250977,-0.05844682827591896,0.7908954620361328,-0.6340334415435791,0.06450976431369781,-0.36802804470062256,0.19383244216442108,0.4408521056175232,-0.20606987178325653,-0.1530984789133072,0.10514505207538605,0.207081139087677,-0.15982940793037415,0.9761446714401245,-0.28334662318229675,-0.5568564534187317,0.4181137681007385,-0.2030409723520279,0.9093411564826965,0.05545826256275177,-0.3852884769439697,0.33534812927246094,0.08838395029306412,0.6794900894165039,0.2920549511909485,-0.4641496539115906,0.2144867330789566,-0.32428762316703796,0.06452646106481552,0.34065788984298706,-0.07095909863710403,0.11489935964345932,0.18887853622436523,-0.36008816957473755,-0.3234826624393463,-0.22349552810192108,-0.4615592360496521,0.6509301662445068,-0.650819718837738,0.458463579416275,0.06949587911367416,-0.08628774434328079,0.1734592467546463,0.6283177137374878,0.07993780821561813,-0.5422748327255249,-0.16657547652721405,0.2643309235572815,0.5227593183517456,-0.15385575592517853,0.4827103614807129,0.31748005747795105,-0.29713353514671326,0.21043522655963898,-0.22657407820224762,-0.1535988450050354,0.2908405661582947,-0.371774286031723,0.20692096650600433,-0.10020202398300171,0.08139321953058243,-0.11364646255970001,-0.30810457468032837,0.3136734962463379,0.3989535868167877,-0.2946400046348572,0.776249885559082,0.13235460221767426,-0.22042283415794373,-0.9048296213150024,0.6045494079589844,-0.3526543378829956,0.15102028846740723,-0.1518680453300476,0.5679612755775452,-0.009968282654881477,0.40097883343696594,0.1486378312110901,0.04859258234500885,0.4364088475704193,-0.42630451917648315,0.13606081902980804,-0.5838931798934937,0.5092355012893677,0.03561948239803314,-0.1340589076280594,0.19255302846431732,0.44996821880340576,0.8953070044517517,-0.8305858373641968,-0.19758671522140503,0.268167108297348,0.20556724071502686,0.3972192406654358,-0.5156114101409912,0.130085751414299,-0.055420227348804474,-0.31951630115509033,-0.08713649958372116,0.279762327671051,-0.1301192045211792,0.5594370365142822,-0.12259642034769058,-0.4153454005718231,-0.04342970997095108,0.18258439004421234,0.1101318821310997,-0.03387559950351715,-0.37910184264183044,0.0028474382124841213,1.1604199409484863,0.28340521454811096,0.3444608747959137,0.1504945009946823,0.4592934548854828,-0.36951518058776855,-0.0033298730850219727,0.7342080473899841,0.43382537364959717,-0.5113027095794678,-0.012615305371582508,-0.09171827882528305,-0.9805464148521423,0.015518298372626305,-0.055127307772636414,0.26518240571022034,0.57469642162323,-0.42175841331481934,0.2107890546321869,-0.009169742465019226,0.047089383006095886,0.31342020630836487,0.009961836971342564,1.1324924230575562,-0.08853571861982346,-0.4920361042022705,0.09119471162557602,-0.05671686306595802,0.7000414729118347,0.08416672050952911,0.4460313022136688,-0.014635353349149227,0.8601351380348206,-0.010888504795730114,-0.30214622616767883,0.037282731384038925,-0.2497122585773468,0.3131624758243561,0.16941146552562714,-0.16904446482658386,0.038545552641153336,0.30399206280708313,0.03738994896411896,0.08608630299568176,0.23727728426456451,-0.30764153599739075,0.36312636733055115,0.13190186023712158,0.1383741945028305,0.2142186015844345,-0.6216732859611511,-0.03007308393716812,0.22856640815734863,-0.008447211235761642,-0.012681236490607262,-0.16257914900779724,0.38961219787597656,-0.3482029139995575,-0.15388205647468567,0.2604961097240448,-0.4861011803150177,-0.15541936457157135,0.7624992728233337,-0.19459988176822662,-0.6864364147186279,-0.01101043913513422,-0.4172997772693634,-0.11864084750413895,0.16158029437065125,1.1294045448303223,-0.14615985751152039,0.016560332849621773,-0.12133566290140152,-0.3116917312145233,0.12892499566078186,0.29094138741493225,-0.362846702337265,0.18335449695587158,-0.18031162023544312,0.11016266793012619,0.26769232749938965,-0.15426841378211975,0.06045844405889511,0.10662147402763367,0.2394527792930603,0.36336350440979004,-0.13641080260276794,-0.11066395789384842,-0.20783202350139618,0.1549694687128067,0.18316465616226196,-0.004443646874278784,0.37539142370224,0.006243385374546051,-0.19021457433700562,0.09429050981998444,-0.2116500437259674,-0.4089191257953644,-0.07137472182512283,0.5613166689872742,-0.44479450583457947,0.22435109317302704,-0.07252317667007446,0.4324275553226471,-0.48616066575050354,0.18061360716819763,0.0012238527415320277,-0.08488030731678009,0.27826541662216187,0.2840864062309265,-0.021371200680732727,-0.09471351653337479,0.3473849296569824,0.27086949348449707,-0.43302950263023376,0.029965460300445557,-0.1919366717338562,-0.29668760299682617,-0.45568370819091797,-0.15015286207199097,0.0028657352086156607,-0.021453553810715675,0.06053023785352707,-0.1643849015235901,0.1108640804886818,-0.07704819738864899,0.32605499029159546,0.2944067120552063,0.2896687984466553,-0.12312731891870499,-0.468505322933197,-0.27627408504486084,0.055080607533454895,0.16030460596084595,-0.10271003097295761,0.15850171446800232,-0.03969484567642212,0.33550935983657837,-0.40527641773223877,0.3960592448711395,-0.2755792737007141,0.0299663208425045,0.13556912541389465,-0.19329310953617096,-0.5909721255302429,0.2914392948150635,0.15711748600006104,0.010605674237012863,1.2276036739349365,-0.9370995163917542,-0.2948233485221863,0.12631674110889435,-0.20199574530124664,0.8821946978569031,0.3392520844936371,-0.3040787875652313,-0.06211252138018608,0.5169789791107178,0.8764220476150513,-0.0936741754412651,-0.5656868815422058,0.5231318473815918,-0.5506709814071655,0.1256392002105713,0.3923455774784088,0.18977762758731842,0.23586834967136383,-0.2055254727602005,0.3481312692165375,0.10828883945941925,-0.4298739433288574,-0.5383880734443665,0.6932035088539124,-1.0993521213531494,-0.34538891911506653,-0.12912604212760925,-0.15913227200508118,0.12501953542232513,0.08729103207588196,-0.32122987508773804,0.0500812903046608,0.15264558792114258,0.7060553431510925,0.6889195442199707,-0.4519004225730896,-0.08559025824069977,0.15554524958133698,-0.31751516461372375,0.5064036250114441,0.2118385285139084,-0.21035350859165192,-0.046744875609874725,0.22126953303813934,0.6089591979980469,-0.018220629543066025,-0.24982333183288574,0.3084377646446228,-0.505050539970398,0.2473784238100052,0.17387253046035767,-0.3098563849925995,0.20728443562984467,0.2950966954231262,0.039224959909915924,-0.034662745893001556,-0.30630579590797424,0.043974801898002625,0.7812383770942688,-0.5812979340553284,0.18168050050735474,-0.43342146277427673,0.05045114457607269,-0.3855137825012207,0.49312886595726013,-1.0007237195968628,-0.15594662725925446,-0.1950821876525879,0.06927260756492615,0.398999959230423,-0.41285601258277893,0.38038766384124756,0.38023442029953003,0.36457258462905884,0.42407625913619995,1.00907301902771,0.1803639531135559,-0.3386577367782593,-0.1590915024280548,0.46074026823043823,0.12062004953622818,-0.43349534273147583,-0.14468853175640106,-0.28250768780708313,-0.803843080997467,-0.04752659797668457,1.28154718875885,0.1210545226931572,-0.4472837448120117,-0.43199092149734497,-0.46488285064697266,0.07892297208309174,-0.3675442039966583,-0.4124132990837097,-0.48689037561416626,-0.2094961702823639,-0.22836731374263763,-0.4411829710006714,-0.8412742614746094,-0.061666056513786316,0.03981572017073631,0.3834672272205353,-0.2226891666650772,0.1095791757106781,0.47108596563339233,-0.26631757616996765,0.10969792306423187,0.030078638345003128,0.2625788152217865,0.5919913053512573,0.7731279134750366,0.12685571610927582,-0.9476208686828613,-0.5485992431640625,0.6799417734146118,-0.2934870421886444,0.30547064542770386,-0.4572104811668396,-0.4353795051574707,-0.5224683284759521,-0.6342185735702515,0.012307976372539997,-0.33512845635414124,0.3004058301448822,-0.051814448088407516,-0.01662560924887657,-0.6630614995956421,0.24162094295024872,-0.07581544667482376,-0.4262925386428833,0.18708904087543488,0.34422165155410767,0.27951452136039734,0.08932225406169891,0.9978278875350952,-0.5988049507141113,-0.78376704454422,0.19653302431106567,0.05222738906741142,-0.597000777721405,0.778630793094635,-0.15120162069797516,0.7348408102989197,0.6989411115646362,0.8979238271713257,-0.6266743540763855,-0.6066251993179321,0.047051191329956055,0.12325868010520935,0.06162774935364723,-1.0258914232254028,0.3157387375831604,-0.0856136828660965,-0.7281230092048645,-0.6461702585220337,0.6804655194282532,-0.011542494408786297,0.9008864164352417,0.12015584111213684,-0.02086762897670269,-0.9881073236465454,0.2759581506252289,-0.10959047824144363,-0.7650730013847351,0.6036286354064941,0.41535091400146484,0.6135944128036499,0.6103295087814331,-0.04821071773767471,0.7017423510551453,-0.365631103515625,-0.5591365098953247,-0.07059615850448608,0.14154337346553802,0.16015149652957916,-0.1484985053539276,-0.09331835061311722,0.29644399881362915,0.12872572243213654,0.45062142610549927,0.14086595177650452,0.1482040137052536,0.04294995963573456,0.17617525160312653,0.46744441986083984,-0.25064587593078613,0.06922932714223862,0.43608561158180237,-0.20389409363269806,-0.1598304659128189,0.06765250116586685,0.0677451640367508,0.09107284247875214,-0.14420951902866364,0.38275715708732605,-0.38116422295570374,0.5621277093887329,-0.08093449473381042,-0.1718500405550003,-0.24525071680545807,0.025046879425644875,1.1303733587265015,0.49407336115837097,-0.4148104786872864,0.21590280532836914,0.5489194989204407,-0.5658478736877441,-0.44888418912887573,0.45795291662216187,0.6587671637535095,0.39384448528289795,0.38512638211250305,-0.012289352715015411,0.09326239675283432,0.37147918343544006,-0.35921478271484375,0.3350332975387573,-0.1398608237504959,-0.12238834798336029,0.4646211564540863,-0.22991876304149628,0.8592340350151062,-0.07161232829093933,-0.20850738883018494,0.1794584095478058,-0.6745785474777222,-0.7059741020202637,-0.3778509199619293,-0.28536245226860046,0.40260934829711914,0.0634283646941185,0.406217485666275,0.5962132811546326,0.12242251634597778,0.47661092877388,-0.1506410837173462,0.501927375793457,0.28758880496025085,0.6080392003059387,0.7041341066360474,0.022134196013212204,-0.5503422617912292,0.005882438737899065,0.6286174654960632,0.5392962098121643,-0.03717520833015442,0.043955639004707336,0.33517229557037354,-0.4777505397796631,0.21497869491577148,-0.33232566714286804,-0.11231143027544022,0.4740215241909027,-0.08422767370939255,0.4797847270965576,-0.13788531720638275,-0.005539707373827696,0.6897268295288086,-0.38219770789146423,0.6638074517250061,0.47792428731918335,-0.7303014397621155,0.5082282423973083,0.007459329906851053,0.3241344094276428,-0.6082291007041931,0.4650808870792389,-0.28735464811325073,0.6125969290733337,-0.09039614349603653,0.2442898005247116,0.8025538921356201,0.23856639862060547,0.40918731689453125,0.1945948302745819,0.07779192179441452,-0.235268235206604,-0.4681183993816376,0.3632619082927704,-0.05281640961766243,0.03777384012937546,0.12643903493881226,0.12143325060606003,-0.5096445679664612,-0.03176327422261238,-0.05718105658888817,0.20214377343654633,0.2957780361175537,-0.36083129048347473,0.15624281764030457,-0.4937722086906433,0.15429525077342987,0.44509178400039673,-0.04688388854265213,0.7852323651313782,0.05425868555903435,-0.6808274388313293,0.3337991535663605,-0.4387170374393463,0.321576327085495,-0.16438890993595123,0.24255867302417755,-0.24698086082935333,-0.024410737678408623,0.4159204065799713,-0.2722373306751251,0.5772497057914734,0.2140861600637436,0.38569730520248413,0.3401799201965332,0.05304696410894394,-0.3819815516471863,-0.022998416796326637,0.46798011660575867,0.3433765769004822,-0.4284076690673828,-0.006421271245926619,0.20157043635845184,-0.6147375702857971,0.05444793030619621,0.2016238272190094,-0.29671889543533325,0.36681661009788513,0.15859629213809967,0.3552573025226593,-0.09055422246456146,-0.35101455450057983,0.6567131280899048,-0.2241220772266388,0.6940921545028687,0.38385799527168274,-0.47520118951797485,0.3167393207550049,-0.05676710605621338,0.4336352050304413,-0.231720969080925,0.1955285221338272,-0.3890150487422943,0.458003968000412,-0.17502270638942719,-0.07794829457998276,-0.24730493128299713,0.22102074325084686,0.019261760637164116,0.034275081008672714,0.24841631948947906,-0.05124877393245697,-0.03498368710279465,-0.29399824142456055,0.38849937915802,0.21728593111038208,-0.2434876263141632,0.19792591035366058,0.4043414890766144,0.40345335006713867,0.2345447540283203,-0.2198472023010254,-0.10245980322360992,-0.42040351033210754,0.35124415159225464,0.18538160622119904,0.17028585076332092,-0.20888005197048187,-0.3919591009616852,-0.46789470314979553,-0.13231799006462097,-0.09555573016405106,-0.21308891475200653,0.1687406748533249,-0.4538915753364563,-0.3422706425189972,-0.272019624710083,0.11857759207487106,-0.011214395053684711,0.21383388340473175,0.40696293115615845]},"inputHidden":{"rows":20,"columns":20,"weights":[0.3235726058483124,-0.4866269528865814,-0.36544227600097656,0.04951461777091026,-0.4636094570159912,-0.017853036522865295,0.31864580512046814,-0.5933383107185364,0.5331060886383057,0.11468072235584259,-0.23605354130268097,-0.26980018615722656,-0.09970370680093765,0.0692470446228981,-0.21797508001327515,-0.3737015426158905,-0.1332634538412094,0.3317650556564331,-0.3544611930847168,-0.7549088001251221,0.3540499210357666,0.7823024988174438,-0.9935671091079712,0.0398314967751503,-0.522502064704895,0.09276930242776871,-0.8159610629081726,-0.2964029312133789,-0.1050325557589531,1.058132529258728,0.35485073924064636,-0.13195322453975677,0.8491755723953247,-0.9936008453369141,-0.0865909680724144,-0.2770498991012573,-0.11747335642576218,0.5109977722167969,-0.22026973962783813,-0.103048175573349,0.20805972814559937,0.3238903880119324,-0.644777774810791,0.13887283205986023,-0.3938908278942108,0.023275082930922508,-0.7599352598190308,-0.33957788348197937,0.14573901891708374,0.6944929361343384,0.5102364420890808,-0.378255695104599,0.3187088072299957,-0.17459842562675476,-0.2468566745519638,-0.2144947499036789,-0.0752565786242485,0.2656794488430023,-0.05215603858232498,-0.11317414790391922,0.7059084177017212,0.10898882895708084,-0.9943085312843323,0.11023514717817307,-0.631253719329834,0.4747788906097412,-0.1984890103340149,-0.4316723644733429,0.8101496696472168,0.6759623885154724,0.17561739683151245,0.11021104454994202,0.7901113629341125,-0.699597179889679,0.4802633225917816,-0.2951413094997406,-0.35104644298553467,0.18368268013000488,-0.7563256025314331,-0.16149941086769104,0.5229296684265137,0.25680941343307495,-0.19941237568855286,0.1231682151556015,0.054734181612730026,-0.22490857541561127,-0.7404488325119019,-0.5764479637145996,0.31053468585014343,0.719996452331543,0.44499537348747253,-0.6912965178489685,-0.24079829454421997,-0.5128778219223022,-0.3959231972694397,-0.5316250920295715,-0.17432691156864166,0.13118726015090942,-0.022485017776489258,-0.1803549975156784,0.2402077466249466,0.14147044718265533,-0.9388787150382996,0.13979265093803406,-0.408447265625,-0.43620771169662476,0.18072782456874847,-0.5227253437042236,0.4462023079395294,0.4500485062599182,-0.13714371621608734,-0.44567015767097473,-0.14303235709667206,-0.8045218586921692,-0.0335877388715744,-0.6199724078178406,-0.2511810064315796,0.0687449499964714,-0.22587712109088898,-0.3666716516017914,0.450284868478775,-0.17562232911586761,-0.10340039432048798,0.25202152132987976,-0.2678125202655792,-0.525824785232544,-0.2234215885400772,-0.23978491127490997,0.6376917958259583,-0.12876951694488525,-0.34258517622947693,-0.36579060554504395,-0.37941452860832214,-0.7928040623664856,-0.4237157702445984,-0.5211647152900696,-0.20508894324302673,0.4618527889251709,-0.35767149925231934,-0.249883770942688,0.6797360777854919,0.7404659390449524,-0.7202113270759583,0.20848116278648376,-0.498922199010849,-0.4702140688896179,-0.19862505793571472,-0.14589092135429382,0.6212972402572632,1.235713243484497,0.9438058137893677,-1.0588176250457764,0.018531963229179382,-0.962128221988678,-0.19729185104370117,-0.9499810934066772,-0.38270413875579834,0.5156958103179932,-0.26771780848503113,-0.046194180846214294,0.3855207562446594,0.5437977313995361,-0.37015730142593384,0.31769996881484985,-0.5897634029388428,-0.7393977046012878,-0.05731697380542755,-0.7215032577514648,0.5344085693359375,0.6552413105964661,0.31280288100242615,-0.42787298560142517,0.07889436185359955,-0.0696074590086937,-0.4912869334220886,-1.0303221940994263,-0.5568276047706604,0.3520425260066986,-0.38289758563041687,-0.716900110244751,0.094764843583107,0.2929634153842926,-0.7497076988220215,0.1156279519200325,-0.5496174097061157,-0.1593853235244751,-0.7346818447113037,-0.6446029543876648,0.00784744881093502,0.807537853717804,0.434872567653656,-0.24662260711193085,-0.09426918625831604,-0.4761424958705902,-0.006305942311882973,-0.22214563190937042,-0.08593939244747162,0.4848662316799164,-0.11279047280550003,-0.25773072242736816,0.8420685529708862,0.04729706048965454,-0.4422861337661743,0.5728718638420105,-0.36827337741851807,-0.7496581077575684,-0.2998898923397064,-0.690456748008728,0.4794468283653259,0.24844379723072052,0.3383726477622986,-0.7959678769111633,0.061349157243967056,-0.0643513947725296,-0.7596397995948792,-1.0733448266983032,-0.7333033084869385,1.1658436059951782,-0.7367354035377502,-0.7981029748916626,0.3602498769760132,0.24528765678405762,-0.5784448385238647,0.07953266054391861,-0.3144204020500183,0.1594225913286209,-0.2736179828643799,-0.6482362151145935,0.36059871315956116,0.49366748332977295,0.152106374502182,0.2770256996154785,0.7804877758026123,-1.1603739261627197,-0.05102591589093208,-0.07900126278400421,-0.2790791094303131,-0.36350539326667786,-0.30723100900650024,-0.12972800433635712,0.6313031315803528,-0.21149811148643494,-1.0390287637710571,0.44486963748931885,-0.6153177618980408,0.05280381813645363,-0.05521339923143387,-0.24694369733333588,0.37161973118782043,0.4047960340976715,-0.262080579996109,-0.20954860746860504,0.27501875162124634,-0.28900787234306335,-0.060907814651727676,-0.4125412404537201,-0.3792577087879181,0.4768596589565277,-0.7259730696678162,-0.448652446269989,-0.32273441553115845,0.6589670777320862,-0.6585180759429932,-0.34779930114746094,-0.8562619686126709,0.1619497537612915,-0.8790229558944702,-1.406577467918396,-0.5099040865898132,0.9866152405738831,1.156726598739624,0.10286492854356766,0.3759396970272064,-1.2326152324676514,0.3105558156967163,-0.029062801972031593,-0.10432750731706619,-0.020467299968004227,0.06265722960233688,-0.33750274777412415,0.44462287425994873,0.10043656826019287,0.2029280960559845,0.413036972284317,-0.09730079025030136,-0.5780906677246094,-0.32628801465034485,-0.397824227809906,0.6359288096427917,0.28717973828315735,0.28106406331062317,-0.13138428330421448,-0.3823429346084595,-0.3876042366027832,-0.3251997232437134,-0.8161885738372803,-0.3791012465953827,0.15280181169509888,-0.11441434919834137,-0.34110453724861145,-0.07266153395175934,0.004257924854755402,-0.5759032964706421,-0.12055481970310211,-0.28261980414390564,-0.6701400876045227,-0.0946250632405281,-0.23226824402809143,0.584675669670105,0.07617054134607315,-0.6077184677124023,-0.30576515197753906,-0.08703779429197311,-0.26223260164260864,0.045120060443878174,-0.8196753263473511,0.1449204832315445,0.37808215618133545,0.27058640122413635,-0.44667163491249084,0.275704026222229,-0.08720952272415161,-0.5753916501998901,-0.007950172759592533,-0.19276537001132965,0.08189811557531357,0.31281816959381104,-0.5102546811103821,0.634280264377594,0.36235466599464417,0.3630710542201996,0.09166716784238815,0.5971372723579407,-0.5040172934532166,0.08749556541442871,-0.04900369048118591,-0.3061504065990448,-0.11032582074403763,-0.2902032434940338,-0.32818496227264404,0.9280494451522827,0.14630547165870667,-1.0171936750411987,0.09430675208568573,-0.08562136441469193,0.06333978474140167,0.6034900546073914,-0.31516945362091064,0.1958867907524109,0.6394332051277161,0.2480526715517044,-0.2220948040485382,0.7666380405426025,0.18852093815803528,-0.6156023740768433,-0.4840489625930786,-0.31704190373420715,0.7690272927284241,-0.640649676322937,-0.881062924861908,0.693449854850769,-0.1530030369758606,-0.1818479746580124,0.29944488406181335,-0.3721206486225128,-0.5507769584655762,-0.03085785172879696,-0.34061363339424133,0.8536608219146729,0.2864960730075836,0.18933232128620148,-0.22920142114162445,0.17172662913799286,-0.8793118596076965,-0.04675644636154175,-0.40732815861701965,-0.7375240325927734,0.4781254529953003,-0.3893609642982483,-0.4922073185443878,0.2593652606010437,-0.3705526888370514,0.08385244756937027,0.004032745957374573,0.2859332859516144,0.09079405665397644,0.7485213875770569,-0.2079242318868637,0.0019128458807244897,-0.19587720930576324,-0.588066816329956,-0.15932027995586395,-0.18869587779045105,0.09184335917234421,-0.9304497241973877,-0.11554580926895142,-0.6707853674888611,0.08991559594869614,-0.5080989003181458,-1.2155077457427979]},"inputBias":{"rows":20,"columns":1,"weights":[0.3135235905647278,0.2937718331813812,0.6996914744377136,0.4345029592514038,0.32087036967277527,0.23947176337242126,0.7241520881652832,0.6313979625701904,0.02877299301326275,0.46741783618927,0.3172191083431244,0.16657748818397522,-0.2339002937078476,-0.13089099526405334,-0.350922167301178,0.3471967875957489,0.4497728645801544,0.16954582929611206,0.31210896372795105,0.6640524864196777]},"forgetMatrix":{"rows":20,"columns":35,"weights":[0.10201205313205719,0.44315165281295776,-0.013886273838579655,-0.010908407159149647,0.065254345536232,-0.4194238781929016,0.06325899809598923,-0.32066404819488525,0.03462767228484154,0.07949772477149963,-0.09804356098175049,0.1900484561920166,0.030527306720614433,0.3056485652923584,-0.021176183596253395,-0.09768083691596985,-0.060459841042757034,-0.04207378253340721,0.4082515239715576,-0.2738467752933502,0.10492163151502609,0.07149015367031097,-0.20789961516857147,0.06569854170084,-0.03452974185347557,0.07844841480255127,-0.04069680720567703,0.049232982099056244,0.17145775258541107,0.15845654904842377,-0.31305834650993347,0.25592654943466187,-0.4716087877750397,0.041893329471349716,-0.0810641497373581,0.5273815989494324,0.16314269602298737,0.20805925130844116,0.09335168451070786,0.6669119000434875,-0.24720758199691772,-0.19411219656467438,-0.21685892343521118,-0.23212948441505432,0.9984206557273865,0.12434450536966324,-0.27373653650283813,0.012231781147420406,-0.2855585217475891,-1.0366272926330566,0.5709158182144165,0.40346360206604004,-0.1055847778916359,-0.32791128754615784,0.07738282531499863,0.77547687292099,-0.03223796933889389,0.4168430268764496,0.09460937231779099,-0.23102444410324097,-0.29051488637924194,-0.32330891489982605,-0.34557482600212097,-0.18954434990882874,0.028750063851475716,0.8952481746673584,0.18725913763046265,-0.8415042161941528,1.1968715190887451,-0.25162363052368164,-0.05207124352455139,-0.4327942430973053,-0.14452506601810455,-0.8433049321174622,-0.45467761158943176,0.932873547077179,-0.512966513633728,0.24428687989711761,-0.4824877679347992,-0.6843587756156921,0.7701545357704163,-1.006217360496521,-1.1360225677490234,-1.1824781894683838,0.29448217153549194,1.0587317943572998,-0.09809365123510361,-0.13083574175834656,-0.9004058241844177,0.2869643568992615,-0.34504103660583496,-0.023130638524889946,0.5347663164138794,0.852586567401886,-0.3870466947555542,0.137528657913208,-0.09707368910312653,-0.36883872747421265,0.8518649339675903,1.3586748838424683,-0.059154946357011795,-0.03696466609835625,0.4643820822238922,0.5201212763786316,-1.1817779541015625,0.2690282166004181,-0.10114423930644989,0.5534180998802185,-0.025180276483297348,0.05419946834445,0.08659082651138306,-0.23639798164367676,-0.036242883652448654,-0.21505022048950195,-0.06488917022943497,0.41968655586242676,-0.3629210889339447,-0.31730473041534424,-0.3704240918159485,-0.19025973975658417,0.22416256368160248,0.30071747303009033,0.195618137717247,-0.30585619807243347,-0.33650100231170654,-0.3043355345726013,0.5737177133560181,0.34029915928840637,0.46250903606414795,0.33254274725914,-0.25771358609199524,-0.1361791491508484,-0.3155352771282196,0.1905956268310547,0.16982156038284302,0.4224606454372406,-0.6044766902923584,-0.3911723792552948,0.12566867470741272,-0.09171011298894882,0.15276311337947845,-0.19264061748981476,0.17523713409900665,-0.2538323402404785,-0.19148337841033936,0.5115377902984619,-0.2875274419784546,0.08422229439020157,-0.5412049889564514,-0.952045738697052,0.5125676393508911,-0.6494131684303284,-1.0262521505355835,-1.1613696813583374,0.4046475291252136,0.6502257585525513,0.1176786795258522,0.09428180754184723,-0.6900644898414612,-0.00020827197295147926,-0.8328031897544861,0.5304421186447144,0.4496293365955353,0.6229952573776245,0.12982766330242157,0.11666320264339447,0.12660172581672668,-0.47276726365089417,0.952178955078125,0.5056467652320862,0.16648419201374054,-0.7503276467323303,0.42939621210098267,0.07329857349395752,-0.9400354027748108,-0.48151400685310364,0.05325765162706375,-0.09052669256925583,-0.03695639967918396,-0.2787708640098572,0.1167847290635109,-0.043297041207551956,-0.04442998021841049,0.8808517456054688,-0.4479086697101593,-0.09175389260053635,0.2597660720348358,0.17707298696041107,0.7841241359710693,0.08025288581848145,-0.0714639276266098,-0.28135573863983154,0.08135274797677994,0.6372859477996826,0.3619276285171509,0.0021288450807332993,-0.10142067819833755,-0.4672453999519348,-0.20897851884365082,-0.07975774258375168,-0.09425316005945206,-0.00298256054520607,0.2915423810482025,-0.5618155002593994,-0.21100954711437225,0.063165582716465,0.021690836176276207,0.7222918272018433,-0.7602861523628235,0.45730021595954895,-0.6393692493438721,-0.23089799284934998,-0.02643783576786518,-0.17443735897541046,0.38481512665748596,0.19027213752269745,-0.06544851511716843,-0.638732373714447,-0.6783633828163147,-0.5469778180122375,0.0838325247168541,0.16786187887191772,0.2845785915851593,-0.4798438251018524,0.4178693890571594,-0.06979610025882721,0.2467334270477295,0.44727078080177307,-0.5677302479743958,0.0537077821791172,-0.5958144068717957,0.05297046899795532,0.1418457180261612,-0.39886513352394104,0.1455468386411667,0.17012712359428406,0.2593294382095337,-0.18543727695941925,-0.2833445370197296,0.02247157320380211,-0.4153955280780792,-0.21837209165096283,-0.09373200684785843,-0.7492097020149231,-0.037716448307037354,-0.39702072739601135,-0.4248569905757904,-0.4178507626056671,-0.26303935050964355,0.2556972801685333,0.28479692339897156,-0.1929711252450943,-0.28627705574035645,0.03452714905142784,0.11253182590007782,-0.22596772015094757,-0.2346556931734085,0.016651764512062073,-0.19746015965938568,0.12086077034473419,-0.21511490643024445,0.03534052148461342,-0.396090567111969,-0.3908572196960449,0.5611122250556946,0.23137851059436798,-0.5133867263793945,0.40333786606788635,0.022628875449299812,-0.33560696244239807,0.035023100674152374,-0.2508731484413147,0.17150436341762543,0.02620301954448223,-0.3317644000053406,0.3901897668838501,0.06330199539661407,0.1938706636428833,-0.19451263546943665,0.5576209425926208,-0.059713203459978104,0.21323692798614502,-0.029564419761300087,0.21645067632198334,0.2090560495853424,-0.5012808442115784,0.3648788034915924,-0.295494943857193,0.3077391982078552,0.12969006597995758,-0.2857010066509247,0.4011530578136444,0.3848060071468353,0.2873302102088928,0.2542575001716614,-0.31573742628097534,-0.14830312132835388,-0.12629877030849457,0.7119472622871399,0.18611006438732147,0.14183972775936127,-0.27620553970336914,-0.23660145699977875,-0.37959641218185425,-0.027111535891890526,0.13121530413627625,-0.12356670200824738,0.4597226083278656,-0.2840392291545868,-0.16484634578227997,-0.3508090078830719,0.386213481426239,-0.32319873571395874,-0.3719281554222107,0.33383044600486755,0.14829684793949127,-0.05604376643896103,-0.3084662854671478,-0.3369997441768646,1.1299757957458496,0.21644863486289978,-0.5878962874412537,-0.4576459527015686,-0.07650260627269745,0.9799222350120544,0.5583323836326599,-0.7212438583374023,-0.08789676427841187,-0.34506577253341675,-0.6474470496177673,0.8410339951515198,-0.1845305860042572,-0.8719475865364075,-0.3802771270275116,-0.2009311318397522,0.8840991854667664,-0.7179941534996033,0.5098112225532532,0.23209796845912933,-0.7626848220825195,-0.4399526119232178,-0.38172340393066406,-0.32964661717414856,-0.3058529496192932,0.48634013533592224,0.1159699484705925,0.7301296591758728,-1.0292881727218628,1.165575385093689,-0.27085036039352417,0.6829923391342163,0.08765165507793427,0.1594649702310562,0.5277376174926758,0.4422851800918579,-0.4713866412639618,0.3887031376361847,-0.1863153874874115,-0.4565315842628479,0.8481562733650208,-0.04789632931351662,0.26247039437294006,0.29810959100723267,-0.3238835036754608,-0.5306755900382996,-0.31910595297813416,0.3742678463459015,0.27456408739089966,-0.3716181218624115,0.012059825472533703,0.6937981247901917,0.004867777228355408,0.30933406949043274,-0.023887136951088905,0.14557062089443207,0.07264041900634766,-0.31560346484184265,-0.05010129511356354,-0.046221066266298294,-0.38577428460121155,0.5290719270706177,0.07871135324239731,-0.7633426189422607,0.628616452217102,0.10331568121910095,0.3426937460899353,0.32519441843032837,-0.0413736067712307,0.370094358921051,-0.46973732113838196,-0.4200601875782013,-0.5109662413597107,0.16755367815494537,-0.09533192217350006,-0.19804681837558746,0.5723109841346741,-0.14153821766376495,-0.4682854413986206,-0.17939968407154083,0.15088187158107758,0.37879589200019836,-0.10270626842975616,-0.3970257341861725,-0.05759697034955025,-0.10452763736248016,-0.15166330337524414,-0.12808439135551453,0.2057299017906189,0.11127816885709763,0.02646912820637226,0.5659279227256775,0.41132673621177673,-0.6017517447471619,0.0025252464693039656,-0.15829156339168549,0.40826040506362915,-0.4479779303073883,-0.329933762550354,0.34900039434432983,-0.7349313497543335,0.5172218680381775,-0.26290643215179443,0.10952633619308472,0.392703652381897,-0.09906908869743347,-0.38262420892715454,0.10053795576095581,-0.08880098164081573,-0.7577989101409912,0.7720735669136047,0.18349792063236237,-0.10776466876268387,0.11792542785406113,-0.539842963218689,-0.1620422601699829,-0.07302293926477432,0.199305921792984,0.3439837694168091,-0.8684391975402832,0.27095597982406616,0.15434254705905914,0.006759889889508486,0.8948045969009399,-0.15140502154827118,-0.06035643443465233,0.2992181181907654,-0.40385109186172485,0.0015805105213075876,0.0424809530377388,-0.4288817048072815,1.0714523792266846,-0.16227827966213226,-0.8957016468048096,0.6597976684570312,-0.02121089957654476,-1.0195645093917847,-0.5791156888008118,-0.7430635690689087,-0.9822395443916321,1.3664464950561523,0.8393392562866211,-0.2824179232120514,-1.0959683656692505,-0.15413424372673035,-0.600730836391449,0.14306406676769257,-0.19033855199813843,0.5573268532752991,-0.4694032073020935,1.3065147399902344,0.0419384203851223,-0.5790390372276306,0.0007855416624806821,-0.4821171164512634,0.6013027429580688,-0.8476043343544006,-0.03945791348814964,0.6877623796463013,-1.0173498392105103,-0.4027419090270996,0.7987076044082642,-0.8910199403762817,-0.09746053814888,-0.7651150226593018,0.43916627764701843,-1.035452127456665,-0.20160290598869324,-1.303269624710083,-1.171262264251709,-0.177054300904274,0.5913991928100586,0.073703333735466,0.2697954773902893,0.2039479911327362,0.34669843316078186,-0.17770205438137054,-0.3168938159942627,0.31257665157318115,-0.7452248930931091,-0.03596493601799011,0.5697445273399353,-0.378589928150177,-0.9152001738548279,-0.7638107538223267,-1.1063796281814575,0.5416476130485535,0.14678095281124115,-0.15121249854564667,-0.6905127167701721,-0.8689742684364319,0.18408384919166565,0.25165998935699463,0.0656772255897522,0.9152083992958069,0.44027602672576904,-0.5710728764533997,0.7522616982460022,-0.41872578859329224,0.491618812084198,0.1888762265443802,0.2768215537071228,-0.1796143651008606,-0.29092177748680115,0.8844127655029297,-0.32789430022239685,-0.6336140632629395,-0.0008972430950962007,0.1676090955734253,-0.055425018072128296,-0.35253262519836426,0.1685091108083725,0.10970466583967209,-0.04665199667215347,0.057832565158605576,-0.7888433337211609,-0.19924362003803253,0.37092679738998413,0.1936178207397461,0.6399657130241394,0.6752467751502991,-0.4845410883426666,0.1551055610179901,0.2937536835670471,0.4483984112739563,0.10478024929761887,-0.7483887076377869,0.30540457367897034,-0.1931198239326477,-0.4766530394554138,0.2808186411857605,0.565247654914856,0.28374677896499634,0.30727875232696533,-0.2642514407634735,-0.21942780911922455,-0.48881104588508606,-0.6637736558914185,0.1573110967874527,-1.0451680421829224,0.11971607059240341,0.3649083375930786,0.12684600055217743,0.38910266757011414,-0.15687306225299835,0.28796446323394775,-0.20779909193515778,-0.09347371011972427,0.27711427211761475,0.009495489299297333,0.22038543224334717,-0.09961938112974167,-0.09801246225833893,-0.27063560485839844,0.21420934796333313,-0.3423367440700531,0.2413041889667511,0.44057488441467285,-0.0695432797074318,-0.009708077646791935,-0.12329190969467163,0.3046610355377197,0.16833598911762238,0.06796152144670486,0.4794303774833679,-0.09601089358329773,-0.5410868525505066,-0.153438538312912,0.12285267561674118,0.22480107843875885,0.22896505892276764,0.024308787658810616,0.26211273670196533,-0.02145869843661785,0.46489712595939636,0.06884893029928207,-0.3987392485141754,0.053918857127428055,0.1956559270620346,0.01612585037946701,-0.2975750267505646,0.1994505077600479,0.27479565143585205,0.09354688227176666,-0.03063933365046978,-0.42481088638305664,-0.13017387688159943,0.5154269933700562,0.19950488209724426,0.5478399395942688,0.1088295504450798,-0.7012028694152832,-0.13305751979351044,0.08709689974784851,0.4612923264503479,-0.6090136766433716,-0.23175480961799622,0.3569611608982086,-0.6638981699943542,-0.16738593578338623,0.6232489943504333,-0.2164677530527115,0.8715982437133789,0.7459418773651123,-0.24490462243556976,-0.13576120138168335,-0.8606266975402832,-0.03873509168624878,-0.01808616891503334,-0.3751833736896515,0.4372217655181885,0.36353930830955505,-0.1992505043745041,0.18001340329647064,0.1369699239730835,0.28106489777565,-0.1735769659280777,0.39694347977638245,0.010406349785625935,-0.19803956151008606,0.34641599655151367,0.14862878620624542,0.017429959028959274,0.031467217952013016,-0.34976500272750854,0.14454977214336395,-0.4139598309993744,0.18180249631404877,0.17442259192466736,-0.13459466397762299,-0.09432873129844666,0.06885961443185806,0.12909913063049316,0.21886533498764038,0.1620248407125473,0.04226471483707428,-0.09720668196678162,-0.07972147315740585,0.3451857566833496,0.34218552708625793,0.0007979489164426923,-0.04463087022304535,0.17331066727638245,-0.5670926570892334,0.040125906467437744,0.05758820101618767,-0.3210996687412262,-0.40178343653678894,0.3238564729690552,-0.586342990398407,-0.35257118940353394,0.4881459176540375,-0.33525702357292175,-0.23525995016098022,-1.2074191570281982,-0.1314486712217331,0.038993943482637405,-0.2910430133342743,-0.2473631650209427,-0.3220873475074768,-0.07093656808137894,0.08568011969327927,0.3865911662578583,0.18332038819789886,-0.5788315534591675,-0.4994741678237915,-0.36894679069519043,0.16576743125915527,-0.016241077333688736,0.628307580947876,0.31515973806381226,-0.04352540895342827,0.6179304718971252,-0.1601666659116745,0.7097696661949158,0.40679022669792175,0.05140180513262749,-0.3909860849380493,0.0952087864279747,0.438960462808609,-0.2300279140472412]},"forgetHidden":{"rows":20,"columns":20,"weights":[0.4937693476676941,-0.33327189087867737,0.20901761949062347,0.28984636068344116,-0.2669556736946106,-0.4744783341884613,0.042915236204862595,-0.564231276512146,0.40110522508621216,0.3134901821613312,-0.22679243981838226,0.04326499253511429,-0.43857699632644653,0.11144010722637177,-0.12873686850070953,-0.3938024342060089,-0.4243813753128052,0.3930724561214447,-0.37593504786491394,-0.3329785168170929,-0.04889751225709915,-0.18358467519283295,0.5492656826972961,0.010737459175288677,-0.14948345720767975,-0.1080164760351181,0.49845367670059204,0.46026450395584106,-0.0332023948431015,-0.2806657552719116,-0.38539159297943115,-0.2554844617843628,-0.5896908640861511,0.19268698990345,-0.19876649975776672,-0.1457969695329666,0.04761044681072235,0.08834861218929291,0.029467858374118805,0.2544531226158142,-0.038448456674814224,-0.08360683172941208,0.04870164766907692,-0.08315060287714005,0.323994904756546,0.5529255867004395,0.9768926501274109,0.46786585450172424,-0.365435391664505,-0.1386079639196396,-0.17659184336662292,0.23449954390525818,-0.1152888759970665,0.24161352217197418,0.2786462903022766,0.5989137887954712,0.20631015300750732,-0.34361034631729126,0.16452032327651978,0.07423803210258484,-0.00799738522619009,-0.18468432128429413,0.16867324709892273,0.3988295793533325,-0.23594671487808228,-0.30319294333457947,0.23332595825195312,0.13562287390232086,0.04272979497909546,0.11153155565261841,-0.04787667468190193,-0.1522873044013977,-0.24298085272312164,-0.284800261259079,-0.34767410159111023,0.15249674022197723,-0.16185840964317322,-0.21492378413677216,-0.07074206322431564,-0.04278193786740303,-0.04973052814602852,-0.2316281497478485,0.6046769618988037,0.216982901096344,0.11315833777189255,-0.10109933465719223,0.9673305749893188,0.3200992941856384,0.1497354805469513,-0.6101139783859253,-0.41159018874168396,0.258746862411499,-0.20386427640914917,0.27480390667915344,-0.15395306050777435,-0.0794597640633583,-0.07251822203397751,0.09207091480493546,-0.07715577632188797,-0.12610454857349396,0.08034931868314743,0.0854412317276001,0.16992291808128357,0.010085069574415684,-0.6779369115829468,-0.05273301899433136,-0.2755260765552521,0.4822782576084137,0.14025238156318665,-0.03348436951637268,0.3683639466762543,0.028695663437247276,0.16554658114910126,-0.4596949815750122,0.1155468076467514,-0.03456590697169304,0.03575051203370094,0.01678045094013214,-0.06890963762998581,0.2617132365703583,0.0018883729353547096,-0.07743565738201141,-0.1251591145992279,0.1298510730266571,0.21201100945472717,-0.39393743872642517,-0.2615970969200134,0.14902880787849426,0.18827050924301147,-0.1317935436964035,-0.2605849802494049,-0.06872875243425369,0.2654631435871124,-0.3466453552246094,0.06941162049770355,-0.17196811735630035,-0.11942185461521149,0.09871993958950043,0.031001532450318336,0.48069262504577637,-0.07235251367092133,-0.7811950445175171,0.4591235816478729,-0.08263339847326279,-0.0860351100564003,-0.015918929129838943,0.6819762587547302,0.15038229525089264,0.2450166940689087,-0.8850524425506592,-0.9172612428665161,-0.1825329065322876,-0.419592022895813,0.33009088039398193,-0.7045378088951111,0.26548802852630615,0.17082339525222778,-0.4506247937679291,-0.06349442899227142,-0.24029402434825897,0.39040184020996094,-0.321571946144104,-0.0879010334610939,-0.015414546243846416,-0.4661143720149994,0.013850857503712177,0.10898111760616302,-0.928364634513855,0.3950624465942383,-0.2869628369808197,0.36705470085144043,-0.4370713531970978,-0.3237116038799286,-0.04006160795688629,0.007360350340604782,-0.45507317781448364,-0.12912023067474365,0.20609059929847717,-0.29823216795921326,-0.4754224121570587,0.15774288773536682,-0.41277533769607544,0.5844867825508118,0.00942994374781847,0.28677091002464294,-0.23309330642223358,1.1030067205429077,0.4389364719390869,0.31994226574897766,-0.5754898190498352,-0.6755437850952148,-0.32083702087402344,-0.6103559136390686,0.554783821105957,-0.4534195065498352,-0.31091761589050293,-0.09007250517606735,0.13854609429836273,-0.15694916248321533,-0.2926471531391144,-0.4360504448413849,-0.21523022651672363,0.7682141661643982,-0.29715973138809204,0.41505107283592224,0.017585692927241325,0.08423911035060883,0.6987035870552063,-0.2404753416776657,-0.4101756811141968,-0.3225703835487366,0.21405477821826935,0.09433387219905853,0.008139207027852535,0.13076481223106384,0.19484943151474,0.2622027099132538,-0.1666649580001831,0.431979238986969,0.7754244804382324,-0.031809739768505096,-0.48309504985809326,0.14067919552326202,0.1963803917169571,0.1821037083864212,-0.02611437998712063,0.8541524410247803,1.0152029991149902,0.23984916508197784,-0.47119179368019104,-0.6568576693534851,-0.23024271428585052,0.08960671722888947,-0.14862434566020966,-0.26380494236946106,0.3226868212223053,-0.125001922249794,-0.2588280439376831,-0.06673771142959595,0.005629558581858873,-0.03557116910815239,-0.43030619621276855,0.9366657137870789,0.10373921692371368,0.5118154287338257,-0.18838539719581604,0.43322592973709106,0.5084952116012573,-0.25768399238586426,-0.9008201360702515,-0.38225066661834717,-0.1838664561510086,-0.28143906593322754,0.4915819764137268,-0.13577868044376373,0.09731178730726242,-0.06813206523656845,0.08250075578689575,0.12234092503786087,0.3167465329170227,0.18466544151306152,-0.9037706255912781,0.3307054936885834,0.38891491293907166,1.3700084686279297,-0.38383325934410095,0.3103023171424866,0.7034534215927124,0.4665289521217346,-0.9111060500144958,-0.9891228675842285,-0.1572926789522171,0.01497418899089098,0.3319363594055176,-0.21946679055690765,0.017341606318950653,-0.19661812484264374,-0.08631302416324615,-0.18359026312828064,0.4715096056461334,-0.29353779554367065,-0.12925311923027039,0.19088181853294373,-0.19103696942329407,0.19051297008991241,0.11959780007600784,0.545438289642334,0.5144773721694946,-0.011074868030846119,-0.08176703751087189,-0.3286181390285492,0.10534250736236572,-0.07823241502046585,-0.04589839652180672,0.14264585077762604,0.20581069588661194,0.18593034148216248,-0.393420547246933,0.20698116719722748,0.3546285927295685,0.2481662929058075,-0.4372131824493408,0.28607264161109924,0.04436398297548294,-0.2137666940689087,-0.2755439281463623,-0.06379953026771545,-0.610305666923523,0.5568878650665283,-0.26160961389541626,0.3349108099937439,-0.1731947660446167,0.043945085257291794,-0.22936056554317474,0.10199348628520966,-0.22223004698753357,-0.12703509628772736,0.1372935175895691,-0.20664462447166443,-0.1823820173740387,0.16426566243171692,-0.038014646619558334,0.30595844984054565,-0.03527296334505081,-0.37968865036964417,-0.14453525841236115,-0.14202088117599487,-0.19305630028247833,0.03856278210878372,0.2677414119243622,0.05755330249667168,-0.19281578063964844,-0.2679174840450287,-0.28252217173576355,-0.024068914353847504,-0.29190394282341003,-0.11276379227638245,0.13978877663612366,-0.061712294816970825,-0.15941885113716125,0.08768534660339355,-0.4164412021636963,-0.18049471080303192,0.21804679930210114,-0.6627367734909058,0.05529896542429924,0.167715921998024,-0.1512998640537262,0.5958414673805237,0.002005794085562229,0.13054019212722778,-0.016651934012770653,0.020428670570254326,-0.5099824666976929,0.0006190312560647726,0.019975217059254646,-0.3200598955154419,-0.21062001585960388,-0.4117487370967865,-0.3107890784740448,0.13695162534713745,-0.04241989552974701,0.528053343296051,0.03503290191292763,-0.5415955781936646,-0.3378206491470337,0.19801846146583557,-0.7533433437347412,0.010895890183746815,0.26447203755378723,0.1872587502002716,0.016211817041039467,-0.9210456609725952,0.4218340814113617,0.22054578363895416,-0.21658042073249817,-0.05890369787812233,-0.12686003744602203,0.1195698007941246,-0.22864675521850586,0.4479686915874481,-0.3265781104564667,-0.8521671295166016,0.23597383499145508,-0.12369472533464432,0.3619025945663452,0.19714514911174774,-0.5560110211372375,0.41455286741256714,0.07312344759702682,-0.39452114701271057,-0.08030141890048981,0.6902622580528259,-0.12773245573043823,-0.14132939279079437,-0.1544770747423172,-0.19219240546226501,-0.08663072437047958,-0.33340492844581604,-0.5669541954994202]},"forgetBias":{"rows":20,"columns":1,"weights":[0,0,0,0,0,0,0,0,0,0,0,0,0,0,0,0,0,0,0,0]},"outputMatrix":{"rows":20,"columns":35,"weights":[0.25693410634994507,0.0058196960017085075,-0.30645403265953064,0.5888674259185791,0.15021969377994537,-0.39112505316734314,-0.07280229777097702,0.08465424180030823,0.441144198179245,-0.3535148501396179,0.09444473683834076,0.3057907223701477,0.04855789989233017,0.1696225255727768,-0.07471698522567749,-0.15625542402267456,-0.3666485548019409,0.02582641690969467,0.47680288553237915,-0.524885356426239,0.2331448793411255,-0.10402369499206543,-0.5741076469421387,0.17091867327690125,-0.11675231158733368,-0.4762488901615143,0.060841113328933716,0.23204176127910614,0.3272831439971924,-0.30739742517471313,-0.03445230796933174,0.27511128783226013,0.017475103959441185,-0.33820781111717224,0.270537406206131,0.11490720510482788,0.15501311421394348,-0.037886183708906174,-0.01925031654536724,-0.4533816874027252,-0.005557730793952942,0.14514240622520447,0.4530813694000244,0.7701773047447205,-0.24850226938724518,-0.010573823004961014,0.0883946642279625,-0.6435415148735046,0.5666270852088928,0.17053483426570892,0.3442438840866089,0.05545954778790474,-0.22508162260055542,0.6069524884223938,0.017305299639701843,-0.13157787919044495,0.17752812802791595,-0.280740886926651,0.38722658157348633,0.024209298193454742,-0.06837613135576248,0.22660288214683533,0.1634891778230667,0.29231154918670654,0.22305317223072052,-0.10430918633937836,0.10739503055810928,0.5561011433601379,-0.12208541482686996,0.016302993521094322,-0.29286080598831177,0.22954966127872467,0.0873284637928009,-0.1343415081501007,0.1681751161813736,-0.17565232515335083,-0.45840325951576233,-0.2581382393836975,0.6462252736091614,0.3446228504180908,0.16924495995044708,0.16578789055347443,-0.31021004915237427,0.7790568470954895,-0.15005077421665192,0.3967885375022888,0.45903825759887695,-0.615546703338623,0.22237490117549896,0.1625855714082718,0.0631117895245552,-0.3620210587978363,-0.2918245494365692,0.3993917405605316,-0.04439619183540344,0.3131837248802185,0.5000081658363342,-0.4043312966823578,-0.37077486515045166,-0.34359627962112427,0.24998654425144196,-0.018677767366170883,0.1005643680691719,0.25636932253837585,-0.03599993512034416,0.04343511536717415,-0.35008004307746887,0.2558716833591461,0.4935048222541809,-0.04363120719790459,-0.13885360956192017,-0.4054912328720093,0.5251729488372803,0.428506463766098,-0.1987527757883072,0.6668772101402283,-0.024836914613842964,-0.6721010804176331,-0.2514428198337555,-0.021201057359576225,-0.09311172366142273,0.1802143007516861,-0.07356511056423187,-0.13729800283908844,0.07065412402153015,-0.22289349138736725,0.4587792456150055,-0.12092261016368866,0.6869605183601379,0.49197012186050415,-0.7633085250854492,0.3845140039920807,-0.003934158012270927,0.1424705684185028,-0.41334110498428345,0.2991829812526703,-0.31282931566238403,0.1802995800971985,-0.1610383838415146,0.31048157811164856,0.03600497543811798,0.1713101714849472,0.14222188293933868,0.021102063357830048,0.1873866617679596,-0.4243736267089844,0.07845347374677658,-0.31437352299690247,0.7576706409454346,-0.1488693207502365,-0.22093716263771057,0.24649757146835327,-0.25912532210350037,0.5617420673370361,-0.5016048550605774,-0.07613897323608398,0.3833840489387512,-0.1607268899679184,0.17199212312698364,0.16188837587833405,-0.054780468344688416,-0.23551981151103973,-0.2257058173418045,0.37987345457077026,0.15676987171173096,-0.01676085777580738,0.44669145345687866,0.23590435087680817,-0.20552611351013184,-0.20064693689346313,0.45084348320961,0.040303267538547516,0.4561109244823456,-0.2772273123264313,0.2285938858985901,0.6201601624488831,0.303517609834671,0.23735933005809784,0.19294129312038422,0.3635696470737457,-0.43426036834716797,-0.3116324245929718,0.5873034000396729,0.2767013609409332,-0.3585076332092285,0.010022173635661602,-0.09487929195165634,-0.710250198841095,0.025945765897631645,-0.26602283120155334,0.48886457085609436,0.3463204503059387,-0.6970531344413757,0.18840982019901276,-0.18746145069599152,0.16801030933856964,0.07458216696977615,-0.12586428225040436,0.9763744473457336,-0.09927903860807419,-0.6379746794700623,0.4207850694656372,0.11104504019021988,0.4036684036254883,0.047499556094408035,0.11225183308124542,0.052675437182188034,0.8257662653923035,0.07819313555955887,0.13030271232128143,-0.06378307193517685,-0.29224392771720886,0.43764394521713257,0.1924244910478592,-0.09934622049331665,-0.06469598412513733,0.31313061714172363,-0.20019498467445374,-0.10737013071775436,0.17573770880699158,-0.4157659709453583,0.45976653695106506,0.3839336931705475,-0.0658625066280365,0.2299966812133789,-0.5905581116676331,0.09663849323987961,0.5055533051490784,-0.25370675325393677,0.0756404921412468,-0.2790551781654358,0.4181746244430542,-0.25897833704948425,-0.2821514308452606,0.4785160422325134,-0.4114133417606354,-0.0744929164648056,0.6715862154960632,-0.22827951610088348,-0.5981615781784058,0.03676198795437813,-0.4564453363418579,-0.14930158853530884,-0.19802281260490417,1.168906569480896,-0.08022809773683548,-0.2083348035812378,0.0008447769214399159,-0.07004500180482864,0.2799019515514374,0.19839315116405487,-0.6558488607406616,0.2688423991203308,0.028953678905963898,0.5319046974182129,0.3477884531021118,-0.18914878368377686,0.034787945449352264,0.051709044724702835,0.16070257127285004,0.14690962433815002,-0.37521401047706604,-0.5500791668891907,-0.2564162015914917,0.2518978714942932,0.49802154302597046,0.06988983601331711,0.4867749810218811,0.32536059617996216,-0.2571741044521332,-0.7212206125259399,0.05183437466621399,-0.057034268975257874,-0.2313443273305893,0.13573230803012848,-0.36447447538375854,0.5563467144966125,0.31782689690589905,0.853881299495697,0.028076840564608574,-0.01132053043693304,-0.014727441594004631,-0.244047150015831,0.32890933752059937,0.44881829619407654,-0.2094745635986328,-0.07719147205352783,0.4161774814128876,0.2930038869380951,-0.3686538338661194,0.21797090768814087,-0.3547244369983673,-0.2675694525241852,-0.45404335856437683,-0.13967576622962952,0.43154487013816833,-0.3215140700340271,-0.16593289375305176,-0.032525189220905304,-0.11482676863670349,0.0403377041220665,0.18956829607486725,0.1253417581319809,0.22739514708518982,-0.11573092639446259,-0.5999979376792908,-0.01926269941031933,0.10241920500993729,0.10541563481092453,0.3920792043209076,-0.32780003547668457,0.43100786209106445,0.23319970071315765,-0.2566102147102356,0.4803241491317749,-0.19979196786880493,0.11769916117191315,0.1943984478712082,-0.2117660939693451,-0.30108144879341125,0.2713921070098877,0.27624741196632385,0.14738129079341888,1.3138281106948853,-0.708357572555542,-0.527664303779602,0.21299703419208527,-0.3622371554374695,1.0059325695037842,0.20650950074195862,-0.1811533421278,0.03500168025493622,0.062025222927331924,0.99882972240448,0.17830076813697815,-0.4856266677379608,0.2816719114780426,-0.6402179002761841,0.2082483172416687,0.1939065307378769,-0.004775102250277996,-0.007118344306945801,0.07834380865097046,-0.08749127388000488,0.10058936476707458,-0.44103166460990906,-0.2666347324848175,0.905282735824585,-0.6088448166847229,0.11720474064350128,-0.26724088191986084,-0.3375531733036041,-0.2520652711391449,0.04983704537153244,-0.06041455641388893,0.29208242893218994,-0.18718653917312622,0.7045157551765442,0.6589204668998718,-0.1859561949968338,0.30333006381988525,0.22171878814697266,0.11718780547380447,0.4659723937511444,0.20210717618465424,-0.2808481752872467,-0.46954023838043213,0.11293157935142517,0.5784654021263123,-0.31349557638168335,0.40397384762763977,-0.1998029202222824,-0.6767884492874146,0.09006193280220032,-0.17977575957775116,-0.8326746821403503,0.3420141637325287,0.35659709572792053,-0.036839909851551056,0.20779399573802948,-0.5571673512458801,0.48780637979507446,0.9212307333946228,-0.35390710830688477,0.2455652356147766,-0.16030828654766083,0.12801900506019592,-0.41681531071662903,0.5018473267555237,-0.6302295923233032,-0.326036661863327,-0.08470171689987183,-0.44753962755203247,0.43262335658073425,-0.5265412926673889,0.3816252648830414,0.3575691282749176,-0.005269114393740892,0.31359320878982544,1.3391015529632568,0.14625711739063263,-0.28809478878974915,-0.6070796251296997,0.50864177942276,0.18510748445987701,-0.4534311592578888,-0.4375477135181427,-0.22448298335075378,-0.67057865858078,0.15384230017662048,1.6106981039047241,0.3295152485370636,-0.24107305705547333,-0.5078228712081909,-0.7399004101753235,0.22677834331989288,-0.7137746214866638,-0.40581074357032776,-0.6669206023216248,-0.11558127403259277,-0.22439196705818176,-0.23386195302009583,-0.6152328848838806,-0.21229663491249084,-0.21657022833824158,0.21792460978031158,-0.13477404415607452,-0.1289415806531906,0.28215864300727844,-0.012325366958975792,0.06619475036859512,-0.05673602968454361,0.24072964489459991,0.509756326675415,0.574022114276886,0.24244828522205353,-0.4142584502696991,-0.4488990306854248,0.3880941867828369,0.01944092847406864,0.05663113668560982,-0.4901536703109741,-0.22121506929397583,-0.49630287289619446,-0.4132908582687378,0.2762393355369568,-0.3418002724647522,0.17012520134449005,0.009252824820578098,0.03845299407839775,-0.09730534255504608,0.06529943645000458,-0.3081212341785431,-0.20151887834072113,0.27471494674682617,0.02796626277267933,-0.1998903453350067,-0.23858483135700226,0.734266459941864,0.07288314402103424,-0.46444791555404663,0.5842884182929993,-0.5689637064933777,-0.16914209723472595,0.5253610610961914,-0.3936808705329895,0.6604098677635193,0.9145773649215698,0.633073091506958,-0.04703947901725769,-0.9571656584739685,-0.3264636993408203,-0.3180915117263794,0.31756773591041565,-0.3470119535923004,0.14365214109420776,-0.39682134985923767,-0.4138707220554352,-0.8313903212547302,0.4096936881542206,0.19369813799858093,0.46727412939071655,0.8799356818199158,-0.23605285584926605,-0.9957395792007446,-0.06086248904466629,-0.037733253091573715,-0.9349995255470276,-0.20937442779541016,0.9706683158874512,0.6494500041007996,0.6029782891273499,-0.02970142848789692,0.6016939282417297,-0.1270708292722702,-0.62811279296875,0.3941584527492523,-0.31382426619529724,0.503890335559845,-0.4964207112789154,-0.7041798830032349,0.44321760535240173,-0.18392333388328552,0.4109440743923187,0.04028252884745598,-0.1874600201845169,-0.040557246655225754,-0.0061237141489982605,0.6946377754211426,-0.2854275405406952,-0.027707494795322418,0.3959658443927765,-0.5058257579803467,-0.0446438230574131,0.2464868724346161,0.0693138986825943,0.1150863766670227,0.16566668450832367,0.3487796187400818,-0.5218225717544556,0.38883060216903687,-0.3665502667427063,-0.08401124179363251,-0.6246029138565063,0.32670313119888306,0.21355818212032318,0.10925145447254181,-0.18016736209392548,0.4106486141681671,0.20278729498386383,-0.4265463054180145,-0.22989167273044586,0.32607805728912354,0.43195468187332153,-0.10226994752883911,0.24846898019313812,0.13740898668766022,0.08510588109493256,0.2701908349990845,-0.1284036487340927,0.20094193518161774,-0.18129508197307587,-0.4115288555622101,0.44449469447135925,-0.006467163097113371,0.24921268224716187,-0.20852766931056976,-0.13280189037322998,0.028952812775969505,-0.24782365560531616,-0.4610375165939331,0.2865025997161865,-0.06294264644384384,-0.0421757847070694,-0.4087713658809662,0.2812587320804596,0.1496686339378357,0.09853395074605942,-0.06002746522426605,0.1782289743423462,0.18676374852657318,0.2556292712688446,0.4224990904331207,0.33918336033821106,-0.25943925976753235,-0.17115530371665955,-0.15469031035900116,0.8381875157356262,0.35622432827949524,0.15918701887130737,0.03731948509812355,0.2570420801639557,-0.5331417322158813,0.3338518440723419,-0.25910913944244385,0.053260043263435364,0.17384949326515198,-0.15929648280143738,0.35450926423072815,-0.20366647839546204,0.008840390481054783,0.32999807596206665,-0.39474979043006897,0.7198262810707092,0.13072438538074493,-1.0633924007415771,0.4696964621543884,0.20058655738830566,0.33257240056991577,-0.22013579308986664,-0.058272141963243484,0.05218562111258507,0.640613317489624,0.1877502053976059,0.26829907298088074,0.016609743237495422,0.010429427959024906,0.24143515527248383,0.5026438236236572,-0.420085072517395,-0.36412325501441956,-0.21211567521095276,0.49393728375434875,0.3941124677658081,-0.42821797728538513,0.49865105748176575,-0.017982421442866325,-0.5005598664283752,-0.00004542735405266285,0.1196402907371521,0.1904083490371704,0.14896543323993683,-0.27618131041526794,0.1724935919046402,0.08272167295217514,-0.41367393732070923,0.21856842935085297,-0.050853434950113297,0.28664952516555786,0.19287841022014618,-0.24523724615573883,0.5406255722045898,-0.05672004073858261,-0.1494562029838562,-0.3507159650325775,0.25721657276153564,-0.25786828994750977,0.37329843640327454,-0.14618751406669617,-0.06011585891246796,0.4522384703159332,-0.03017101064324379,0.11746595054864883,0.19957947731018066,0.2648874819278717,-0.28305360674858093,-0.062474094331264496,0.25373104214668274,0.16374564170837402,-0.07717856019735336,0.06635496765375137,0.029823867604136467,-0.4827204644680023,-0.09415625035762787,0.1635233461856842,-0.24508409202098846,0.07844644039869308,0.0007309709908440709,0.10569483041763306,-0.22437791526317596,-0.09348685294389725,0.21435822546482086,-0.15309356153011322,0.5716078877449036,0.033345021307468414,-0.41717880964279175,0.2448672354221344,-0.025121616199612617,0.42015373706817627,-0.031165432184934616,0.12169244140386581,-0.0838949903845787,-0.13820217549800873,-0.028189050033688545,0.09066268801689148,-0.30287981033325195,-0.012722400948405266,-0.32195067405700684,-0.14147862792015076,-0.21339526772499084,0.10619388520717621,-0.7384946942329407,0.21355634927749634,-0.28261277079582214,0.5612823367118835,0.36255425214767456,-0.13139283657073975,0.09894290566444397,-0.05340341851115227,0.35431966185569763,0.6964985132217407,-0.3312586545944214,-0.5792930126190186,-0.100124791264534,0.05113857239484787,0.24300968647003174,-0.488371342420578,-0.05522685870528221,-0.27351412177085876,-0.48515406250953674,-0.20371204614639282,0.04742351919412613,-0.37061744928359985,-0.08638094365596771,0.04337788373231888,-0.4030616283416748,0.44827142357826233,0.42707768082618713,0.897804856300354,-0.0018778027733787894]},"outputHidden":{"rows":20,"columns":20,"weights":[0.4729941189289093,-0.5838913917541504,-0.11138717085123062,0.11922513693571091,-0.2610173523426056,-0.3811003565788269,0.22621949017047882,-0.8057020902633667,0.45501914620399475,0.30358800292015076,-0.17644423246383667,-0.23285256326198578,-0.3959789574146271,0.019389379769563675,-0.20581361651420593,-0.4477609694004059,-0.42410051822662354,0.4195431172847748,-0.3968261182308197,-0.5690078139305115,0.37382054328918457,0.5765371918678284,-0.3040185868740082,0.171812042593956,-0.6733378171920776,-0.2837584316730499,-0.7825676202774048,-0.4321334660053253,0.08286656439304352,0.8898106217384338,1.059949517250061,-0.6783676147460938,0.291238009929657,-1.113603115081787,-0.04648786410689354,-0.835056722164154,-0.451369047164917,0.8060595989227295,-0.3451308310031891,-0.24384161829948425,0.6622607707977295,-0.16841743886470795,-0.3843437135219574,0.5820761322975159,-0.6241857409477234,-0.5857949256896973,-0.5024843215942383,-0.6696130633354187,0.7080888748168945,0.31478604674339294,0.34113839268684387,-0.7577435970306396,-0.08619260787963867,-0.46393507719039917,-0.2788556218147278,-0.6650686264038086,-0.5600661039352417,0.4878807067871094,-0.53709477186203,-0.6444719433784485,0.44679582118988037,-0.1973317414522171,-0.7843500971794128,0.01633673533797264,-1.1511077880859375,0.2647504508495331,0.06536141037940979,-0.731976330280304,0.3970942795276642,0.8661423921585083,0.42420974373817444,-0.525765061378479,-0.101472869515419,-1.4298652410507202,-0.0670311376452446,-0.23870234191417694,0.06015707552433014,-0.2790789008140564,-0.37921977043151855,-0.1611688733100891,0.7623620629310608,-0.5261243581771851,-0.08865956217050552,0.42107346653938293,0.08341711759567261,-0.4134142994880676,-0.4936050772666931,-0.7883486151695251,1.1395809650421143,-0.08757222443819046,0.16322708129882812,-0.34081506729125977,0.1353583037853241,-0.6424212455749512,-0.3360038995742798,-0.6974499821662903,-0.46976616978645325,0.13126318156719208,-0.3770271837711334,-0.2990330755710602,0.5336407423019409,0.0584697425365448,-0.9683420062065125,0.08201923966407776,-0.9369710683822632,-0.10329015552997589,0.13465924561023712,-0.5789340138435364,0.655250072479248,0.6254441142082214,0.1816234439611435,-0.6526180505752563,0.11575460433959961,-0.6249417066574097,-0.2356290966272354,-0.7161877751350403,-0.31470945477485657,0.6607100367546082,-0.4313491880893707,-0.5011059641838074,0.24724335968494415,-0.18245939910411835,-0.19063061475753784,0.2710350751876831,-0.16490408778190613,-0.5842049717903137,-0.2942140996456146,-0.14014722406864166,0.7659937143325806,-0.04255650192499161,-0.49745655059814453,-0.2082768827676773,-0.09347805380821228,-1.0981595516204834,-0.09123478084802628,-0.4842320680618286,-0.20949974656105042,0.11257510632276535,-0.19790434837341309,0.16007573902606964,1.2533255815505981,0.2298535406589508,-0.2726295590400696,1.1275452375411987,-0.31917211413383484,-0.5985512733459473,0.36303961277008057,-0.36367443203926086,0.7729983925819397,0.6038731932640076,0.26942506432533264,-0.9366850256919861,-0.3099204897880554,-0.624464750289917,-0.6505593061447144,-0.8723962306976318,-1.1600103378295898,0.4559617042541504,-0.8820397853851318,-0.2927543818950653,0.841810405254364,-0.09103034436702728,-0.3908209800720215,0.23110999166965485,-0.8771833181381226,-0.5804336667060852,0.4610815644264221,-1.2859197854995728,0.75056391954422,0.11052852123975754,0.18964743614196777,-0.7753679752349854,-0.3180420994758606,0.13106931746006012,-0.4728253483772278,-1.2191627025604248,-0.5413979291915894,0.8732072710990906,-0.5261375904083252,-1.0014187097549438,0.3391158878803253,-0.07423507422208786,0.06211692839860916,0.48449134826660156,-0.3716794550418854,-0.6245738863945007,-0.7795303463935852,-0.7379472851753235,0.18488600850105286,0.289615660905838,0.48280972242355347,-0.3794345557689667,-0.3675139248371124,-0.6509935259819031,-0.22927501797676086,-0.5925061106681824,-0.4923849403858185,0.6225505471229553,-0.34347471594810486,-0.23443026840686798,0.5754104852676392,0.138871431350708,-0.5145740509033203,0.5515567064285278,-0.12706847488880157,-0.8066588044166565,-0.5881007313728333,-0.6250572800636292,0.6786997318267822,0.4259408116340637,0.8087066411972046,-0.8566430807113647,0.4875698983669281,-0.42056310176849365,-0.35592254996299744,-1.0375239849090576,-0.7432831525802612,0.9559885263442993,-0.5962708592414856,-0.6529173254966736,0.5179826021194458,-0.25787168741226196,-0.27478912472724915,0.42278555035591125,-0.20104797184467316,0.025135328993201256,-0.08616472035646439,-0.4784497320652008,0.7225309014320374,0.3359290063381195,-0.00812666304409504,-0.19874362647533417,0.22811360657215118,-1.0810626745224,-0.41549476981163025,-0.15162579715251923,-0.4959048628807068,-0.3332637548446655,-0.532369077205658,-0.4240204095840454,1.080358624458313,-0.5744872689247131,-0.6173288822174072,1.057437777519226,-0.599041759967804,-0.4181579053401947,-0.14129316806793213,-0.25744983553886414,0.5154159069061279,0.3915247917175293,0.14197970926761627,-0.8627862334251404,0.36369967460632324,-0.6329488754272461,-1.0135694742202759,-0.7101286053657532,-0.7533791661262512,1.0385127067565918,-1.2325760126113892,-0.19856955111026764,0.7247223258018494,-0.24415388703346252,-0.6819648146629333,1.1563912630081177,-0.22363191843032837,-0.6305282711982727,-0.024664631113409996,-1.3328207731246948,0.9163246154785156,0.5418269038200378,0.11039242148399353,-0.6784937977790833,-0.5181922912597656,-0.3418516218662262,-0.4727364480495453,-0.572453498840332,-1.0942537784576416,0.6545795798301697,-0.9749678373336792,-1.0117921829223633,0.27316656708717346,0.05716476961970329,0.19241631031036377,0.31834274530410767,-0.1691547930240631,-0.4536421597003937,-0.6365196108818054,-0.3582543730735779,0.5321477651596069,0.3209480047225952,0.3401034474372864,-0.16755437850952148,-0.32309383153915405,-0.5756356120109558,-0.05592910572886467,-0.7008405327796936,-0.40399470925331116,0.29929065704345703,-0.14765095710754395,-0.23918356001377106,0.7415942549705505,-0.3181408941745758,-1.036961555480957,0.3845137059688568,-0.4554983675479889,-0.3935502767562866,-0.00087525270646438,-0.7033467292785645,0.9925332069396973,0.3364029824733734,-0.24303357303142548,-0.35143864154815674,0.2581504285335541,0.0412479043006897,-0.7361865639686584,-0.6619871854782104,-0.8175460696220398,0.8185563683509827,-0.8235325217247009,-0.6102384328842163,0.4060133695602417,-0.00585640873759985,-0.7414804100990295,-0.059155773371458054,-0.5421468019485474,0.19054894149303436,0.051040563732385635,-0.6358739137649536,0.47539544105529785,0.6544950008392334,0.4558529853820801,-0.35441824793815613,0.4427616596221924,-0.6537467837333679,-0.07573724538087845,-0.3884451985359192,-0.2640669047832489,0.09875627607107162,-0.2557913362979889,-0.5060635805130005,1.012961506843567,-0.15905794501304626,-1.4302970170974731,0.32433104515075684,-0.41276735067367554,-0.2285856306552887,0.2654814124107361,-0.49032679200172424,0.7519362568855286,0.5376039743423462,-0.10202661156654358,-0.3581816256046295,0.7423171997070312,-0.15126430988311768,-0.33137768507003784,-0.5403962135314941,-0.7009949088096619,0.40068116784095764,-1.1003060340881348,-0.6354504823684692,0.5988792777061462,0.15298590064048767,-0.22208286821842194,0.1990918219089508,-0.54195636510849,-0.5104066729545593,0.020053131505846977,-0.9806922674179077,0.4581991136074066,0.877758800983429,0.3767285645008087,-0.46208447217941284,-0.6074308753013611,-0.24744708836078644,-0.1089077740907669,-0.6735169887542725,-0.49715474247932434,0.33925414085388184,-0.40642526745796204,-0.6394298076629639,1.0236644744873047,-0.5720822811126709,-0.3233245015144348,0.6923958659172058,0.13243044912815094,-0.17179562151432037,0.14665895700454712,-0.7218353748321533,0.9146112203598022,-0.3261031210422516,-0.6041415929794312,-0.359811007976532,0.047934066504240036,0.083113893866539,-0.8717290163040161,-0.6895725727081299,-1.0204834938049316,0.7830114364624023,-1.1917724609375,-0.5504001975059509]},"outputBias":{"rows":20,"columns":1,"weights":[0.3036559820175171,0.2983778715133667,0.7619523406028748,0.45714443922042847,0.4593763053417206,0.2392919957637787,0.7101466655731201,0.6350080370903015,0.03014441207051277,0.4578529894351959,0.2752733826637268,0.17150986194610596,-0.26551321148872375,-0.11089888215065002,-0.35353901982307434,0.3626648485660553,0.466831773519516,0.13357163965702057,0.27500197291374207,0.7471559643745422]},"cellActivationMatrix":{"rows":20,"columns":35,"weights":[0.39774709939956665,0.435046911239624,-0.057905163615942,0.28604069352149963,0.12207632511854172,-0.2848130464553833,0.015324712730944157,0.14050714671611786,-0.0646517276763916,-0.06392232328653336,-0.12459377944469452,0.4572157561779022,0.29367318749427795,0.18737675249576569,0.26405224204063416,-0.16772913932800293,-0.29316139221191406,0.3993532657623291,0.17792752385139465,-0.032508477568626404,0.3761710226535797,0.2714056670665741,-0.1685120165348053,-0.0709826648235321,-0.014402693137526512,-0.2143418937921524,-0.160573348402977,0.08655987679958344,0.1571003794670105,-0.007731098681688309,-0.06507381051778793,0.2268526405096054,-0.3737884759902954,0.023488357663154602,-0.012208541855216026,-0.02480938285589218,0.1679847091436386,-0.4349428713321686,-0.4890731871128082,0.20132122933864594,0.22910839319229126,-0.6391720771789551,-0.36677780747413635,-0.12089182436466217,0.1320772022008896,0.16996808350086212,-0.2784367501735687,0.15401215851306915,0.2971973717212677,-0.001071114675141871,0.5259495973587036,-0.3293621242046356,-0.37077075242996216,0.08846119046211243,-0.1923925131559372,0.5355929732322693,-0.47342467308044434,-0.022537827491760254,-0.1624104082584381,-0.42647477984428406,0.3745986223220825,-0.08222661912441254,-0.8334734439849854,-0.012939559295773506,0.4436517655849457,-0.10553979128599167,0.44395509362220764,-0.4090076982975006,0.6321807503700256,-0.5137997269630432,-0.0011996831744909286,-0.08138470351696014,-0.10527798533439636,0.18017788231372833,0.09827683120965958,-0.026917848736047745,-0.22434581816196442,-0.041776787489652634,0.4130598306655884,-0.43521541357040405,0.2946740984916687,-0.02077545039355755,0.1394203156232834,0.3210254907608032,-0.36465510725975037,0.11295977234840393,-0.14104536175727844,0.2196354866027832,0.10332393646240234,-0.4164438843727112,-0.3117166757583618,0.19064980745315552,-0.4534306228160858,-0.1616395264863968,0.09557239711284637,-0.3658146560192108,0.005228636786341667,0.05372859537601471,-0.1324029564857483,-0.020295506343245506,-0.0028833961114287376,-0.4096480906009674,-0.015901364386081696,-0.8370932340621948,0.4383905827999115,0.5958960056304932,0.5527151823043823,0.8205738067626953,0.23415681719779968,0.12728336453437805,