{"type":"LSTM","options":{"inputSize":40,"inputRange":40,"hiddenLayers":[20,20],"outputSize":40,"decayRate":0.999,"smoothEps":1e-8,"regc":0.000001,"clipval":5,"maxPredictionLength":100,"dataFormatter":{"indexTable":{"1":6,"2":20,"3":25,"4":26,"5":29,"6":31,"7":32,"8":35,"b":0,"o":1,"n":2,"j":3,"u":4,"r":5,"s":7,"a":8,"l":9,"t":10,"h":11,"e":12,"y":13,"c":14," ":15,"m":16,"d":17,"p":18,"i":19,"v":21,"+":22,"g":23,"é":24,"'":27,"q":28,"k":30,"-":33,"f":34,"ê":36,"stop-input":37,"start-output":38,"unrecognized":39},"characterTable":{"0":"b","1":"o","2":"n","3":"j","4":"u","5":"r","6":"1","7":"s","8":"a","9":"l","10":"t","11":"h","12":"e","13":"y","14":"c","15":" ","16":"m","17":"d","18":"p","19":"i","20":"2","21":"v","22":"+","23":"g","24":"é","25":"3","26":"4","27":"'","28":"q","29":"5","30":"k","31":"6","32":"7","33":"-","34":"f","35":"8","36":"ê","37":null,"38":null,"39":null},"values":[{"input":"bonjour","output":1},{"input":"salut","output":1},{"input":"hey","output":1},{"input":"hello","output":1},{"input":"coucou tout le monde","output":1},{"input":"salut tout le monde","output":1},{"input":"hello le peuple","output":1},{"input":"salutation","output":1},{"input":"bye","output":2},{"input":"au revoir","output":2},{"input":"au revoir tout le monde","output":2},{"input":"a +","output":2},{"input":"a plus","output":2},{"input":"tchao","output":2},{"input":"a plus tard","output":2},{"input":"goodbye","output":2},{"input":"a demain","output":2},{"input":"see ya","output":2},{"input":"je dois y aller","output":2},{"input":"passe une bonne journée","output":2},{"input":"passer une bonne journée","output":2},{"input":"passe une bonne soirée","output":2},{"input":"passer une bonne soirée","output":2},{"input":"passe une bonne nuit","output":2},{"input":"passer une bonne nuit","output":2},{"input":"lol","output":3},{"input":"ptdr","output":3},{"input":"heh","output":3},{"input":"marrant","output":3},{"input":"mdr","output":3},{"input":"météo","output":4},{"input":"c'est quoi la météo","output":4},{"input":"yes","output":5},{"input":"absolument","output":5},{"input":"je suppose","output":5},{"input":"je suis d'accord","output":5},{"input":"je pense oui","output":5},{"input":"on parie","output":5},{"input":"yas","output":5},{"input":"tu parie","output":5},{"input":"ok","output":5},{"input":"ouais","output":5},{"input":"totalement","output":5},{"input":"okay","output":5},{"input":"entendu","output":5},{"input":"yeah","output":5},{"input":"yea","output":5},{"input":"mhmm","output":5},{"input":"non","output":6},{"input":"non merci","output":6},{"input":"nope","output":6},{"input":"pas possible","output":6},{"input":"jamais","output":6},{"input":"je ne peut pas","output":6},{"input":"je peut pas","output":6},{"input":"je ne pense pas","output":6},{"input":"je veut pas","output":6},{"input":"je ne veut pas non plus","output":6},{"input":"je ne veut pas","output":6},{"input":"comment va","output":7},{"input":"comment ca va","output":7},{"input":"comment va-tu","output":7},{"input":"sup","output":7},{"input":"yo","output":7},{"input":"quoi de neuf","output":7},{"input":"qu'est-ce qui se passe","output":7},{"input":"comment se passe ta journée","output":7},{"input":"bonne journée","output":7},{"input":"bonne aprem","output":7},{"input":"bonne soirée","output":7},{"input":"bonne nuit","output":7},{"input":"bienvenue","output":7},{"input":"content de te voir","output":7},{"input":"comment je peut","output":8},{"input":"ou je peut avoir les roles","output":8},{"input":"comment je rejoins","output":8},{"input":"comment est-ce que je peut être membre","output":8},{"input":"j'ai besoin d'aide","output":8},{"input":"aide moi","output":8},{"input":"alede","output":8}],"characters":["b","o","n","j","u","r","1","s","a","l","t","h","e","y","c"," ","m","d","p","i","2","v","+","g","é","3","4","'","q","5","k","6","7","-","f","8","ê","stop-input","start-output","unrecognized"],"specialIndexes":[37,38,39]}},"trainOpts":{"iterations":200,"errorThresh":0.001,"log":true,"logPeriod":5,"learningRate":0.001,"callbackPeriod":10,"timeout":"Infinity","momentum":0.1},"input":{"rows":41,"columns":40,"weights":[-0.06422949582338333,-0.04717925190925598,-0.061513639986515045,0.1818729192018509,-0.1954430788755417,0.006602639332413673,0.14616091549396515,-0.19174200296401978,0.17374299466609955,0.03478424251079559,0.07720799744129181,-0.49400174617767334,0.1302998960018158,0.0013382266042754054,0.23887625336647034,-0.12849783897399902,-0.18685799837112427,-0.3118742108345032,-0.2718440592288971,-0.1430986225605011,0.5005877017974854,-0.2406979352235794,0.12605132162570953,0.34219929575920105,0.04445839673280716,0.05519188195466995,-0.29687559604644775,0.02986910566687584,0.02054373174905777,0.2805637717247009,0.09744716435670853,-0.0920010358095169,0.012955410405993462,0.2516302466392517,0.18685133755207062,-0.07549475133419037,-0.04991374537348747,0.06884698569774628,0.16904909908771515,0.15829713642597198,-0.01868131197988987,-0.16681690514087677,-0.5100030303001404,1.150754451751709,-0.2906506061553955,-0.21106892824172974,-0.022157110273838043,1.2246780395507812,0.6719731092453003,-0.34088024497032166,-1.778303861618042,0.038242653012275696,1.0602397918701172,0.10419996827840805,0.12306671589612961,-0.15749141573905945,-0.1694096177816391,0.3641040623188019,-0.17269104719161987,-1.0952342748641968,-0.0797409862279892,-0.5694048404693604,1.0053530931472778,0.015086797997355461,-1.0911504030227661,0.7503875494003296,-0.11243434250354767,1.1065547466278076,0.9866265654563904,-0.33618292212486267,-0.26434338092803955,0.4456125497817993,0.5813000798225403,-0.37529557943344116,0.288298100233078,-0.4696452021598816,-0.4466153085231781,0.5400724411010742,-0.2578882575035095,0.1351003795862198,-0.6159405708312988,0.49044060707092285,-0.38449016213417053,0.007661820854991674,-0.7266113758087158,0.7171580195426941,0.20813614130020142,-0.5041705369949341,0.3667754530906677,0.3550071716308594,0.9066391587257385,0.22550421953201294,0.0685068815946579,-0.5275327563285828,-1.578840732574463,0.886631429195404,-0.5118147134780884,0.5549255013465881,-0.7066650390625,0.052738387137651443,0.5690787434577942,-0.9195464253425598,-0.18260414898395538,-0.34723156690597534,-0.21603374183177948,0.3516767919063568,0.1643429696559906,0.5590003132820129,-1.1604514122009277,1.3307240009307861,0.08164790272712708,-0.650881826877594,0.2636500298976898,-0.16591349244117737,0.09084086120128632,-0.21578776836395264,-1.1754571199417114,-0.4760887026786804,0.756887674331665,-0.47560739517211914,0.2850584387779236,0.7511841058731079,-0.16191299259662628,0.5122950077056885,0.8051718473434448,-0.10070686787366867,0.4517160654067993,0.016178973019123077,0.2570606470108032,-0.23405979573726654,-0.14834550023078918,-0.4721055030822754,-0.10029302537441254,0.3316923677921295,0.43789321184158325,-0.14469777047634125,0.3765246272087097,-0.4351695477962494,-0.022810930386185646,0.07626112550497055,-0.26619094610214233,0.42171433568000793,0.24249424040317535,0.5426791310310364,-0.34644532203674316,-0.4157460629940033,0.3542126417160034,-0.5734049677848816,-0.29774630069732666,-0.3104907274246216,-0.13891053199768066,0.4728771150112152,-0.16866903007030487,-0.3903020918369293,-0.6287147998809814,-0.048040732741355896,0.19042225182056427,0.9349057674407959,-0.3904741406440735,0.4231387972831726,-1.4186941385269165,1.8564298152923584,1.0939358472824097,-1.2974193096160889,1.188118577003479,-0.7509149312973022,0.18484029173851013,-0.6647152304649353,0.9279735088348389,-2.104649066925049,-1.0587966442108154,-1.3875633478164673,0.8076163530349731,-0.7412793636322021,1.5771292448043823,-0.6595173478126526,0.9921602010726929,-1.9021183252334595,0.28154370188713074,1.4990198612213135,0.39914876222610474,1.4765139818191528,0.3414051830768585,1.6461527347564697,-0.6945635676383972,-1.3197358846664429,-0.29874974489212036,-0.9623223543167114,-0.4957110583782196,-0.10252451151609421,0.1845749169588089,0.47676870226860046,-0.19269733130931854,-0.7962697148323059,0.015423948876559734,1.0083140134811401,1.9549981355667114,0.8724213242530823,0.6570565104484558,1.3174333572387695,-0.05143732577562332,-0.8635112643241882,0.3067181706428528,-0.49588844180107117,0.6937291622161865,-0.635871946811676,-0.17609480023384094,-0.8391830921173096,0.43528231978416443,0.5405733585357666,0.21377697587013245,-0.5368450880050659,0.2234024554491043,-0.1650516837835312,0.5962361693382263,-0.07390705496072769,0.06212413311004639,-0.1416042447090149,0.25084495544433594,0.10219857841730118,0.7061696648597717,-0.10654435306787491,0.04738810658454895,0.44916170835494995,-0.04940822720527649,0.0946960598230362,-0.633463442325592,-0.3690667152404785,0.04534056410193443,0.14242768287658691,0.36410900950431824,-0.6312567591667175,-0.46667709946632385,0.9352588653564453,0.5496902465820312,0.15147970616817474,0.0881076455116272,-0.1192789301276207,-0.0717615932226181,0.0064924610778689384,-0.04633293300867081,0.11508338898420334,0.2608417272567749,0.2068813443183899,-0.09257447719573975,-0.12296408414840698,-0.09963124990463257,0.2789938151836395,0.3058481216430664,0.2591405510902405,-0.2891703248023987,-0.023904990404844284,0.1938505917787552,0.3111099898815155,0.10427584499120712,0.2176106572151184,0.19149695336818695,0.22947023808956146,0.35288485884666443,0.11151175200939178,0.08280230313539505,0.03192051127552986,-0.05954723432660103,0.20836210250854492,-1.2173441648483276,0.30151957273483276,-0.11211960762739182,0.20340538024902344,-0.15120428800582886,-0.2562333047389984,0.2110046148300171,-0.31921541690826416,0.0319044254720211,0.013394257985055447,0.43636420369148254,0.3475779592990875,-0.07077272981405258,0.0712253749370575,0.043664805591106415,-0.05938712880015373,0.009060448966920376,1.1878124475479126,0.2872149646282196,-1.0437666177749634,-0.147282674908638,-0.017587291076779366,-1.1613597869873047,0.7651703953742981,1.4034678936004639,-1.1190365552902222,-1.9304221868515015,-1.5275161266326904,1.2181384563446045,0.4327101707458496,1.9535927772521973,0.8556209206581116,0.9532275795936584,-0.4292173385620117,0.29174938797950745,0.5622995495796204,0.3616877794265747,1.3655802011489868,-0.6624143719673157,1.894995093345642,-0.3142872750759125,-0.544486939907074,0.596295177936554,-0.79561847448349,-0.7494754195213318,-0.19641083478927612,2.8206872940063477,-0.43159234523773193,-0.2439001500606537,-1.9779167175292969,0.05126817524433136,-0.08527957648038864,1.442438006401062,0.0956321507692337,0.1301460564136505,-2.0789124965667725,-0.14940407872200012,-0.4011806547641754,-0.4926527738571167,1.2694507837295532,-0.6468246579170227,0.45551151037216187,-0.06650254875421524,0.6266870498657227,-1.0094319581985474,-0.6501215696334839,0.2398008555173874,1.3270857334136963,-0.6811997890472412,0.9254747629165649,-1.2766796350479126,-0.15862442553043365,0.4643849730491638,0.10172081738710403,-0.46911555528640747,-0.6182824373245239,-1.2365424633026123,0.49533239006996155,0.06856848299503326,-1.136812686920166,-0.6452361941337585,-0.22975380718708038,0.6797987222671509,-0.1836041361093521,-0.07097020745277405,-0.188632532954216,-0.44913819432258606,0.9875463843345642,0.17163394391536713,-0.38252153992652893,0.7792233824729919,-0.0582384429872036,-0.4547870457172394,-0.013379829935729504,-0.5737048387527466,0.16462242603302002,-0.6752989888191223,0.8714925646781921,-1.0341267585754395,0.6980746984481812,-0.47374674677848816,0.8860822319984436,-0.2757262587547302,-0.7307945489883423,0.29648831486701965,0.16932448744773865,0.9674360752105713,0.6138400435447693,0.47559306025505066,-0.1503974050283432,-1.4774984121322632,0.925710916519165,-0.30045458674430847,0.2503381371498108,-0.7537780404090881,0.232162743806839,0.5042436122894287,-0.361400306224823,0.14753691852092743,-0.7254489660263062,0.27972516417503357,-0.08262442797422409,0.35450443625450134,0.14569149911403656,-0.1528140753507614,0.6953753232955933,-0.746360182762146,0.19646501541137695,-0.04479733854532242,-0.27422240376472473,-0.29801008105278015,0.11063238978385925,-0.5710216760635376,0.4260304868221283,0.4737692177295685,-0.07951238751411438,0.1131710335612297,0.057603441178798676,-0.1881600022315979,0.45469731092453003,-0.09047507494688034,-0.22306154668331146,0.30967631936073303,0.5392932295799255,0.3860374391078949,0.39251160621643066,-0.08841333538293839,-1.7015825510025024,0.12669308483600616,-0.4118691682815552,0.4445899724960327,0.920247495174408,-0.7730533480644226,-0.7046390771865845,-0.20126751065254211,-0.18238840997219086,0.747979998588562,-1.2296358346939087,-0.45201313495635986,1.7593457698822021,-0.1559520959854126,0.9904802441596985,-1.0844916105270386,0.4716891944408417,-0.2828546464443207,0.40401142835617065,1.2475336790084839,-1.0812716484069824,-0.24489949643611908,0.651844322681427,0.4938177168369293,-0.3814448416233063,-0.655829668045044,-0.34992629289627075,-0.515382707118988,0.6073673963546753,0.3353200852870941,-0.8545926809310913,0.028632622212171555,-0.4075937867164612,0.44717350602149963,0.4095326364040375,-0.03888319805264473,0.032490406185388565,-1.2205617427825928,0.12123138457536697,0.3445515036582947,1.4521132707595825,-0.7340983748435974,0.45550838112831116,-1.4595870971679688,-0.3962228298187256,0.3901914358139038,0.5076562762260437,0.025658367201685905,-0.15534771978855133,-0.45467060804367065,0.16752631962299347,-0.16659164428710938,-1.7611591815948486,0.2935842275619507,-0.11070746928453445,0.7190192937850952,0.07446050643920898,-0.0959828570485115,0.31354790925979614,-0.45139482617378235,0.03147357702255249,0.1309816539287567,0.781208336353302,-0.32737720012664795,0.12431889772415161,-0.1628427952528,-1.1699368953704834,0.3278575539588928,-0.3427209258079529,-1.1551575660705566,-0.5461907386779785,0.09728506207466125,1.0907899141311646,-1.179783582687378,0.4772408604621887,1.6498897075653076,-0.2635422646999359,-1.071983814239502,0.004698100965470076,0.0014341440983116627,0.5872133374214172,-1.1808074712753296,-0.20704957842826843,0.15889671444892883,-0.8935614824295044,-0.45172029733657837,0.9745792746543884,0.118918277323246,0.26729997992515564,-0.4096299409866333,-0.7825281023979187,-0.19258911907672882,0.5653063654899597,-0.8336414694786072,0.6280893087387085,0.007339483592659235,-0.12944699823856354,1.418102502822876,0.09499069303274155,0.04740900173783302,0.6223796010017395,1.5952831506729126,0.21447959542274475,0.4437465965747833,-0.4461006224155426,-1.3305022716522217,-0.6359642744064331,1.104770302772522,0.8756425380706787,-0.0716739296913147,-0.052124593406915665,-0.4622609317302704,0.2095607966184616,-0.2769041657447815,-0.29812800884246826,0.26831385493278503,-0.3127175271511078,0.6959900856018066,0.4596235454082489,-0.046818267554044724,-0.3529161512851715,0.1123359352350235,0.0640728548169136,0.2683539390563965,-0.3951267898082733,-0.1450890302658081,0.3866114616394043,-0.29180923104286194,-0.270129919052124,0.4771593511104584,-0.1701749712228775,0.5034056901931763,0.39308038353919983,0.20568569004535675,0.3009622097015381,-0.23630163073539734,0.1045580729842186,0.026895765215158463,0.24813713133335114,-0.09952160716056824,0.00785068329423666,0.08567865937948227,-0.19440005719661713,0.6751836538314819,-0.23162806034088135,-0.28154894709587097,0.16008414328098297,0.39668846130371094,-0.002098993631079793,-1.0601119995117188,-0.36569198966026306,0.4585663676261902,-0.3608444631099701,-1.8121989965438843,4.129613399505615,-0.21122770011425018,-0.06762834638357162,-0.945544421672821,0.25501203536987305,-0.21630235016345978,-0.6357121467590332,-0.8002284169197083,0.012731307186186314,1.9930657148361206,0.8216492533683777,-0.05091571807861328,2.1345300674438477,0.3792073428630829,1.3659480810165405,0.2679968476295471,0.9711014628410339,-0.6484364867210388,2.0549635887145996,1.4666692018508911,-0.9936002492904663,0.6212813258171082,-0.35402512550354004,0.5687767267227173,-1.0379760265350342,0.9461913704872131,0.714519739151001,-0.45401015877723694,0.9230273962020874,-0.21716880798339844,2.3294968605041504,0.5694206953048706,0.0525316521525383,-0.06841614842414856,-0.6343956589698792,-1.0212119817733765,-0.48501718044281006,0.7636572122573853,-0.06442003697156906,-0.4640951454639435,0.13942718505859375,-0.2651640772819519,-0.4361282289028168,0.054049622267484665,0.4862844944000244,-0.7105648517608643,-0.8086249828338623,-0.25966811180114746,-0.9252164363861084,0.6100906729698181,-0.32528284192085266,-0.192669078707695,0.5447797179222107,0.3094748258590698,0.1947832852602005,0.5966246128082275,-0.579592227935791,-0.315019428730011,0.9757732152938843,-0.476937472820282,0.4482637047767639,-1.6691265106201172,1.1657049655914307,0.2791670560836792,-0.06350930035114288,1.072227954864502,-0.6157492995262146,0.1014980748295784,1.3176649808883667,1.4032055139541626,0.17303314805030823,-0.34180378913879395,-0.6137580871582031,0.816842257976532,-0.819426417350769,0.40760380029678345,0.23976753652095795,-0.6187516450881958,-0.07694251090288162,-0.2573094964027405,-0.3427591323852539,-0.3221239745616913,0.4493604898452759,0.6316496133804321,-0.20228509604930878,-0.3896767497062683,-0.861951470375061,0.1518794596195221,-0.4008750021457672,-0.017878049984574318,0.5490631461143494,-0.4794130325317383,-0.07494550943374634,-0.7043121457099915,-0.4788379669189453,1.2432688474655151,-1.1300842761993408,0.05229908600449562,0.27095139026641846,-0.6092501878738403,0.6390587687492371,-0.036963026970624924,0.6450054049491882,-0.25825339555740356,0.6544464826583862,-0.40001118183135986,-0.8558865785598755,0.3588036000728607,-0.8247911334037781,-0.19811028242111206,-0.47687599062919617,-0.44209396839141846,-0.09108024090528488,0.6100741624832153,-0.12432936578989029,-0.644382894039154,1.0323615074157715,-0.027658935636281967,-0.030426817014813423,-0.4205089509487152,-0.27342286705970764,-0.2649550437927246,0.37900829315185547,0.34868401288986206,-0.4926469624042511,-1.723081111907959,-1.999933123588562,0.4039885699748993,-0.11165567487478256,1.926717758178711,1.1132968664169312,0.03509272634983063,0.11511778086423874,-0.24817883968353271,0.22166681289672852,0.7377482056617737,-0.2827686667442322,-0.22804388403892517,1.127500057220459,-1.0267218351364136,0.2998601794242859,0.01436788123100996,-0.20455320179462433,-1.2212982177734375,0.4927663207054138,0.5717051029205322,-0.6936097145080566,0.17166367173194885,-0.8605970740318298,0.3314150869846344,-0.09220074117183685,-0.31306084990501404,0.10133427381515503,0.4762653708457947,-0.1453184336423874,-0.20650675892829895,0.5203273296356201,-0.7333765029907227,-0.5748209357261658,0.14132186770439148,0.7132171988487244,0.08607512712478638,-0.13862775266170502,0.2126184105873108,0.7589133381843567,0.15816821157932281,-0.8625838160514832,-0.5693377256393433,-0.48419201374053955,-0.02327466383576393,-0.43977683782577515,0.1475614309310913,0.7737900614738464,-0.40731140971183777,0.6908252239227295,0.026811234652996063,0.2944749593734741,-0.9052032828330994,1.0690574645996094,-0.5855467319488525,-0.3739783465862274,0.2731320261955261,-0.6498594880104065,1.0151124000549316,0.07905174791812897,-0.08199028670787811,0.12118183821439743,0.019059743732213974,-0.9891900420188904,-0.6139864921569824,-0.49714982509613037,-0.4546397924423218,0.4436624050140381,0.22983857989311218,0.6222313046455383,-0.3423815667629242,0.24072307348251343,0.04739084839820862,0.06677056103944778,0.9867032170295715,-0.9448065161705017,-0.30793529748916626,-0.7139154076576233,0.36543598771095276,0.6516311764717102,-0.2785380780696869,-0.09749724715948105,-0.05859057605266571,-0.11077851057052612,0.19226323068141937,0.09628774970769882,-0.09392847120761871,-0.3593948781490326,-0.14676283299922943,0.31728795170783997,1.5823280811309814,-0.2851596474647522,0.5401965975761414,-0.38869762420654297,-0.8846244215965271,-0.35555824637413025,-0.21641746163368225,-0.18601267039775848,-1.3344173431396484,0.4945330023765564,-0.6443912386894226,-0.4157349467277527,-1.4428629875183105,0.666912853717804,0.4338442087173462,1.044805884361267,0.15507090091705322,0.12357810884714127,0.7008043527603149,-1.0795636177062988,-0.45304206013679504,0.5675142407417297,-0.24140045046806335,1.0078599452972412,-0.6076036095619202,0.4385868310928345,1.119696021080017,-0.11478884518146515,-0.03473115712404251,0.3691781759262085,-0.704081118106842,-0.12046562880277634,-0.02227446250617504,-0.008172126486897469,0.7691352963447571,-0.9945590496063232,-0.35526010394096375,0.8507736921310425,-0.1330450475215912,-0.01999293453991413,-0.28716355562210083,0.058048032224178314,0.254299521446228,1.0231698751449585,-0.22354426980018616,0.17925144731998444,-0.43949711322784424,0.4533369839191437,1.329582929611206,-0.33399534225463867,-0.5733081102371216,0.1717359721660614,0.3578680753707886,0.06797350943088531,0.48931586742401123,-0.3392135500907898,-0.8239297866821289,0.8047812581062317,0.6618156433105469,0.9070525169372559,-0.01339150033891201,1.369211196899414,0.0007755125407129526,-1.145759105682373,0.16716675460338593,0.14798252284526825,-1.1182184219360352,0.6394103169441223,1.3426721096038818,-0.9563626646995544,-2.165569305419922,-1.4623862504959106,1.1488853693008423,0.2977932095527649,1.9664791822433472,0.9510592818260193,1.0486748218536377,-0.36256858706474304,0.40499043464660645,0.521704912185669,0.5253612995147705,1.3222534656524658,-0.15570040047168732,1.8787407875061035,-0.2612808048725128,-0.4580234885215759,0.4812586307525635,-0.9577643871307373,-0.7455613017082214,-0.26550689339637756,1.8347944021224976,-0.4457469582557678,-0.32217010855674744,-2.0499424934387207,-0.10631490498781204,0.09676945954561234,1.5402699708938599,0.03461872786283493,-0.7274976968765259,-1.539705753326416,0.901413083076477,1.4487000703811646,0.6197047233581543,-0.5989164710044861,0.27629417181015015,-1.22769033908844,1.437831163406372,4.018701076507568,-3.082505464553833,-2.4960010051727295,-3.1287450790405273,0.4113696217536926,-2.953213930130005,-1.38591468334198,-1.5577335357666016,-5.349318027496338,-1.12129807472229,0.0302243921905756,-0.11191591620445251,-4.64058256149292,-3.5501644611358643,-0.620725691318512,-0.960140585899353,-4.597261905670166,-2.326847553253174,-0.07626460492610931,-0.2447662502527237,1.5456498861312866,-0.5065262913703918,-1.732352614402771,-0.9269145131111145,-0.5651022791862488,2.3899221420288086,-2.1870787143707275,-0.7848164439201355,-2.5174195766448975,-0.5327199101448059,-0.9875529408454895,0.37309032678604126,-1.945765495300293,-1.1699711084365845,2.7092721462249756,-1.172804594039917,-0.6353198289871216,1.1535109281539917,1.6968785524368286,-0.5518869161605835,-0.2990969717502594,1.0268118381500244,-2.996314287185669,-0.7629259824752808,-4.195355415344238,0.7380794286727905,-0.4532604515552521,2.5133957862854004,-1.362752079963684,1.9014133214950562,1.0498073101043701,-0.5325055718421936,2.80680513381958,-3.9865760803222656,1.8418562412261963,-3.532416820526123,-1.331580638885498,0.4788427948951721,-2.5203628540039062,1.2652559280395508,-3.2545604705810547,2.1444034576416016,-0.6044304966926575,2.0901858806610107,1.4064602851867676,1.5262187719345093,-3.2147326469421387,-0.5730522274971008,-0.8655761480331421,-2.343626022338867,3.0717549324035645,0.040599431842565536,1.4104753732681274,-1.2744221687316895,2.7573211193084717,-0.0149777140468359,2.314814329147339,-1.8493983745574951,2.3409342765808105,1.0789823532104492,2.1788220405578613,0.04814573749899864,-2.6063878536224365,-2.5188612937927246,2.126304864883423,0.22211360931396484,-1.4977470636367798,-2.8952090740203857,1.501569151878357,0.2068386971950531,-0.8386210203170776,-1.291469931602478,-1.8223352432250977,-0.011117246001958847,-1.840215802192688,-0.07027565687894821,-0.22720415890216827,-2.4720849990844727,0.5413303971290588,0.4482136070728302,1.360757827758789,-3.126570224761963,0.01571919396519661,-1.2538424730300903,1.7484238147735596,3.2233030796051025,-1.618059754371643,-0.37308555841445923,-1.3425101041793823,-1.5206544399261475,0.20900946855545044,0.11481741815805435,0.010688403621315956,-0.0703374370932579,-2.183744430541992,2.1236116886138916,-1.6391503810882568,0.5386893153190613,0.9395735859870911,-2.6088545322418213,-1.7437347173690796,-0.23335804045200348,-1.1014962196350098,0.8752684593200684,0.8908193707466125,-1.6815415620803833,-0.2942301034927368,0.20907683670520782,2.507018804550171,1.4654533863067627,-0.9478668570518494,1.7131205797195435,6.148948669433594,0.7416544556617737,1.5461132526397705,-0.6240568161010742,-1.3308041095733643,-0.7886013984680176,-1.9818024635314941,2.0671794414520264,-1.3924494981765747,-0.607390284538269,0.1576324999332428,-0.4983147084712982,0.2518673241138458,-0.4760172367095947,1.6823137998580933,-0.8305827379226685,2.96014404296875,0.2645743787288666,-1.0015339851379395,1.7118571996688843,-0.043888725340366364,-0.1753842830657959,1.4041593074798584,0.14424698054790497,-1.3102766275405884,-0.014914941042661667,-0.022373570129275322,-1.159024953842163,0.7019450664520264,1.3395437002182007,-0.9540186524391174,-1.9150234460830688,-1.601236343383789,1.2087427377700806,0.16976916790008545,1.9590328931808472,0.9975584149360657,1.0790653228759766,-0.19644206762313843,0.44764915108680725,0.7369804382324219,0.5322888493537903,1.1072789430618286,-0.3143361210823059,1.7665830850601196,-0.07355955988168716,-0.3476804494857788,0.43160760402679443,-0.9242039322853088,-0.6541002988815308,-0.29478541016578674,1.5377808809280396,-0.48960208892822266,-0.1009906679391861,-2.137798309326172,0.07599638402462006,-0.05760275200009346,1.2305554151535034,-0.08024735003709793,-0.6196990609169006,-1.5545508861541748,-0.09122315049171448,1.4632192850112915,0.1468433290719986,-1.0077255964279175,0.0205979160964489,-0.06630940735340118,-1.0671616792678833,0.6844958066940308,1.3813085556030273,-0.9251559972763062,-1.799742341041565,-1.4632500410079956,1.2611498832702637,0.2557651698589325,1.9351170063018799,0.9790356159210205,0.9746049642562866,-0.24476605653762817,0.4392777681350708,0.7721639275550842,0.4734446704387665,1.0546634197235107,-0.39424946904182434,1.6692163944244385,-0.04302056506276131,-0.46134892106056213,0.24319802224636078,-0.9894347190856934,-0.6396781206130981,-0.22326485812664032,1.628727912902832,-0.38181865215301514,-0.22406405210494995,-2.059584856033325,0.024969670921564102,0.012615594081580639,1.1231178045272827,-0.005908597260713577,-0.6109125018119812,-1.3529751300811768,-0.5680703520774841,-0.9028745293617249,-1.3894498348236084,1.138213872909546,-0.24787583947181702,0.3036137819290161,1.9603742361068726,-0.13467763364315033,-0.20727713406085968,-1.6167423725128174,0.5825834274291992,0.3319568336009979,-0.44129887223243713,-1.7976971864700317,-0.9661339521408081,-0.36878955364227295,-1.8164317607879639,-0.12598095834255219,-1.0767700672149658,-1.3944056034088135,0.6582313179969788,-2.172322988510132,-0.13651959598064423,-0.9715953469276428,-1.23951256275177,1.2101694345474243,-0.7153946161270142,1.6886837482452393,0.6006181240081787,0.6530886292457581,-0.36518895626068115,0.6564258933067322,1.540636658668518,0.41886478662490845,1.0712568759918213,-1.7153061628341675,-2.5856130123138428,0.09779475629329681,1.1661851406097412,1.8611637353897095,0.590215265750885,-0.42971271276474,0.24190451204776764,-0.5474376678466797,1.4002331495285034,1.1028962135314941,0.4586973190307617,-0.9344950318336487,0.4069257080554962,0.654410183429718,0.7209915518760681,0.24154694378376007,-0.7762828469276428,-0.05831119418144226,0.6678423881530762,-1.0073461532592773,0.20804539322853088,-0.13152462244033813,0.828181803226471,0.48345324397087097,2.8787829875946045,1.005179524421692,0.6391577124595642,0.8976711630821228,-0.28243690729141235,-1.2468998432159424,0.5553738474845886,-0.7304155826568604,0.4889542758464813,-1.2578299045562744,-0.722052276134491,1.2679001092910767,-0.32567140460014343,1.306870698928833,-0.5328644514083862,1.1835700273513794,1.3189952373504639,0.4168998897075653,0.16157765686511993,0.4993225634098053,-0.2592494785785675,1.6705771684646606,0.03112468123435974,-1.140115737915039,-0.23200783133506775,0.4010257422924042,-1.0714595317840576,0.5325724482536316,1.6405761241912842,-0.6808750629425049,-2.06734299659729,-1.7520591020584106,1.0270980596542358,0.07053295522928238,2.328874349594116,0.7706552743911743,0.9551435112953186,0.015293648466467857,0.4213481545448303,0.9841907620429993,0.2001371681690216,1.2636160850524902,-0.4590928256511688,1.7531909942626953,0.22830864787101746,-0.45783546566963196,0.3893389105796814,-1.1367273330688477,-0.4239916503429413,-0.5113486051559448,1.2577502727508545,-0.18685182929039001,-0.2644096314907074,-2.1640067100524902,-0.13907980918884277,0.01852603070437908,0.8762341737747192,-0.01181498821824789,-0.5807809233665466,-1.4286295175552368,1.588895559310913,-1.999148964881897,-1.0137368440628052,2.1228444576263428,-3.497572660446167,-2.3516125679016113,0.8311283588409424,-0.6331732273101807,2.6358635425567627,-2.404244899749756,-3.6709930896759033,-1.3202637434005737,1.4546135663986206,-6.761753082275391,-0.2129906564950943,-0.7499181032180786,-0.683401882648468,0.20756012201309204,-2.5040230751037598,0.18808987736701965,3.503821611404419,-3.2467119693756104,1.1773849725723267,-0.9843254685401917,1.4713281393051147,0.9697305560112,-2.721639633178711,4.108496189117432,-0.941349983215332,-0.7512140274047852,-1.811687707901001,-1.1546192169189453,0.4159667193889618,0.09339690208435059,1.8527246713638306,-1.9174386262893677,-0.4919971227645874,-0.9983078241348267,-2.727959632873535,-3.0606155395507812,-0.2688644528388977,1.2631232738494873,0.1880338191986084,-1.1747490167617798,0.00126980384811759,-0.15182597935199738,-1.0403237342834473,0.5566911697387695,1.5975520610809326,-0.7424277067184448,-1.8952244520187378,-1.4663053750991821,1.1734042167663574,0.17563268542289734,2.010096788406372,0.8582738637924194,0.864087700843811,-0.08358480036258698,0.4899621903896332,0.7037492394447327,0.16699090600013733,0.9146422743797302,-0.2312885969877243,1.55046546459198,0.19269782304763794,-0.29575833678245544,0.532853901386261,-0.8511015176773071,-0.49479666352272034,-0.39302992820739746,1.0970147848129272,-0.24797533452510834,-0.11166530102491379,-1.9813565015792847,-0.14906631410121918,-0.06279727816581726,0.8693404793739319,-0.20222601294517517,-0.4870128333568573,-1.652246356010437,-0.06523888558149338,0.9938703179359436,0.009158415719866753,-1.1279913187026978,0.06391187757253647,-0.09996315091848373,-1.1998281478881836,0.8788771033287048,1.242375135421753,-0.6364853382110596,-1.766340970993042,-1.0877498388290405,1.2566286325454712,0.10633231699466705,1.6246591806411743,0.7758431434631348,0.857955813407898,0.05769913271069527,0.40762802958488464,0.6615682244300842,0.11631202697753906,0.9992555975914001,-0.08874984085559845,2.117656707763672,0.10201869159936905,-0.29489797353744507,0.7635670304298401,-0.8466792106628418,-0.6295364499092102,-0.5643103718757629,1.4822872877120972,-0.20470793545246124,-0.2039782553911209,-1.7698376178741455,-0.18339195847511292,0.08560033142566681,1.0183323621749878,-0.021610025316476822,-0.22653432190418243,-1.8697015047073364,-1.789835810661316,-0.5544705390930176,0.8756455779075623,-0.4790171980857849,-1.880255937576294,0.4349696934223175,-0.935429036617279,-0.21474452316761017,1.5908536911010742,0.4517567455768585,-1.6363917589187622,-1.3590632677078247,0.6446210145950317,-1.9415240287780762,2.0549750328063965,-1.2158737182617188,0.13343392312526703,0.32955941557884216,0.8956417441368103,0.14739306271076202,1.6108338832855225,-0.13389825820922852,0.5740365982055664,1.4262056350708008,-0.8959351181983948,0.046792685985565186,-2.205946683883667,0.03573969006538391,-1.189371943473816,-0.8812490701675415,1.5808451175689697,0.045315660536289215,0.9209967255592346,0.835718035697937,0.2761572301387787,-0.788408100605011,0.5264360308647156,-0.34802675247192383,0.6841450333595276,-0.5562912225723267,-2.3351244926452637,3.630584478378296,0.014279398135840893,0.5896788835525513,0.2785484790802002,4.480912208557129,0.011493710801005363,0.9216720461845398,-1.977413535118103,-0.09859375655651093,-1.575348973274231,0.057360537350177765,-2.2376368045806885,-1.0014660358428955,0.470815509557724,-2.0905072689056396,-0.9889582395553589,2.005998134613037,0.8449370265007019,1.9280359745025635,-2.434717893600464,2.69413685798645,-0.38313809037208557,0.14105965197086334,-2.115391731262207,-2.225484848022461,1.4522877931594849,-0.8104868531227112,2.2888364791870117,-1.0454550981521606,-0.10029665380716324,3.691141128540039,-0.5231600999832153,-2.7796785831451416,-0.5324756503105164,1.1478676795959473,0.15483616292476654,-0.1218085065484047,4.870723247528076,2.492778778076172,-0.12506312131881714,0.948040246963501,-0.049538690596818924,-1.0349940061569214,0.01982085593044758,-0.22787092626094818,-1.0852489471435547,1.0182219743728638,1.092978835105896,-0.6969548463821411,-1.6878918409347534,-1.0216089487075806,1.2238634824752808,0.057759691029787064,1.4240097999572754,0.6841947436332703,0.7993170619010925,-0.1581888198852539,0.26598596572875977,0.6366169452667236,0.16601845622062683,1.080156683921814,-0.09987512975931168,2.2300937175750732,0.15992307662963867,-0.24083471298217773,0.8022564053535461,-0.7795606255531311,-0.6010482311248779,-0.3493936359882355,1.4540904760360718,-0.06011944264173508,-0.2774701714515686,-1.7232340574264526,-0.22362381219863892,0.09892211109399796,1.2178781032562256,0.06090070679783821,-0.39043694734573364,-1.8898237943649292,-2.09533953666687,1.09420645236969,-0.6403034329414368,-0.013445486314594746,0.39410400390625,3.31653094291687,-0.6573541164398193,-1.5685724020004272,-1.5840387344360352,0.43192195892333984,2.127321481704712,2.316484212875366,-0.7228025197982788,0.9909620881080627,-1.9480066299438477,0.5826767086982727,0.29558131098747253,0.6456755995750427,-1.615970253944397,2.832442283630371,-0.1578526645898819,1.3750075101852417,-0.4250788390636444,-1.445897102355957,0.40723106265068054,-1.1348261833190918,2.8173129558563232,-1.3495591878890991,-2.0920169353485107,-0.19577544927597046,0.37495625019073486,1.0602383613586426,-1.9191622734069824,-0.009995343163609505,-0.7576966881752014,2.374242067337036,0.9702780842781067,0.5298729538917542,0.6766077876091003,-0.42606121301651,-1.0433316230773926,1.6143403053283691,0.8057574033737183,0.2906681001186371,-0.5579836964607239,-1.0477386713027954,0.4006403684616089,0.5653270483016968,0.3122168779373169,-1.2322304248809814,-1.7436386346817017,-1.4153636693954468,0.06186528876423836,0.528425931930542,1.7452715635299683,0.48003068566322327,1.3800350427627563,-1.0196367502212524,0.6277406811714172,1.6914352178573608,-0.5248031616210938,1.4956437349319458,-0.052446603775024414,1.5469204187393188,-0.22810252010822296,-1.058530330657959,0.048637036234140396,-1.4102694988250732,-0.4848964810371399,-0.39987701177597046,1.052828073501587,0.445804625749588,-0.038799285888671875,-1.1296905279159546,0.9975642561912537,0.9043828248977661,1.3459625244140625,0.7485201358795166,0.3049379587173462,-0.07051998376846313,1.1309704780578613,-0.3769552707672119,-0.9202966690063477,-0.3011305332183838,-0.2734736204147339,-0.3357876241207123,1.2272640466690063,-0.4786708950996399,1.6169837713241577,0.5211898684501648,0.7803047299385071,-0.9374483823776245,1.4887957572937012,-0.7577473521232605,0.24418088793754578,-0.8902117609977722,-0.9783928394317627,0.5879911184310913,-0.5975245237350464,-1.2891700267791748,0.5873416662216187,-1.3125791549682617,0.09634553641080856,1.155729055404663,0.5315985679626465,1.26792573928833,-0.07360248267650604,1.1435080766677856,0.7489511966705322,0.5869168043136597,-0.16410568356513977,-0.808312177658081,0.9261582493782043,-0.3430575728416443,-0.5041158199310303,-1.343628168106079,-0.9833057522773743,0.35446834564208984,-0.11634640395641327,0.8437070250511169,-0.07255873084068298,0.035267654806375504,-0.02101866900920868,0.061948228627443314,0.06522364169359207,-0.05807860940694809,0.0057484982535243034,0.05073445290327072,0.006162675563246012,-0.0520905964076519,-0.07017965614795685,-0.03411080315709114,-0.04986829310655594,-0.0001880685449577868,-0.07540678977966309,0.029125191271305084,0.07155558466911316,0.00884263962507248,-0.002707428764551878,-0.052947696298360825,0.04313512146472931,0.027233080938458443,0.07073792815208435,-0.06929177790880203,-0.030538002029061317,0.07475064694881439,0.023723803460597992,0.07680795341730118,0.06891360878944397,-0.0015682402299717069,-0.010380616411566734,0.054222676903009415,0.045276764780282974,-0.0578526072204113,0.025359615683555603,-0.007805395871400833,0.04767181724309921,-0.06422579288482666,0.04981614276766777,0.033542681485414505]},"hiddenLayers":[{"inputMatrix":{"rows":20,"columns":40,"weights":[0.20828618109226227,-0.04082502797245979,0.03845373913645744,0.09751258045434952,-0.18374520540237427,-0.3429926931858063,-0.20694774389266968,-0.0877416655421257,0.33871880173683167,0.006670564878731966,-0.27539557218551636,-0.46873635053634644,-0.003860112279653549,-0.07748333364725113,0.4165633022785187,0.08042534440755844,-0.04683728143572807,-0.3224194645881653,-0.026235172525048256,0.08849690854549408,0.23720960319042206,0.2577740550041199,0.2793293595314026,0.16605216264724731,0.2063225358724594,-0.2957650423049927,-0.35158082842826843,0.26347386837005615,0.30329471826553345,-0.34747618436813354,-0.1956743597984314,0.3931885361671448,-0.28797799348831177,0.061381999403238297,0.11788094788789749,0.2525886297225952,0.3842969238758087,0.34140387177467346,-0.1978762149810791,-0.29176008701324463,-0.024225687608122826,0.011414358392357826,0.1820778101682663,-0.004025348927825689,-0.02092437818646431,0.09216237813234329,0.00033727430854924023,0.193510964512825,-0.3315797448158264,-0.4578168988227844,-0.16960085928440094,-0.1331537514925003,-0.2538270056247711,-0.11235330998897552,0.11309816688299179,0.028189577162265778,0.18162216246128082,-0.21361321210861206,0.18786068260669708,0.1996208131313324,-0.08590380102396011,0.10962094366550446,-0.1787702590227127,-0.0745595172047615,-0.21195179224014282,-0.1289316564798355,0.1099172979593277,-0.09099993109703064,0.06576415151357651,-0.07214225828647614,-0.029051439836621284,0.3144357204437256,0.08078999817371368,-0.08184158056974411,-0.14914827048778534,0.09209375083446503,0.052910398691892624,-0.10812003165483475,0.17035897076129913,0.13963299989700317,0.053285159170627594,0.20943310856819153,0.15133515000343323,0.22991782426834106,0.13278964161872864,0.29105108976364136,0.5586297512054443,0.4044426679611206,0.13747866451740265,-0.11506186425685883,-0.25320062041282654,-0.5121265053749084,-0.11412092298269272,-0.08439245820045471,0.3216419219970703,-0.6869844794273376,-0.18250620365142822,-0.11109203845262527,-0.24703748524188995,-0.29924607276916504,0.15962080657482147,-0.34740301966667175,-0.11425381898880005,0.9439906477928162,-0.42001423239707947,0.1347196102142334,-0.08318467438220978,0.14707785844802856,0.27832499146461487,0.287227600812912,0.6696649789810181,0.10696088522672653,0.45650404691696167,-0.07405206561088562,0.0208489578217268,-0.6307762265205383,-0.4890079200267792,0.2789835035800934,-0.1817791759967804,0.9246169924736023,-0.3919302821159363,0.034396927803754807,-0.5010946393013,0.4132918119430542,-0.3502798080444336,0.5309662818908691,-0.00961642898619175,-0.5535736680030823,0.10948223620653152,0.08888675272464752,0.5269392728805542,0.14654260873794556,0.3251008093357086,0.024707918986678123,-0.23534607887268066,-0.425910621881485,-0.3180069327354431,0.23901863396167755,-0.46786534786224365,-0.33575955033302307,0.8140422105789185,-0.2750951945781708,0.3369161784648895,0.17496010661125183,-0.013185516931116581,-0.07167576253414154,0.15175019204616547,0.3722742795944214,0.13476772606372833,0.4720527231693268,-0.39939892292022705,0.14978866279125214,-0.19408470392227173,0.14249075949192047,0.3215680420398712,0.16873952746391296,-0.32047581672668457,0.020520197227597237,0.313353031873703,0.3963536322116852,-0.5623143911361694,-0.27619054913520813,0.07029377669095993,-0.46921297907829285,-0.5504171848297119,-0.5049306750297546,-0.061646468937397,-0.3827080726623535,0.19277064502239227,-0.2647838592529297,-0.43502432107925415,-0.24970395863056183,0.17375603318214417,-0.5813791155815125,0.42279911041259766,0.131981760263443,-0.11957859992980957,-0.018324432894587517,0.09331116080284119,0.3444802165031433,0.19011375308036804,-0.18130004405975342,-0.5848835706710815,-0.2810266613960266,0.27122676372528076,0.0904824510216713,-0.6303504705429077,0.10663169622421265,0.39320483803749084,0.023917434737086296,0.1615222692489624,-0.30501073598861694,0.3503029942512512,0.08838400989770889,0.2562669515609741,-0.14052417874336243,-0.05911277234554291,-0.32133832573890686,0.7220482230186462,-0.3613756000995636,-0.08447325974702835,0.1580026000738144,0.4153454005718231,0.2591196894645691,-0.320772647857666,-0.03801582008600235,-0.14587163925170898,0.35856714844703674,-0.033494748175144196,-0.3574076294898987,-0.7882903814315796,-0.44729265570640564,-0.4560447633266449,0.057836126536130905,0.5571244955062866,-0.13038864731788635,-0.05390150099992752,-0.28438493609428406,0.19823630154132843,0.13698942959308624,0.03289533779025078,0.06570564955472946,0.1797613501548767,0.32984283566474915,-0.7148388624191284,-0.1732204258441925,-0.17377488315105438,0.025709012523293495,0.05475866049528122,-0.40939992666244507,-0.08227664232254028,0.5067536234855652,-0.037494514137506485,-0.03792809695005417,0.11889544129371643,0.11827556788921356,0.1584794819355011,0.4754868745803833,0.19039344787597656,0.046689774841070175,0.2305709570646286,-0.30336636304855347,0.5592315793037415,-0.4342430531978607,0.15504461526870728,-0.4579051434993744,-0.1964787393808365,0.08015620708465576,0.26355811953544617,-0.14143502712249756,-0.5714797973632812,-0.5204957723617554,-0.10980984568595886,-0.5435665249824524,0.39174482226371765,0.2281470149755478,-0.002837752690538764,-0.15030154585838318,0.4683956801891327,0.07245463132858276,0.2305123656988144,-0.4426810145378113,-0.64886873960495,-0.1868964433670044,-0.1021725982427597,0.18409079313278198,-0.6328361630439758,0.3196790814399719,0.16217420995235443,-0.20534628629684448,0.7263553738594055,-0.3548356890678406,0.30412572622299194,0.26307275891304016,-0.11082127690315247,-0.03213227540254593,-0.10123586654663086,-0.144107848405838,0.11142135411500931,-0.2916654646396637,0.12230978906154633,0.20813977718353271,0.4403838813304901,-0.21327313780784607,-0.268815815448761,-0.1586519330739975,0.27726271748542786,1.112297773361206,-0.16211411356925964,-0.22177867591381073,-1.1245237588882446,-0.07616554945707321,-0.704486608505249,-0.14253586530685425,-0.18836049735546112,-0.3082335293292999,-0.2915543019771576,0.15563955903053284,0.3308599889278412,-0.6029108762741089,-0.3486568033695221,-0.3883022964000702,-0.03619766980409622,0.13820737600326538,-0.8511465787887573,0.4714677929878235,0.05266904458403587,0.5712453722953796,-0.4130024015903473,-0.021303297951817513,0.0030235417652875185,-0.024434417486190796,0.782963752746582,-0.3998033106327057,-0.19670414924621582,-0.6599336862564087,-0.5290623307228088,-0.5423340797424316,0.2144957035779953,-0.4633709192276001,-0.07099328190088272,0.35767343640327454,0.262044221162796,-0.10214673727750778,-0.18628959357738495,0.18547454476356506,0.12941595911979675,0.20803649723529816,-0.23533472418785095,-0.08006983250379562,-0.3227265477180481,-0.22819210588932037,-0.15043888986110687,-0.05103503167629242,0.20289063453674316,0.08286330848932266,0.10630307346582413,0.07649616152048111,0.23979608714580536,0.3325941860675812,-0.20387578010559082,-0.0038848980329930782,-0.3516610562801361,0.20279370248317719,-0.3698171377182007,-0.10895755887031555,0.3277144134044647,-0.16574423015117645,-0.34572407603263855,-0.18199297785758972,0.17538794875144958,-0.0314202755689621,0.21170176565647125,-0.21518780291080475,-0.316218763589859,0.04359933361411095,0.0268440879881382,-0.021159963682293892,0.18587832152843475,-0.12597094476222992,-0.2787516117095947,0.617080807685852,-0.11495211720466614,0.6581203937530518,-0.023758532479405403,0.27116328477859497,0.23985569179058075,-0.11157350242137909,0.0009768278105184436,-0.08879213035106659,-0.4155597686767578,-0.6309261918067932,0.32926738262176514,0.18621604144573212,0.41702380776405334,-0.18058928847312927,0.22509142756462097,-0.1695827692747116,-0.7252265810966492,0.05179402604699135,0.36526548862457275,0.11378268897533417,-0.04358423128724098,0.9839577078819275,-0.8492586016654968,0.0005246971268206835,0.056628040969371796,-0.5228808522224426,-0.37899696826934814,0.3906680941581726,0.6649762392044067,0.23574337363243103,-0.2626611292362213,-0.2558169960975647,0.5409457683563232,0.27192142605781555,-0.27096027135849,0.6226363182067871,-0.39468902349472046,0.28611063957214355,-0.17997606098651886,0.21911926567554474,0.07293631136417389,0.021152563393115997,-0.14269325137138367,0.18951602280139923,0.2719307243824005,-0.2230387032032013,0.19648613035678864,-0.097945936024189,0.1271836757659912,-0.06856536865234375,-0.024116113781929016,-0.17269474267959595,-0.07595422863960266,-0.1523100733757019,-0.0861368179321289,-0.15053153038024902,-0.14017708599567413,0.02958783693611622,0.282010942697525,-0.2873086929321289,0.17790362238883972,0.15224574506282806,-0.2326154261827469,0.06687553226947784,-0.10100698471069336,0.3011265993118286,0.02363351359963417,0.22915713489055634,-0.0560336634516716,0.07414253056049347,0.08056645840406418,-0.04188387095928192,-0.12800917029380798,0.04740091413259506,0.08367632329463959,-0.07150742411613464,0.4201919734477997,-0.13284754753112793,-0.3754603862762451,0.5213491320610046,-0.11141767352819443,0.4568495452404022,-0.28512462973594666,1.4352132081985474,1.1232362985610962,-0.004372658208012581,-0.35529741644859314,0.3081929683685303,0.11071836203336716,-0.1640373319387436,-0.4037805199623108,0.0874539315700531,0.2012573927640915,-0.9279213547706604,-0.5292320847511292,0.4273022711277008,-0.6579557657241821,-0.12449263036251068,-0.10844650864601135,-0.2427891343832016,-0.2536791265010834,1.0383015871047974,0.18916229903697968,0.13258202373981476,-0.13151417672634125,-0.1876661777496338,0.2927553057670593,0.4961515963077545,0.6156776547431946,0.5976830124855042,0.7161917686462402,0.10623456537723541,-0.024347251281142235,-0.5129719376564026,-0.8159360289573669,0.5132229328155518,-0.16146452724933624,1.6204363107681274,-0.8536186814308167,-0.313597708940506,-0.5921639204025269,0.2628006339073181,-0.9134654402732849,0.24289770424365997,-0.21683213114738464,-0.11665067821741104,0.10583276301622391,-0.5664168000221252,-0.3294695019721985,-0.484279066324234,0.36942818760871887,-0.28037765622138977,0.4530722200870514,0.7455271482467651,0.2451491802930832,0.11670365184545517,-0.7663268446922302,0.7630655765533447,0.04668736457824707,0.21503880620002747,0.348611980676651,-0.060827985405921936,-0.6391463279724121,-0.06429465860128403,0.6557590961456299,-0.6807990074157715,-1.2583987712860107,0.99924635887146,0.31354260444641113,0.08994672447443008,-0.015774622559547424,-0.41248464584350586,0.5174826979637146,0.1577012985944748,-0.5884765982627869,0.11502445489168167,0.1621425896883011,0.08641766011714935,-0.3658134937286377,-0.10822998732328415,0.024874992668628693,0.3718154728412628,0.001978900982066989,-0.12043994665145874,-0.13914693892002106,0.07489696890115738,-0.13097096979618073,-0.32671260833740234,-0.5314788818359375,-0.28647175431251526,-0.17762956023216248,0.20548895001411438,0.44210726022720337,0.23788946866989136,0.34274816513061523,-0.2855611741542816,-0.13433901965618134,0.7793366312980652,0.21002830564975739,0.3359534442424774,0.1679973155260086,0.24299997091293335,-0.9113876819610596,-0.2992485463619232,0.09984830021858215,-0.5516656637191772,-0.030365753918886185,0.0027995542623102665,0.1310354620218277,0.32828083634376526,-0.29396307468414307,-0.05504818633198738,0.5118058919906616,0.35873904824256897,0.16233307123184204,0.2453283965587616,0.008612181060016155,0.15484647452831268,0.08415938913822174,0.002536573214456439,-0.05970439687371254,0.4044453799724579,0.1162588968873024,0.32465314865112305,0.3491614758968353,0.1703639030456543,0.08226504921913147,0.6853420734405518,0.23287130892276764,-0.1967562884092331,-0.2962248623371124,-0.36802414059638977,-0.18957461416721344,-1.0111829042434692,-0.8043899536132812,0.18949900567531586,-0.19196458160877228,-0.7286748290061951,0.325435072183609,-0.6142449975013733,-0.025383073836565018,0.45437419414520264,-0.23794327676296234,0.14553086459636688,-0.6228466629981995,0.6860254406929016,0.9189396500587463,-0.29039520025253296,0.014593193307518959,0.28418195247650146,-0.11733665317296982,0.26095902919769287,0.1043592095375061,-0.251537948846817,-0.08549156785011292,0.26091259717941284,0.36484387516975403,0.8223451972007751,-0.16099698841571808,0.05343932285904884,0.034879058599472046,-0.22184717655181885,0.31006258726119995,0.21079200506210327,-0.032203949987888336,-0.4245176613330841,-0.022518504410982132,-0.15473070740699768,0.30642640590667725,0.2083580046892166,-0.04123436659574509,-0.28131696581840515,-0.28156042098999023,0.032494474202394485,0.17814382910728455,0.035544417798519135,-0.07962430268526077,0.35925883054733276,0.15953251719474792,0.03096071258187294,-0.3544851839542389,-0.08989200741052628,-0.026159189641475677,-0.2192823439836502,-0.046123623847961426,-0.08001936227083206,0.1136205866932869,0.2077038586139679,-0.06875590234994888,0.10630448907613754,0.011883934028446674,-0.03578731417655945,-0.21766617894172668,0.07726667821407318,0.09056102484464645,-0.024356888607144356,0.45126596093177795,-0.07036802917718887,0.03057096153497696,0.18108484148979187,-0.2258853167295456,0.18756280839443207,-0.1637599617242813,-0.26725122332572937,0.19002778828144073,0.2119700014591217,0.12219134718179703,-0.23974069952964783,-0.6007420420646667,-0.31381863355636597,0.2826158404350281,-0.2661099135875702,0.30136972665786743,-0.6173853874206543,-0.2936862111091614,-0.10454638302326202,-0.1891116350889206,-0.594357967376709,-0.15497730672359467,-0.20555919408798218,0.15999813377857208,0.08533638715744019,0.03855235502123833,0.19271332025527954,-0.3873709440231323,0.37314531207084656,0.23216556012630463,-0.2358870804309845,-0.2687954008579254,0.21473579108715057,0.20529060065746307,-0.27335768938064575,0.06601438671350479,-0.33435043692588806,-0.08363109081983566,0.35957881808280945,0.05054140463471413,0.2911212742328644,0.08239353448152542,-0.36419156193733215,-0.3416416049003601,0.2943713366985321,-0.038112822920084,-0.08041661232709885,-0.6154752969741821,0.1396150439977646,0.0631861761212349,0.2696641683578491,-0.04401471093297005,-0.33109596371650696,0.2723844051361084,-0.06220871955156326,0.2839253842830658,0.041233692318201065,-0.14455628395080566,0.24942336976528168,0.07332649827003479,0.26188966631889343,0.3562678396701813,0.06278423219919205,-0.25639718770980835,0.04116927459836006,0.10413774847984314,0.20419123768806458,-0.5122072100639343,0.19750727713108063,0.8597673773765564,-0.09084560722112656,-0.002114449394866824,-0.3322993814945221,-0.35871294140815735,0.40349870920181274,0.7405044436454773,0.31545794010162354,-0.3078726530075073,-0.1646951138973236,0.19640101492404938,0.3367050290107727,0.0002012327895499766,-0.04917110502719879,0.08529593795537949,-0.114704430103302,-0.03339388221502304,-0.04470367357134819,-0.21428292989730835,-0.03841214254498482,0.008136172778904438,-0.1451614499092102,-0.06369379907846451,0.11871010065078735,0.0998932495713234,-0.20037025213241577,-0.03594377264380455,-0.13231617212295532,0.050849638879299164,-0.14968982338905334,0.19244758784770966,0.09624313563108444,0.0818992555141449,0.06650811433792114,0.06623556464910507,-0.1774507462978363,0.1254555583000183,-0.015367741696536541,0.018034260720014572,0.2557106614112854,0.3113287389278412,-0.1973249465227127,-0.07601997256278992,0.19396516680717468,0.08561564236879349,-0.07365451008081436,-0.2688356339931488,0.0484047569334507,0.3866763710975647,-0.19029992818832397,0.19974090158939362,-0.13082687556743622,-0.08423718810081482,0.5386660099029541,-0.4987456798553467,-0.3205152153968811,0.006904228124767542,0.7464794516563416,-0.10640738159418106,-0.39588692784309387,0.27585017681121826,0.20039840042591095,0.3760141134262085,-0.01584230735898018,0.2618030309677124,-0.307119756937027,-0.27862852811813354,0.4443855881690979,-0.27276307344436646,0.3306109607219696,-0.4840662479400635,0.38887128233909607,0.7542136311531067,-0.18883751332759857,-0.27705395221710205,0.22543372213840485,0.5807252526283264,0.035717397928237915,0.4566437900066376,-0.20230884850025177,-0.08975677192211151,0.6828082203865051,-0.25340235233306885,-0.18425384163856506,0.06949450075626373,-0.35653603076934814,-0.6139637231826782,-0.06791681051254272,-0.2822128236293793,-0.14505884051322937,0.5961318612098694,0.16819989681243896]},"inputHidden":{"rows":20,"columns":20,"weights":[0.32713979482650757,0.8075624704360962,-1.0969961881637573,-1.065628170967102,-0.838706374168396,0.5535941123962402,-0.4106513559818268,0.5944152474403381,-0.48333221673965454,0.3788667321205139,-0.9185236096382141,0.2098473459482193,-0.19874031841754913,0.23785029351711273,1.3600293397903442,0.02425764687359333,-0.32926812767982483,-0.5602551698684692,0.48002657294273376,0.8856129050254822,-0.2819904386997223,0.6924006938934326,0.2036558836698532,-0.7786232233047485,-0.12679702043533325,0.3439372777938843,-0.39940953254699707,0.5140184164047241,-0.6656462550163269,0.11659438163042068,-0.461746484041214,-0.10221391916275024,0.22598639130592346,0.3961545526981354,0.6468002200126648,-0.5898171663284302,-0.42461004853248596,0.10130885243415833,0.721903383731842,-0.01939747855067253,-0.11008100211620331,0.5849377512931824,-0.7971410155296326,-0.45460936427116394,-0.44089174270629883,0.28177323937416077,-1.2025353908538818,0.3594806492328644,-0.3908744156360626,0.31054142117500305,-0.09668569266796112,0.8598812222480774,-0.4590056240558624,0.6265403628349304,1.1514101028442383,0.22020527720451355,-1.1657487154006958,-0.7426236867904663,0.4604882001876831,-0.8674477338790894,-0.9418069124221802,0.2701515555381775,0.7428788542747498,-0.5086467266082764,-0.6756365895271301,0.41792240738868713,-0.3007427453994751,0.2820579409599304,-0.298715204000473,-0.14888519048690796,-0.39249974489212036,-0.35494428873062134,0.18918967247009277,0.3819572925567627,-0.22028116881847382,-0.04953828454017639,-0.4647372364997864,0.7589304447174072,0.24539336562156677,-0.5115706324577332,-0.1909826099872589,0.4863782525062561,-0.3453116714954376,-0.4744768738746643,-0.9319358468055725,0.579851508140564,-0.8994092345237732,0.9155384302139282,-0.4257449805736542,0.5464619994163513,-0.10443536192178726,0.5803051590919495,0.025169584900140762,-0.21074077486991882,0.33515235781669617,0.4236562252044678,-0.4991911053657532,-0.1479964256286621,0.47094103693962097,-0.3933650553226471,-0.22973307967185974,0.08227517455816269,-0.3548240065574646,-0.6401747465133667,0.5479894876480103,0.0183951947838068,0.23740364611148834,0.11770080775022507,-0.17701075971126556,0.005318329203873873,-0.10752425342798233,0.2617224156856537,-0.4331617057323456,0.45428451895713806,0.04329976066946983,0.06909098476171494,0.3830173909664154,0.1097271740436554,0.14202731847763062,0.8901558518409729,-0.09092746675014496,0.4440487027168274,-0.1307068169116974,-0.8753605484962463,-0.3191191256046295,0.7343698143959045,-0.6340929269790649,0.41018030047416687,-0.7078308463096619,0.14790278673171997,-0.5600603222846985,-0.4226871132850647,0.43805795907974243,-0.08906804025173187,0.9643081426620483,-0.7052362561225891,-0.4102634787559509,0.4552321434020996,0.9438230991363525,-0.11284403502941132,-0.13914315402507782,0.3340310752391815,-0.3314564824104309,-0.7343099117279053,0.2610262334346771,0.4321598708629608,0.4331466555595398,0.3172886371612549,-0.4663016200065613,-0.1682654172182083,-0.3934006094932556,0.2059566229581833,0.2159014344215393,0.550987184047699,0.19350486993789673,-0.3476863503456116,-0.35439762473106384,-0.08547209948301315,0.4903382956981659,-0.10491826385259628,-0.5389410257339478,0.16372349858283997,-0.015885010361671448,-0.5527518391609192,0.5666490793228149,0.019630754366517067,0.1594894379377365,0.1297944337129593,-0.17308303713798523,0.38175469636917114,-0.255359947681427,0.4162208139896393,-0.38089519739151,0.3630758225917816,0.10856888443231583,-0.17712175846099854,0.1741180568933487,0.22019034624099731,0.10915127396583557,0.8079398274421692,-0.6316575407981873,0.5444852709770203,-0.46986016631126404,-0.2616395354270935,-0.9084344506263733,0.6787542104721069,-1.148997187614441,0.05053522065281868,-0.6175636053085327,0.4751855731010437,-0.5725277066230774,0.004428211599588394,0.06615149229764938,0.07824604958295822,0.12029533088207245,-0.6069066524505615,-1.341488242149353,-0.7672591805458069,0.37105947732925415,-0.8447526693344116,0.1716017723083496,0.5182638168334961,-0.22558841109275818,-0.9605558514595032,-0.17312833666801453,0.667899489402771,-0.4025476574897766,0.5121411085128784,-0.6808424592018127,0.3723087012767792,-0.399235337972641,0.3107185363769531,-0.22521278262138367,0.34356775879859924,0.7245275974273682,-0.3464828133583069,-0.25429973006248474,0.5502641797065735,0.611670970916748,0.5641664862632751,-0.40760815143585205,0.3910375237464905,0.2678679823875427,-0.06451581418514252,-0.8782154321670532,0.5012531280517578,-2.006600856781006,1.128062129020691,-0.5605321526527405,0.25822728872299194,0.1257568895816803,-0.2390652745962143,0.047796133905649185,-0.03561069816350937,0.06757037341594696,-0.16359378397464752,-0.7105440497398376,-0.7937845587730408,0.07479890435934067,-1.3028039932250977,-1.0698678493499756,0.3849494159221649,0.581007182598114,-0.6457667350769043,-0.5247742533683777,0.572897732257843,-0.32559794187545776,1.0699505805969238,-0.5429974794387817,0.1584005355834961,-0.6046915650367737,-0.30287474393844604,0.5378543138504028,0.4569253623485565,0.5499839782714844,-0.8796899318695068,-0.6230108737945557,0.4384983479976654,0.1595599353313446,-0.5658243894577026,-0.2300446778535843,0.2049863189458847,-1.3195172548294067,-0.2700982093811035,-0.7674335241317749,0.42114195227622986,-0.16076970100402832,-0.07305525988340378,-0.2434103786945343,-0.3418252766132355,-0.10833071917295456,0.4593120515346527,1.2610881328582764,1.0258352756500244,0.08543217182159424,-0.7589899301528931,-0.36916959285736084,-0.05716650187969208,0.5103024840354919,-0.20500580966472626,0.13705919682979584,0.3015366494655609,-0.12520191073417664,-1.59317946434021,0.468845397233963,0.26675987243652344,-0.41836434602737427,0.6276785135269165,-0.29195377230644226,0.5486547946929932,-0.12707653641700745,-0.1831531673669815,0.009126699529588223,0.2162109911441803,1.1343218088150024,-0.34781521558761597,0.020192133262753487,0.9911442995071411,0.5905866622924805,1.0157843828201294,0.1275206208229065,0.3461414575576782,-0.1896466761827469,-0.9739701151847839,0.0055907294154167175,0.5221713781356812,-0.7091818451881409,0.8979939222335815,-0.5437705516815186,1.0962008237838745,-0.5248599052429199,0.42378053069114685,-0.29987016320228577,-0.8300498723983765,0.44960904121398926,-0.19900470972061157,0.1376083642244339,0.0022808141075074673,0.3163466155529022,0.15052105486392975,-0.3242766857147217,0.7277114987373352,0.09412502497434616,-0.6136307716369629,-0.21732324361801147,0.8268290758132935,-1.0033087730407715,0.4135860800743103,-0.8885907530784607,0.4082205295562744,-0.7035322189331055,-0.18024317920207977,-0.17387624084949493,0.4933107793331146,1.5292506217956543,-0.3258933424949646,0.00274653104133904,-0.13321740925312042,0.759842038154602,0.31869444251060486,-0.10152353346347809,0.22457174956798553,-0.804093062877655,-1.5650527477264404,-0.09155983477830887,1.1452696323394775,-0.15910935401916504,1.1147063970565796,-0.5216106176376343,1.3259449005126953,-0.8927022814750671,1.077634334564209,-1.185154914855957,-0.2895771861076355,1.42816162109375,-0.03822917118668556,-1.9012728929519653,-0.23631367087364197,0.6936522722244263,1.7170381546020508,-0.41239285469055176,0.45788323879241943,0.09205497801303864,-0.5874795317649841,0.08112163096666336,0.4075939357280731,-0.30952873826026917,0.29301416873931885,-0.385976105928421,0.18838465213775635,-0.3698423504829407,0.10460366308689117,0.26216980814933777,0.41620391607284546,0.7537213563919067,-0.29888007044792175,-0.32569366693496704,0.09481649845838547,0.3881993889808655,0.024597421288490295,-1.036714792251587,-0.00490545853972435,0.028171049430966377,0.26897290349006653,-1.2042438983917236,0.40205997228622437,-0.5068851113319397,0.11683641374111176,-0.11811334639787674,-0.030513187870383263,0.10566098988056183,0.20506314933300018,0.421186625957489,0.5345844030380249,0.12362173199653625,0.06730955839157104,-0.7857033014297485,-1.1707137823104858,-0.04152519255876541,-1.0147374868392944]},"inputBias":{"rows":20,"columns":1,"weights":[-0.25482866168022156,0.13435997068881989,0.671604573726654,0.20163734257221222,0.3621865510940552,0.390613853931427,-0.36245429515838623,0.08785612881183624,0.16581028699874878,0.13166585564613342,0.4578962028026581,0.49619391560554504,-0.08498231321573257,-0.13298198580741882,0.35222864151000977,-0.25132495164871216,-0.27528753876686096,-0.2896336317062378,0.052119746804237366,0.2466801553964615]},"forgetMatrix":{"rows":20,"columns":40,"weights":[-0.6823592782020569,0.1861235648393631,-0.3627021312713623,0.814577043056488,-0.7105553150177002,0.47170042991638184,-0.17637139558792114,0.28392356634140015,-0.16154806315898895,-1.098445177078247,0.11944039165973663,0.34113651514053345,-0.7024365067481995,0.5137900710105896,-0.1712077111005783,-0.014258068054914474,0.09350359439849854,-0.5878488421440125,-0.46526235342025757,-0.6065084934234619,0.1696564108133316,0.4466288685798645,0.28628432750701904,0.009814640507102013,0.06151171028614044,-0.6685085892677307,-0.08092740178108215,0.5895795822143555,0.6490387320518494,-0.14924190938472748,-0.45625796914100647,0.9240080714225769,-0.18129605054855347,-0.19711056351661682,0.5763815641403198,0.8653982877731323,0.8107035756111145,0.09849699586629868,0.5290433168411255,0.47882938385009766,-0.06192820519208908,0.39021191000938416,-0.028215134516358376,0.3693791329860687,-0.11235474050045013,-0.038289010524749756,-0.15476840734481812,0.4676809012889862,-0.09437877684831619,0.05134144797921181,-0.5580307245254517,0.2436416745185852,-0.266090452671051,0.028027236461639404,-0.2941887676715851,0.19785502552986145,0.009865475818514824,0.008190345019102097,0.09389836341142654,0.5667281150817871,-0.4014979600906372,0.21956481039524078,0.47152456641197205,-0.32525360584259033,-0.028827670961618423,-0.056447215378284454,0.27180877327919006,-0.1506085991859436,-0.1798202395439148,-0.39073511958122253,-0.37996706366539,0.12488357722759247,-0.08121756464242935,-0.45162051916122437,0.013221204280853271,0.20602485537528992,0.20032986998558044,0.06506489217281342,0.15067583322525024,-0.4856424033641815,-0.25473883748054504,0.16876143217086792,0.13257692754268646,0.620322048664093,-0.28994983434677124,-0.006595292128622532,-0.24098531901836395,-0.19979256391525269,-0.28656822443008423,-0.4087119400501251,-0.09917305409908295,0.3053513169288635,0.09932476282119751,0.25948306918144226,-0.3224344849586487,0.16659311950206757,0.5232037901878357,-0.28102225065231323,-0.038045477122068405,0.5219876170158386,-0.08229073137044907,0.5824819207191467,0.5616453886032104,-0.7255682945251465,-0.27290400862693787,-0.5291420817375183,0.10490782558917999,-0.10068073123693466,-0.6323356032371521,-0.2951224446296692,-0.773852527141571,0.4599725008010864,-0.45177385210990906,-0.0022455959115177393,0.42470982670783997,0.9452482461929321,0.5590575337409973,0.4421245753765106,0.3217354714870453,-0.7049862146377563,0.12887221574783325,-0.2880007326602936,-0.07047232985496521,-0.835978090763092,0.18272872269153595,0.9746575951576233,0.18748807907104492,-0.2002546191215515,-0.3579273223876953,0.4616323709487915,0.5366577506065369,0.4316555857658386,-0.3358766734600067,-0.9341635704040527,-0.40886354446411133,-0.141099214553833,-0.43417537212371826,0.8760945796966553,-0.06170220673084259,0.21039405465126038,0.009299103170633316,-0.3460698127746582,-0.7842172384262085,0.04897115379571915,0.33297932147979736,0.147287979722023,0.06167608126997948,0.15955843031406403,0.259583443403244,-0.12081176042556763,0.17765240371227264,-0.40189430117607117,0.5582136511802673,0.19581301510334015,-0.7001050114631653,-0.587319016456604,-0.8074212670326233,-0.7193405032157898,0.04522041603922844,0.36552348732948303,-0.3335515558719635,0.4356957972049713,-0.184591606259346,0.259365975856781,-0.44250917434692383,-0.4301803708076477,-0.05527782812714577,0.3316574990749359,0.7632359862327576,-0.7032621502876282,-0.6978604793548584,-1.0531258583068848,0.06646182388067245,0.4510338604450226,0.6929452419281006,0.16550175845623016,0.26796025037765503,-0.8097631335258484,0.18702605366706848,-0.5008299350738525,-0.0324665792286396,0.15328507125377655,0.4560679495334625,0.7723026871681213,0.07020420581102371,-0.1250091940164566,-0.27762094140052795,-0.056354671716690063,-0.061288632452487946,-0.30105656385421753,0.11199777573347092,-0.3331044912338257,-0.16361679136753082,-0.56712806224823,0.826254665851593,-0.023392818868160248,0.3495047390460968,-0.006436785217374563,-0.02275080606341362,0.49782440066337585,0.006579570472240448,0.001826403196901083,0.1742449402809143,0.21844254434108734,-0.23051364719867706,0.016951659694314003,-0.2044260948896408,0.8982625603675842,0.05845722556114197,-0.16060368716716766,-0.7632241249084473,-0.5443832278251648,-0.660435676574707,0.12470518052577972,0.3799116611480713,0.12455106526613235,-0.07246021181344986,-0.16419972479343414,0.5871715545654297,0.23650458455085754,-0.33723872900009155,0.07838908582925797,-0.04559720307588577,0.31507837772369385,-0.5102341771125793,-0.1535511612892151,-0.04031497612595558,-0.023274201899766922,0.26591742038726807,-0.9125413298606873,0.1533632129430771,0.2893645763397217,0.10170596092939377,-0.37918031215667725,0.056450340896844864,-0.08517415076494217,0.02438325062394142,0.29301854968070984,-0.3664514124393463,-0.07571545243263245,0.14430157840251923,-0.3736328184604645,-0.10095905512571335,0.33888715505599976,0.02746259607374668,-0.8051561117172241,-0.7577517628669739,0.420276403427124,0.5210150480270386,-0.11191429197788239,-0.5580087900161743,-0.9391531944274902,-0.06379684805870056,0.21779777109622955,0.29780152440071106,0.0898287370800972,0.08444854617118835,-0.5404364466667175,0.09150045365095139,-0.4640958905220032,0.2410416603088379,0.08542492240667343,0.32729148864746094,-0.0368020161986351,-0.22997187077999115,-0.38500678539276123,-0.8057386875152588,-0.09054295718669891,0.22324524819850922,-0.5008479952812195,-0.30008217692375183,0.021864579990506172,-0.4308924078941345,-0.001626226701773703,0.5343858003616333,0.2585192918777466,0.49103623628616333,0.3250524401664734,-0.26775798201560974,-0.624264121055603,0.18350505828857422,0.26359573006629944,0.25180378556251526,-0.4420342445373535,-0.12238592654466629,-0.18200328946113586,-0.11083556711673737,1.391448974609375,0.283541738986969,-0.21804796159267426,-0.9317318201065063,-0.18170563876628876,-0.9870783686637878,-0.2918301224708557,-0.29477259516716003,-0.05192967876791954,-0.20366747677326202,-0.20825804769992828,0.3752897083759308,0.008855949155986309,-0.23074574768543243,-0.3659813404083252,0.10446467995643616,-0.3284727931022644,-0.9457197785377502,0.23520605266094208,0.2235952615737915,0.44959309697151184,-1.0129505395889282,-0.0767936185002327,-0.269914448261261,-0.24560479819774628,0.22091612219810486,-0.8048328161239624,-0.07899118214845657,-0.30787092447280884,-0.1892206370830536,-0.6970365643501282,0.18779125809669495,-1.1948240995407104,0.07868599146604538,0.13151131570339203,0.11053568869829178,0.1820903718471527,-0.1313524693250656,-0.14687862992286682,0.00849583838135004,0.6817111968994141,-0.07943766564130783,-0.172506183385849,-0.666343092918396,-0.22142601013183594,-0.6141093373298645,0.14995333552360535,0.1179489716887474,-0.1749562919139862,0.042417481541633606,-0.2219962477684021,0.4370320737361908,0.2912602424621582,-0.5815320014953613,0.3564693331718445,0.2624773681163788,0.13287761807441711,-0.45268839597702026,-0.34049829840660095,-0.1097128689289093,-0.3546096682548523,0.09665485471487045,-0.7739736437797546,-0.06040284410119057,0.5996859073638916,-0.028236065059900284,-0.22736315429210663,0.012183595448732376,-0.10509901493787766,0.1720573455095291,0.18502740561962128,-0.2277560830116272,0.07420586794614792,-0.3790527284145355,-0.5309090614318848,0.46050944924354553,0.06963413953781128,-0.7580313086509705,-1.3616416454315186,-0.6552026867866516,0.22736307978630066,0.4150075614452362,-0.32312890887260437,-0.004151593428105116,-0.10655637830495834,-0.7160784006118774,0.3078541159629822,-0.1693221777677536,0.000373795279301703,0.2967057228088379,-1.2460445165634155,0.7482083439826965,-0.4463753402233124,0.2087962031364441,0.2292776256799698,-0.0013927759137004614,-0.13495926558971405,-0.21332022547721863,-0.36752253770828247,-1.1541168689727783,0.41613051295280457,0.00303430063650012,-0.14661623537540436,-0.38627320528030396,0.03533528000116348,-0.4917345345020294,0.8868914842605591,1.3567264080047607,0.6679394245147705,0.8163890838623047,-0.4197710454463959,0.6280667185783386,-0.13939736783504486,-0.10825370997190475,0.15566721558570862,0.21431778371334076,-0.21410460770130157,0.01965063437819481,0.2769300043582916,0.019270768389105797,0.4553903043270111,-0.17492130398750305,-0.048508353531360626,-0.39503419399261475,0.14051423966884613,-0.4348832964897156,-0.18393434584140778,-0.09008460491895676,0.11215982586145401,0.07798508554697037,0.22307007014751434,0.41743436455726624,0.35297879576683044,-0.2734754979610443,0.07639580219984055,-0.09609436988830566,-0.16614221036434174,-0.23665174841880798,-0.007374863605946302,0.22356820106506348,0.10580142587423325,-0.08666012436151505,-0.272543340921402,0.14077182114124298,0.1393907219171524,0.22325077652931213,-0.2987023890018463,-0.1713646799325943,-0.13813647627830505,0.06534139811992645,-0.15568894147872925,-0.040786013007164,-0.2186661958694458,-0.17906078696250916,0.5323481559753418,-0.21246817708015442,-0.36799973249435425,0.13004730641841888,0.054331425577402115,0.5666636824607849,-0.29137372970581055,-0.024295354261994362,0.18012112379074097,0.43769383430480957,0.28551992774009705,-0.28887227177619934,-0.1123405247926712,-0.47462567687034607,-0.19268453121185303,-0.03805709630250931,0.22632871568202972,-0.0683918446302414,0.5430341362953186,-0.45902445912361145,0.19840826094150543,-0.11169498413801193,0.21280914545059204,-0.4529012441635132,0.024864932522177696,0.7926453351974487,-0.1460271030664444,-0.6118234992027283,0.4552256464958191,-0.6124594807624817,0.007502790540456772,0.1660642921924591,-0.48442044854164124,-0.3326367139816284,-0.3391883373260498,-0.42381829023361206,0.0044826422818005085,0.48714756965637207,0.3044792711734772,-0.5431568622589111,0.4671073853969574,0.03396155685186386,1.607159972190857,-0.5697361826896667,0.41979077458381653,-0.07987349480390549,-0.3334067761898041,-0.1964396983385086,-0.1752648651599884,-0.020677195861935616,0.13764658570289612,-0.2622080147266388,0.5250088572502136,0.11105447262525558,0.05099016800522804,0.18661324679851532,-0.6063262224197388,0.2467164397239685,0.5036145448684692,-0.03028796799480915,0.587053656578064,0.8487834930419922,0.11035475134849548,-0.11847571283578873,-0.8428658843040466,-0.2657966911792755,0.02768949791789055,0.38897961378097534,-0.7884826064109802,-0.38832348585128784,1.0295571088790894,-0.4282613694667816,0.47533389925956726,0.16592146456241608,0.8779016137123108,0.6722946166992188,0.6857381463050842,0.3308681845664978,0.8872344493865967,-0.995796263217926,0.4710156321525574,-0.26375114917755127,1.368215560913086,-0.6791377067565918,0.2716045081615448,-0.12925167381763458,-0.2767305374145508,0.017579246312379837,-0.1581707000732422,-0.1654990017414093,0.22102147340774536,0.029896708205342293,0.361294150352478,-0.19466657936573029,-0.1440446525812149,-0.1570511758327484,-0.28239157795906067,-0.13989794254302979,0.0048102219589054585,0.09603304415941238,0.18016575276851654,0.6046039462089539,-0.20132020115852356,-0.1118713766336441,-0.4353630542755127,-0.5416833162307739,0.23863594233989716,0.4948980510234833,-0.6402909755706787,-0.4746149778366089,1.0094478130340576,-0.2689089775085449,0.1368856281042099,0.5852009654045105,0.4656674265861511,0.41539862751960754,0.47371044754981995,0.4803573489189148,0.3554099500179291,0.2934885621070862,0.23376812040805817,0.15478378534317017,-0.16357137262821198,0.6963121294975281,-0.06220466271042824,0.10759469121694565,-0.8273835182189941,0.20752739906311035,-0.31276166439056396,0.8536468744277954,0.07412067800760269,0.5336242318153381,0.31476715207099915,-0.31705522537231445,0.24180352687835693,0.5133292078971863,-0.3910239040851593,0.24395112693309784,0.41135311126708984,0.2778322994709015,0.3725639879703522,0.4295005202293396,-0.10521764308214188,0.6913319230079651,-0.4229735732078552,0.3839028775691986,-0.5798531174659729,-0.4245446026325226,0.2000724822282791,0.02125498093664646,-0.07602477073669434,-0.27771610021591187,0.08645295351743698,-0.5492233633995056,0.4356871545314789,0.4275752604007721,0.27233660221099854,-0.45206618309020996,0.2117997258901596,-0.5503517985343933,0.161682590842247,-0.3922919034957886,0.5309600830078125,-0.2761802673339844,0.2359364926815033,-0.3108968436717987,-0.5088258385658264,-0.03686024621129036,0.2561991810798645,-0.05746794864535332,-0.04693209379911423,0.2740408182144165,0.11989156156778336,0.07486845552921295,-0.1463279277086258,0.044304486364126205,-0.2720727324485779,-0.22781801223754883,0.39875149726867676,0.3197339177131653,0.21232055127620697,0.22829118371009827,0.21107549965381622,0.21000787615776062,-0.2578389644622803,-0.3762204945087433,-0.2005370557308197,0.2926103174686432,-0.17492520809173584,-0.05781479924917221,0.23397374153137207,-0.4477634131908417,0.2210247665643692,0.43467941880226135,0.37097784876823425,0.2523910403251648,0.07161886990070343,0.007586772087961435,0.2804563343524933,-0.10189992189407349,-0.3354794979095459,-0.4685126841068268,0.529948353767395,-0.37187474966049194,-0.7741256356239319,-0.9256629943847656,0.4594784677028656,0.6702767610549927,-0.15913085639476776,-0.3920990824699402,-0.7458067536354065,-0.2575553059577942,0.43131715059280396,0.1665257066488266,0.32335662841796875,0.562837541103363,-0.676814079284668,-0.043397728353738785,-0.4264020323753357,0.3098975121974945,0.17835497856140137,0.2968430519104004,-0.26218709349632263,0.03730570897459984,-0.5698428750038147,-0.48556116223335266,-0.4279554486274719,0.37076878547668457,-0.07231983542442322,-0.408467561006546,-0.08930528163909912,-0.6276410818099976,-0.25263795256614685,0.6695969104766846,0.5150166749954224,0.7000043392181396,-0.04567227140069008,0.07479792833328247,-0.6175011992454529,0.6995034217834473,-1.0646662712097168,0.1496354192495346,-0.24367062747478485,0.2567443251609802,-0.43517181277275085,-0.02961735613644123,0.2230028659105301,-0.3849344551563263,-0.4575722813606262,1.1053118705749512,0.6824890375137329,0.05921328067779541,0.33695030212402344,-0.7398566603660583,0.3368172347545624,0.03602193668484688,-0.4905334413051605,0.5309994220733643,-0.24460168182849884,-0.6308308839797974,-0.134489044547081,-0.29118645191192627,-0.5618903040885925,1.0127848386764526,0.15883508324623108,-0.16551573574543,0.19308529794216156,0.5910773277282715,-0.28352296352386475,-0.08444853127002716,-0.5823442339897156,0.15943194925785065,0.5021320581436157,0.17803993821144104,-0.026542063802480698,-0.06498429924249649,-0.8817003965377808,-0.901671290397644,0.5413801074028015,-0.2873257100582123,0.41111958026885986,0.011564251035451889,0.5213816165924072,-0.13692395389080048,0.1576564610004425,-0.06214984506368637,0.415810227394104,-0.019202828407287598,-0.13839823007583618,-0.6842170357704163,-0.24376364052295685,-0.5856223702430725,0.11808895319700241,0.24518662691116333,-0.22879038751125336,0.08862607926130295,-0.28966468572616577,0.3394888937473297,0.45432746410369873,-0.4076840877532959,0.42478856444358826,0.4372289180755615,0.04948752745985985,-0.25966477394104004,-0.46288204193115234,0.1334998905658722,-0.31589147448539734,0.15838274359703064,-0.8420640230178833,-0.21447482705116272,0.8645927906036377,-0.09230665862560272,-0.4031111001968384,0.1482255458831787,0.11566703021526337,0.2848057150840759,0.783374011516571,0.026589112356305122,0.3047676682472229,0.2708776593208313,-0.45078137516975403,0.6848344802856445,-0.10646696388721466,0.6812779903411865,-0.5572817921638489,-0.4743862450122833,-0.2671605944633484,-0.3324638605117798,-0.46292346715927124,1.0108842849731445,1.0124166011810303,-0.6269581913948059,0.18744349479675293,-1.2641857862472534,0.29683005809783936,0.3989323079586029,-0.4915087819099426,0.8373816013336182,0.1860695779323578,-0.09788374602794647,0.5177960991859436,-0.27389952540397644,-1.3688446283340454,0.33261963725090027,-0.5462508201599121,-0.5639317035675049,0.5664684772491455,0.304986834526062,-0.5406701564788818,-0.3671473264694214,-0.12104212492704391,-0.34579357504844666,0.8014137148857117,0.3476318120956421,0.7896828651428223,0.6781733632087708,-0.36528611183166504,0.2337990701198578,-0.2504897713661194]},"forgetHidden":{"rows":20,"columns":20,"weights":[0.16548365354537964,0.23413081467151642,0.06029673293232918,-0.014454406686127186,0.6837523579597473,-0.033130284398794174,0.5970349311828613,-0.20824941992759705,0.038961537182331085,-1.130002737045288,-0.22796247899532318,-1.3329325914382935,0.529075026512146,0.17059214413166046,-0.26319876313209534,-0.34239280223846436,0.4121849238872528,0.7750900387763977,0.1398206353187561,-0.3444972336292267,-0.37429261207580566,0.1397254467010498,0.34264615178108215,-0.09678170084953308,0.29538869857788086,0.13086536526679993,0.2353401929140091,0.18886686861515045,-0.18032404780387878,0.1209329143166542,-0.28936582803726196,0.3464118540287018,0.2048351764678955,0.010535281151533127,-0.038873057812452316,-0.4326559603214264,0.12296409904956818,0.5782120823860168,0.27477896213531494,0.3897288739681244,0.028058573603630066,0.08308421075344086,0.27381202578544617,-0.01797441765666008,0.19677288830280304,-0.2129857987165451,-0.1884097307920456,0.4854898750782013,0.03636546805500984,0.5165018439292908,-0.36449068784713745,-0.4601910412311554,0.06636057049036026,-0.5549839735031128,-1.154488205909729,-0.5725439786911011,0.5830583572387695,1.8695014715194702,0.012678349390625954,0.34131184220314026,-0.6218520402908325,0.4957701563835144,0.28803715109825134,-0.17317715287208557,-0.7375067472457886,0.4177757799625397,-0.3832471966743469,0.25586292147636414,-0.3309183418750763,-0.4590315520763397,-0.4054712951183319,-0.4596932828426361,0.4588645398616791,0.722115695476532,-0.13088275492191315,-0.7009264230728149,-0.25201329588890076,0.5585445761680603,0.528878390789032,-0.5778977274894714,0.08372374624013901,0.17453567683696747,0.8161221146583557,0.37114188075065613,-0.19573897123336792,-0.02686752937734127,0.15368789434432983,-0.1771668642759323,-0.02936154045164585,-0.7310646772384644,-0.022134175524115562,-0.42829737067222595,-0.21898844838142395,0.40291085839271545,-0.6474733352661133,-0.1569957733154297,0.38703420758247375,-0.6335991621017456,0.08283386379480362,-0.45610907673835754,-0.4715355634689331,0.26269322633743286,0.12423276901245117,0.11774197965860367,0.12878340482711792,0.10474099963903427,0.15761013329029083,0.37905341386795044,-0.16813571751117706,-0.14279982447624207,-0.1633957475423813,0.2611190974712372,-0.4951643645763397,0.1268492341041565,-0.1519240438938141,0.3559668958187103,-0.09960442781448364,-0.3420344293117523,0.07402060925960541,0.4060577154159546,-0.7627154588699341,0.1525701880455017,0.26626265048980713,-0.07491961121559143,-0.08253297954797745,0.2737258970737457,-0.47708842158317566,0.1735742837190628,-0.3262082636356354,-0.07150932401418686,-0.2216568887233734,-0.08077608048915863,0.41058680415153503,0.7707473039627075,0.2163737416267395,-0.45427143573760986,-0.1411709189414978,-0.002873915247619152,0.1524367332458496,-0.5642420053482056,-0.27658799290657043,0.25227227807044983,-0.09089532494544983,0.029744455590844154,0.5877264738082886,0.19723737239837646,0.43694356083869934,0.6218492984771729,-0.21537727117538452,0.054978445172309875,-0.3426613211631775,0.09049496799707413,-0.005381304305046797,0.4233902394771576,-0.3386336863040924,-0.23101457953453064,-0.48176127672195435,0.0555558055639267,0.4011109173297882,0.021808737888932228,-1.044204831123352,0.11669564992189407,0.1222759559750557,0.2004109025001526,-0.02489512972533703,0.0452139787375927,0.10767073929309845,0.11607841402292252,-0.0622505322098732,0.22792948782444,-0.08046092092990875,0.40429168939590454,-0.38576990365982056,0.11573652178049088,-0.41922101378440857,0.08163115382194519,0.24638471007347107,-0.12349055707454681,0.11480924487113953,0.019206348806619644,0.2869197130203247,0.048935405910015106,-0.2630578577518463,0.6134527921676636,0.49284985661506653,0.1539689600467682,-0.06351067870855331,0.11800633370876312,-0.23602022230625153,-0.3048049211502075,0.02520422451198101,0.7346193194389343,-0.778701901435852,0.2943601906299591,-0.6978455781936646,0.6498720645904541,-0.25236767530441284,0.6845797896385193,0.03562801703810692,0.4059049189090729,-0.31278252601623535,0.09966881573200226,0.27027520537376404,-0.2163882702589035,0.3938484489917755,-0.04328484088182449,0.09894349426031113,0.2552785873413086,-0.1164204552769661,0.11044955998659134,-0.14055310189723969,0.11440268158912659,-0.11620402336120605,0.10019668191671371,0.31820452213287354,-0.10609426349401474,0.12543177604675293,0.2670132517814636,0.08608022332191467,0.46034958958625793,0.11193262040615082,0.2248329371213913,1.2451789379119873,0.3112174868583679,1.6659208536148071,0.07318416237831116,0.24442222714424133,0.3127397298812866,-0.24251773953437805,0.019832635298371315,-0.16807201504707336,-0.6974642276763916,-0.49573490023612976,-0.22679853439331055,-1.1575247049331665,-0.033860743045806885,0.44135165214538574,0.49214303493499756,-0.09743443876504898,0.6796040534973145,-0.4291057884693146,0.4378320872783661,-0.6372388005256653,0.5644257068634033,0.09004198759794235,0.17200560867786407,-0.022040611132979393,-0.25038397312164307,-0.3955683708190918,-0.07170366495847702,-0.3480127155780792,0.15233372151851654,0.299250990152359,0.2230081409215927,-0.5098451375961304,-0.5195876359939575,0.5991134643554688,0.00658124964684248,0.47814077138900757,-0.019339287653565407,-0.06421034038066864,0.028529291972517967,0.12846492230892181,0.13869255781173706,-0.23384056985378265,-0.06317025423049927,0.18648692965507507,-0.013014854863286018,0.0952434316277504,-0.07144848257303238,-0.06713642925024033,-0.7823205590248108,-0.30915191769599915,-0.04851996898651123,-0.3697141408920288,0.084202840924263,0.5424858331680298,0.5789598226547241,-0.1159912645816803,0.17991648614406586,0.45724794268608093,0.45089802145957947,0.9048984050750732,-0.06649219989776611,0.2178688496351242,-0.012214058078825474,-0.14356081187725067,0.23333251476287842,-0.33813780546188354,-1.1205804347991943,-0.3296433687210083,-0.984229326248169,0.8678510189056396,0.9966570138931274,-0.2378089278936386,-0.7461743950843811,-0.2699829638004303,0.8684930205345154,0.4961775541305542,-0.4654865562915802,-0.22807645797729492,0.08008645474910736,-0.1343262493610382,0.26601850986480713,0.45281875133514404,-0.4539533853530884,0.5385043025016785,-0.16693344712257385,0.27724921703338623,-0.3431192934513092,0.11004353314638138,-0.29192283749580383,0.3904705345630646,0.331714391708374,-0.4554610252380371,-0.3059964179992676,0.13209250569343567,0.5285776853561401,0.023230155929923058,-0.29891014099121094,0.40963807702064514,0.41939154267311096,0.2910825312137604,-0.5804626941680908,-0.690816342830658,0.04448920115828514,-0.025563562288880348,0.6836819052696228,-0.13188721239566803,0.39027678966522217,-0.3281397521495819,0.30263686180114746,0.4445438086986542,-0.4004410207271576,-0.1239299327135086,-0.26926544308662415,-0.5343728065490723,-0.025769373401999474,0.14931979775428772,-0.2712194621562958,-0.32721415162086487,0.4962785542011261,0.2782413065433502,0.25267475843429565,0.02129449136555195,0.557541012763977,-0.18272389471530914,0.5412492156028748,-0.4788433015346527,-0.8763776421546936,-0.4839727580547333,-1.2417317628860474,0.2807635962963104,1.3009799718856812,-0.450357586145401,-0.24785767495632172,-0.29664504528045654,0.016353046521544456,0.6088801026344299,0.683294415473938,-0.4404279887676239,0.0939006581902504,0.15230043232440948,0.11619380861520767,0.5492972731590271,-0.012554699555039406,0.1284543126821518,0.2498527616262436,-0.03285663574934006,0.13844594359397888,-0.0946088582277298,0.16994157433509827,-0.17467249929904938,0.018734632059931755,-0.19660726189613342,0.1794380098581314,0.0037737542297691107,0.09960310161113739,0.03861222043633461,-0.02070663496851921,0.021858522668480873,0.8511930704116821,-0.12473164498806,-0.02543281391263008,0.20166712999343872,0.7113279700279236,-0.6311869025230408,0.6143231987953186,-0.7960366010665894,0.2405136674642563,-0.6895653605461121,0.10769250988960266,0.08040983974933624,-0.2800349295139313,-0.5580049157142639,-0.43842801451683044,0.27712079882621765,0.6066134572029114,0.7295929193496704,0.4034878611564636]},"forgetBias":{"rows":20,"columns":1,"weights":[0,0,0,0,0,0,0,0,0,0,0,0,0,0,0,0,0,0,0,0]},"outputMatrix":{"rows":20,"columns":40,"weights":[-0.10864593088626862,-0.14186426997184753,-0.10490136593580246,0.1080990582704544,-0.5168645977973938,-0.26212915778160095,-0.2636776566505432,-0.0651690885424614,0.6921156048774719,0.08265518397092819,-0.28736260533332825,-0.3953079879283905,-0.051964398473501205,-0.13072332739830017,0.36915409564971924,0.4149762690067291,-0.18702208995819092,-0.1129792183637619,0.02297213487327099,0.10486362874507904,0.6114807724952698,-0.27580952644348145,0.30944034457206726,0.118401437997818,0.04332886263728142,0.15261507034301758,-0.33683523535728455,0.31088927388191223,0.18403734266757965,-0.22003298997879028,-0.2087356597185135,0.00885779969394207,-0.039358966052532196,-0.010960928164422512,0.296461284160614,0.10321222245693207,0.23386380076408386,0.25133517384529114,0.08854827284812927,-0.6783053874969482,-0.11235089600086212,-0.05423426255583763,0.004950463771820068,0.11231983453035355,-0.18085283041000366,0.15890297293663025,0.015753936022520065,0.4553551971912384,-0.28234314918518066,-0.46341848373413086,-0.3889433741569519,0.04144880175590515,-0.19751383364200592,-0.07351620495319366,0.054733894765377045,0.1621323674917221,0.02226448990404606,-0.0498679056763649,-0.024023380130529404,0.5418041944503784,-0.2548427879810333,0.048831257969141006,0.07220905274152756,-0.14634299278259277,-0.3607234060764313,-0.07445915788412094,0.247394859790802,-0.016316745430231094,-0.06032948195934296,-0.1320848912000656,-0.1763763129711151,0.2894066870212555,0.2792298495769501,-0.34304118156433105,-0.1552329659461975,-0.0009387877653352916,0.007237106095999479,-0.010000537149608135,0.24015559256076813,-0.08837384730577469,-1.1709353923797607,0.31619566679000854,-1.0454190969467163,0.9380156397819519,-0.775177538394928,0.6177663803100586,0.06638109683990479,0.1546439826488495,0.05853145942091942,0.19868862628936768,0.16515448689460754,-0.2029959112405777,0.0564657598733902,0.4395260214805603,-0.07650620490312576,-0.11376786231994629,-0.2698936462402344,0.3447742760181427,-1.0604000091552734,0.12342271953821182,0.10381406545639038,-0.4515424966812134,0.7104139924049377,0.7096475958824158,-0.6071664690971375,0.37549230456352234,0.4884352684020996,-0.3720480799674988,-0.7106427550315857,1.3904201984405518,0.5082275867462158,0.1895902305841446,0.04412372037768364,-0.09411729872226715,0.4992077946662903,-0.3643205165863037,-0.9909181594848633,0.3801390826702118,0.6174731254577637,0.2485523521900177,0.06871769577264786,-0.47860655188560486,-0.24657556414604187,-0.2838505208492279,0.11776838451623917,0.7590985894203186,-0.04651540517807007,-0.199630007147789,-0.2652979791164398,0.42277994751930237,0.7980753779411316,0.3958970010280609,-0.03723423555493355,-0.6395362019538879,-0.4766964316368103,-0.2755160927772522,-0.7973230481147766,0.6986838579177856,-0.1741647869348526,-0.25643858313560486,0.3344039022922516,-0.4631248414516449,-0.41340091824531555,-0.06840275228023529,0.5551611185073853,0.2880563735961914,-0.2854101359844208,0.8251068592071533,0.6934284567832947,-0.18674305081367493,0.016921736299991608,-0.2147238552570343,0.13892902433872223,0.563083827495575,-0.2997751832008362,-0.22009103000164032,-0.31685149669647217,-0.378214567899704,0.22159171104431152,0.37414342164993286,-0.029769882559776306,-0.3485453724861145,-0.06717429310083389,-0.3319685161113739,-0.3107786178588867,-0.5127254128456116,-0.10260342061519623,-0.04531117156147957,0.3171031177043915,-0.2446109652519226,-0.4603290259838104,-0.5744979381561279,-0.36702752113342285,-0.2284887582063675,0.5655953288078308,-0.023403409868478775,0.16059112548828125,-0.2632126212120056,0.24027952551841736,-0.1499897986650467,0.11029458791017532,-0.06440966576337814,0.06706752628087997,-0.16546453535556793,0.22486533224582672,-0.13731901347637177,-0.42813071608543396,0.2764029800891876,0.20750738680362701,-0.2877988815307617,-0.3021175265312195,-0.11726962774991989,-0.04243529587984085,0.12831918895244598,0.27144744992256165,0.13375894725322723,0.2767011523246765,-0.1517859250307083,0.3567792773246765,-0.3438798785209656,-0.1147664338350296,0.16041550040245056,0.2829733192920685,0.35536351799964905,-0.3771420419216156,0.11131276935338974,-0.2266339361667633,0.5466530919075012,0.20360493659973145,-0.2491951435804367,-0.6884981393814087,-0.4181605577468872,-0.6723390221595764,0.007729232776910067,0.5415263772010803,-0.07851751148700714,-0.02070813626050949,-0.32772716879844666,0.2087547332048416,0.22618936002254486,0.04719056934118271,-0.007388561498373747,0.2144613116979599,0.3606375753879547,-0.6771611571311951,-0.26119616627693176,-0.21087196469306946,0.05623764172196388,0.23991912603378296,-0.5938088297843933,-0.15963418781757355,0.499251127243042,0.006403159350156784,-0.15705923736095428,0.11799901723861694,0.16329728066921234,0.14879320561885834,0.5781968235969543,0.08705095201730728,-0.09892318397760391,0.09142176061868668,-0.4844282567501068,0.36114001274108887,-0.20628918707370758,0.052497461438179016,-0.4709065556526184,-0.17057783901691437,0.23048579692840576,0.46109873056411743,-0.284114271402359,-0.6393992900848389,-0.8124831914901733,-0.21997085213661194,-0.5263785123825073,0.47475019097328186,0.04463274031877518,-0.1018323078751564,-0.23296725749969482,0.4031890630722046,-0.07530327141284943,0.28902778029441833,-0.4385903775691986,-0.4777719974517822,-0.08046065270900726,-0.3332902193069458,0.17324574291706085,-0.8943091034889221,0.2893652021884918,0.26019230484962463,-0.246326744556427,0.47321489453315735,-0.34655094146728516,0.27585771679878235,0.3431398570537567,0.1424562782049179,0.0741797611117363,-0.09754551202058792,-0.08618998527526855,0.14846642315387726,-0.38978952169418335,0.03666341304779053,0.17972613871097565,0.24037176370620728,-0.26399853825569153,-0.2642059028148651,0.002747057704254985,0.1713929921388626,0.8881494402885437,0.08173450827598572,-0.2106827199459076,-0.9254384636878967,-0.060051485896110535,-0.664539098739624,-0.22852583229541779,-0.14450760185718536,-0.09218733757734299,-0.13676606118679047,0.25025609135627747,0.2053101360797882,-0.06558729708194733,-0.21781767904758453,-0.23429866135120392,-0.12684985995292664,-0.02549152262508869,-0.7587860822677612,0.21450136601924896,0.1646045446395874,0.514877438545227,-0.6525588035583496,-0.06303270161151886,-0.33219030499458313,-0.0315677747130394,0.54674232006073,-0.4222523272037506,-0.2123418152332306,-0.45689722895622253,-0.4566729962825775,-0.4428219497203827,0.3607069253921509,-0.7663628458976746,-0.017529966309666634,0.34013742208480835,0.12809938192367554,-0.04127262160181999,-0.25539979338645935,0.2564656734466553,-0.004258086904883385,0.5143041610717773,-0.0949660986661911,-0.22246448695659637,-0.5000708103179932,-0.11433849483728409,-0.3965529203414917,-0.10286407917737961,0.011063960380852222,0.1380583941936493,0.09765363484621048,0.027976777404546738,0.25444766879081726,0.25616517663002014,-0.22245024144649506,0.12933862209320068,-0.14651797711849213,0.10075629502534866,-0.43291816115379333,-0.03469035401940346,0.27841636538505554,-0.0386384092271328,-0.12007517367601395,-0.2620164155960083,-0.09467978030443192,0.19078420102596283,0.28854840993881226,-0.4310310184955597,-0.4267648160457611,-0.0848192349076271,0.12102124094963074,0.039529167115688324,0.06966504454612732,-0.3048524260520935,-0.6811339259147644,0.8040983080863953,0.08352865278720856,0.7629748582839966,-0.32016265392303467,0.500607430934906,0.08137164264917374,0.03446623682975769,0.3573196232318878,-0.3601010739803314,-0.5131848454475403,-0.4952308237552643,-0.08263744413852692,0.1336311548948288,0.30228757858276367,-0.3122357130050659,-0.0037606251426041126,-0.338096559047699,-0.5456425547599792,0.14055638015270233,0.4005607068538666,0.12423516064882278,0.1568019539117813,0.8625820875167847,-1.1302720308303833,-0.2012830674648285,-0.017929133027791977,-0.09551124274730682,-0.16102783381938934,0.2694622874259949,0.15286943316459656,0.5180789232254028,-0.03738870099186897,-0.18044735491275787,0.5251309871673584,0.4434548318386078,-0.017163557931780815,0.7391358017921448,0.47475680708885193,0.5925772786140442,-0.14299528300762177,0.17014195024967194,0.09364914149045944,0.0019529287237673998,-0.02761349081993103,0.29401448369026184,0.082675501704216,-0.04154720529913902,-0.010099089704453945,-0.158255472779274,-0.10511048138141632,-0.006912326905876398,-0.011898885481059551,-0.3934148848056793,-0.1697685718536377,-0.0006759769166819751,-0.13207241892814636,0.025071853771805763,-0.025768501684069633,0.10640913993120193,0.011044403538107872,-0.22230839729309082,-0.11127382516860962,-0.03573017567396164,-0.21516713500022888,0.006504273973405361,0.061402831226587296,0.2158433049917221,0.03474326804280281,0.08936803042888641,0.054730478674173355,0.1027865782380104,0.2287522703409195,-0.013322544284164906,-0.11961911618709564,-0.08887574076652527,-0.04695473611354828,-0.04082391411066055,0.2771543860435486,-0.01809852197766304,-0.8358034491539001,0.5669017434120178,0.10848911106586456,0.6524099111557007,-0.1672891080379486,0.6242027282714844,0.369567334651947,-0.5877504348754883,0.14107614755630493,-0.1606874316930771,-0.09778036922216415,-0.2752695083618164,-0.3787703216075897,0.4695977568626404,0.4104226529598236,-0.5616419315338135,0.1857547014951706,-0.39235228300094604,-0.4889164865016937,0.5134882926940918,0.3691585958003998,0.3704582750797272,0.3692055344581604,0.8247847557067871,-0.6675764918327332,-0.5827667713165283,-0.14030593633651733,-0.5870978832244873,-0.03506655618548393,0.4044921100139618,-0.06559368968009949,0.8761816024780273,-0.36296120285987854,-0.02457750216126442,0.6773800253868103,0.5492885708808899,-0.15029926598072052,0.8886817693710327,0.4352365732192993,1.0240246057510376,-0.408944308757782,0.33218640089035034,-0.8331077694892883,0.6815969347953796,-0.45719626545906067,0.09769545495510101,-0.37621641159057617,-0.3156391382217407,0.45387497544288635,-0.5399786233901978,-0.20045331120491028,-0.43518295884132385,0.8982040882110596,0.09269734472036362,0.46106740832328796,0.2509180009365082,0.22058521211147308,-0.30719810724258423,-0.7677153944969177,0.12710754573345184,0.799235463142395,0.24598254263401031,0.6238335967063904,0.3320648968219757,-0.24073708057403564,-0.2183324694633484,0.2993713617324829,-0.25580906867980957,-0.7123866677284241,0.24033395946025848,-0.12098528444766998,0.4085075557231903,-0.23666086792945862,-0.3383226990699768,0.3134625554084778,0.24007657170295715,-0.0174870565533638,0.7343238592147827,0.04660744592547417,0.3834005296230316,-0.7078747749328613,0.3948083519935608,-0.04694637656211853,0.6169092059135437,-0.2371549904346466,0.16015365719795227,-0.07967571169137955,-0.050413161516189575,-0.11213064938783646,-0.2864076793193817,-0.2699575126171112,-0.12378748506307602,-0.42102253437042236,0.2363237589597702,0.15057747066020966,0.25035256147384644,0.29274481534957886,-0.3660152554512024,-0.252545028924942,0.6756206154823303,0.29342982172966003,0.3328248858451843,0.2648133933544159,0.0939771831035614,-0.671980619430542,-0.3469676375389099,0.0447549894452095,-0.3995361030101776,0.07515823841094971,0.046044085174798965,-0.1605335921049118,0.47784528136253357,-0.3800698220729828,-0.20844943821430206,0.43475303053855896,0.5913040637969971,0.25160667300224304,0.40638214349746704,0.37504127621650696,0.1723434329032898,0.05837834253907204,0.5090603232383728,-0.8209633827209473,0.8054218888282776,-0.27183762192726135,0.8627579808235168,0.932112991809845,0.43852758407592773,-0.19882281124591827,1.0980720520019531,0.4399667978286743,0.12104764580726624,-0.42675063014030457,0.022143900394439697,-0.29850292205810547,-1.2029285430908203,-1.2673932313919067,0.6990273594856262,-0.6077679395675659,-1.0036389827728271,0.19741040468215942,-0.746776819229126,-0.31059154868125916,0.8530217409133911,0.3766278624534607,0.40989014506340027,-0.2695207893848419,1.0349266529083252,0.8656173944473267,-0.4314703345298767,-0.05775076523423195,0.4819764792919159,0.25339818000793457,0.30726632475852966,-0.49532249569892883,-0.4793589115142822,-0.6027420163154602,0.518875241279602,0.3325067162513733,1.0005323886871338,-0.3187812864780426,0.26944199204444885,-0.09645464271306992,0.009458138607442379,-0.07719296216964722,0.19153743982315063,-0.12277787923812866,-0.1676708161830902,0.24054284393787384,-0.12861430644989014,0.023797864094376564,0.07101710140705109,0.140959233045578,-0.36682361364364624,-0.21498218178749084,0.268623948097229,0.0767233818769455,-0.1041225865483284,-0.16264359652996063,0.394398957490921,0.3787100613117218,-0.11863911896944046,-0.17932753264904022,0.058220211416482925,-0.19101472198963165,-0.10701113194227219,-0.19279929995536804,-0.041646331548690796,-0.0169477891176939,0.08358055353164673,-0.1812630295753479,0.07913720607757568,0.10439366847276688,-0.14609390497207642,-0.20037342607975006,0.1076522096991539,0.16216713190078735,0.05869295820593834,0.34276238083839417,-0.08397801220417023,-0.6212597489356995,0.26734423637390137,-1.0830864906311035,0.7725986838340759,-0.6287117004394531,0.216932013630867,-0.42512816190719604,-0.14853142201900482,0.2369612455368042,-0.5046558976173401,-0.25132986903190613,0.18573838472366333,0.02703852206468582,0.5910259485244751,-0.014244326390326023,-0.11124582588672638,0.3172672986984253,0.17770910263061523,-1.005684494972229,-0.20228701829910278,0.5211465358734131,0.3736729621887207,0.5755096077919006,0.08945384621620178,-0.09084735810756683,-0.34871697425842285,0.3925796449184418,-0.15506722033023834,-0.08490101248025894,0.48084336519241333,-0.46195662021636963,0.3074251413345337,-0.22838538885116577,-0.6148069500923157,0.7384892702102661,0.36573153734207153,-0.14903032779693604,0.28674906492233276,0.29482805728912354,-0.08453164994716644,-0.32381272315979004,0.07091231644153595,-0.6575019955635071,0.5865988731384277,-0.33437949419021606,-0.01723220944404602,-0.6241189241409302,-0.5197283625602722,0.4502025246620178,0.19858196377754211,0.14002417027950287,-0.35059770941734314,0.4800216257572174,0.31654176115989685,0.3473120331764221,0.44940951466560364,0.07923140376806259,0.062112484127283096,-0.010581699199974537,0.5530849695205688,0.7608308792114258,0.18195511400699615,0.16114769876003265,0.4229862093925476,-0.1584888994693756,0.08367463201284409,-0.45363131165504456,-0.30748727917671204,0.6708561182022095,-0.0029680589213967323,-0.010638182051479816,-0.2406688630580902,-0.39699092507362366,0.20645074546337128,0.7379083037376404,0.6684662699699402,-0.07675085961818695,0.5437215566635132,0.3980570137500763,0.39115485548973083,-0.11983717978000641,0.23323117196559906,0.13461162149906158,0.19649915397167206,-0.30383729934692383,